4.337000548839569092e-01,-2.776767499744892120e-02,-1.042019724845886230e-01,3.012382388114929199e-01,6.603712681680917740e-03,2.158098071813583374e-01,6.106261014938354492e-01,-6.959877908229827881e-02,4.623979702591896057e-02,2.734415531158447266e-01,-4.790216684341430664e-01,-5.784048140048980713e-02,-1.904393429867923260e-03,-5.204809308052062988e-01,1.395761519670486450e-01,-2.091159671545028687e-02,-3.870930671691894531e-01,5.447561740875244141e-01,4.276635348796844482e-01,4.256730377674102783e-01,-5.691261291503906250e-01,4.838031157851219177e-02,1.679573357105255127e-01,-5.486822128295898438e-01,-3.175954222679138184e-01,-3.242519795894622803e-01,3.883026540279388428e-01,-2.283044904470443726e-01,-7.026172429323196411e-02,2.385471761226654053e-01,-2.583135054056058533e-14,-2.636505365371704102e-01,-2.878884077072143555e-01,1.093186363577842712e-01,8.710078150033950806e-02,-7.701646089553833008e-01,4.444905519485473633e-01,4.433348402380943298e-02,-2.411577403545379639e-01,6.052800416946411133e-01,6.161723732948303223e-01,-5.138221010565757751e-02,-1.762944906949996948e-01,-6.314265727996826172e-01,-4.245806336402893066e-01,-5.979472390046491198e-15,-3.806073367595672607e-01,-1.099537536501884460e-01,1.064110550976632430e-15,2.793895304203033447e-01,1.476776227355003357e-02,-8.264606595039367676e-01,-4.326323568820953369e-01,-9.545128941535949707e-01,6.488145887851715088e-02,-4.036591351032257080e-01,1.880062471264383472e-15,9.804032822938787278e-15,-1.138341501355171204e-01,-1.963637769222259521e-01,7.984769529595370230e-15,-5.041970014572143555e-01,5.396317243576049805e-01,4.593365192413330078e-01,2.770521342754364014e-01,-5.899446010589599609e-01,-1.325092017650604248e-01,-3.346264064311981201e-01,-1.409872472286224365e-01,5.528241395950317383e-01,-2.689515352249145508e-01,2.620253731870636482e-14,9.992495775222778320e-01,8.165780305862426758e-01,4.935530126094818115e-01,-5.264666080474853516e-01,5.024068523198366165e-03,-7.049085497856140137e-01,3.725032706337200183e-14,-7.234846353530883789e-01,4.427386224269866943e-01,-7.052925825119018555e-01,7.375556230545043945e-01,2.887782311997329210e-14,-6.319133639335632324e-01,-7.317677736282348633e-01,-4.704032838344573975e-01,-2.833241224288940430e-01,-2.355455188080668449e-03,-7.390258908271789551e-01,2.041798382997512817e-01,-5.834639817476272583e-02,1.829893589019775391e-01,1.124136387816755678e-14,-9.993413090705871582e-01,-3.296492099761962891e-01,4.673007130622863770e-01,-2.355026453733444214e-01,3.658832013607025146e-01,4.285061657428741455e-01,1.750008016824722290e-01,-2.124799787998199463e-02,-2.428374066948890686e-02,3.549413638437998175e-14,-6.761995553970336914e-01,-5.998761057853698730e-01,2.967252731323242188e-01,-1.804762631654739380e-01,2.792392969131469727e-01,1.841464535110720613e-14,1.399476379156112671e-01,2.475959621369838715e-02,-6.986222863197326660e-01,-2.352644175394186243e-14,1.053065154701471329e-02,-3.967501819133758545e-01,-7.048323154449462891e-01,-2.173386067152023315e-01,9.369141459465026855e-01,-1.119802832603454590e+00,-2.191190868616104126e-01,-3.440441489219665527e-01,-9.761692285537719727e-01,-4.943391382694244385e-01,-1.679607211505559222e-14,-4.172710776329040527e-01,-1.082784891128540039e+00,-1.025227546691894531e+00,-2.837647795677185059e-01,-5.319552496075630188e-02,7.485859990119934082e-01,-8.658792376518249512e-01,1.348842709075238899e-14,7.733032107353210449e-01,2.921659052371978760e-01,1.585318595170974731e-01,-1.130375981330871582e+00,-3.049502416265035404e-15,-6.665723919868469238e-01,-5.510420799255371094e-01,-9.805943965911865234e-01,1.711200523998607920e-14,4.193514287471771240e-01,-4.918173551559448242e-01,-3.533451557159423828e-01,-4.644805099815130234e-03,-6.077589392662048340e-01,2.945548295974731445e-01,3.334635794162750244e-01,8.831940889358520508e-01,1.843143015598999734e-14,1.011160314083099365e-01,1.048685431480407715e+00,4.704936662708672501e-14,-5.075302124023437500e-01,-3.043099045753479004e-01,1.088907718658447266e+00,-6.449359655380249023e-01,-2.815902531147003174e-01,1.007059216499328613e+00,-8.057204484939575195e-01,-1.042238712310791016e+00,8.182366490364074707e-01,-1.115106701850891113e+00,5.470013022422790527e-01,3.207163512706756592e-01,1.077134370803833008e+00,-3.915750682353973389e-01,6.752857565879821777e-01,3.557308018207550049e-01,-1.407174480020853546e-14,3.902696073055267334e-02,2.167444826048359197e-14,-2.739632725715637207e-01,-3.059128113090991974e-02,-7.137750983238220215e-01,-5.106228590011596680e-01,2.649181187152862549e-01,1.855906546115875244e-01,7.190503478050231934e-01,-7.714466452598571777e-01,-5.956810116767883301e-01,-9.663596153259277344e-01,-4.949639737606048584e-01,1.383007952409330554e-14,-1.122686982154846191e+00,4.110968112945556641e-01,-4.840139448642730713e-01,-8.852204680442810059e-01,2.068885043263435364e-02,1.159265808754706903e-14,1.182153150439262390e-01,-1.617706567049026489e-01,-8.098267316818237305e-01,-1.592848002910614014e-01,-3.987932801246643066e-01,-6.090784072875976562e-01,-6.941668391227722168e-01,7.155144214630126953e-01,9.025321155786514282e-02,1.468582004308700562e-01,-2.071005403995513916e-01,-9.397440552711486816e-01,1.073584854602813721e-01,4.419162869453430176e-02,-7.090340852737426758e-01,-7.983232736587524414e-01,1.484179261695278695e-14,-2.469061911106109619e-01,5.202253535389900208e-02,4.711185395717620850e-01,1.502292214239364654e-14,-2.304689884185791016e-01,7.791137695312500000e-01,-3.088592588901519775e-01,-3.763673671764583561e-14,2.595486342906951904e-01,9.966487884521484375e-01,-1.919053345918655396e-01,-1.960789793335401821e-15,-6.463358402252197266e-01,8.571111559867858887e-01,6.754821538925170898e-01,-7.349711656570434570e-01,-4.771987497806549072e-01,6.370145082473754883e-01,3.379387855529785156e-01,7.366899400949478149e-02,-4.421243909746408463e-03,-1.894521662487193281e-14,-3.129476904869079590e-01,4.691973626613616943e-01,-5.572205185890197754e-01,3.553270697593688965e-01,-1.024614453315734863e+00,-1.108629554510116577e-01,3.654238581657409668e-01,1.290255069732666016e+00,8.360567092895507812e-01,-8.720030784606933594e-01,5.554347038269042969e-01,3.237968981266021729e-01,1.804388547756684280e-15,3.641011118888854980e-01,5.772723555564880371e-01,-1.330440342426300049e-01,-3.948294328200846470e-14,-3.068282604217529297e-01,-3.140671849250793457e-01,7.476111054420471191e-01,-1.092160567641258240e-01,1.893903613090515137e-01,5.914521903651031448e-15,-6.227262616157531738e-01,1.164665579795837402e+00,8.297193050384521484e-02,-3.788756430149078369e-01,-1.354324668645858765e-01,-8.582571148872375488e-01,8.160046339035034180e-01,6.349020004272460938e-01,-1.046683192253112793e+00,-6.803785562515258789e-01,-4.001050591468811035e-01,-6.996737718582153320e-01,1.048546195030212402e+00,-1.971302827463543295e-14,-2.009080201387405396e-01,4.075562953948974609e-01,6.858287751674652100e-02,-1.485861986875534058e-01,9.431396126747131348e-01,-5.385639667510986328e-01,-1.154444739222526550e-01,3.619168400764465332e-01,-1.046335771679878235e-01,6.236758455634117126e-02,-7.016184926033020020e-01,-6.707025170326232910e-01,1.074248075485229492e+00,-4.557918310165405273e-01,8.254812359809875488e-01,5.964682102203369141e-01,-1.925616059452295303e-03,-1.640634387731552124e-01,-2.394248992204666138e-01,2.944735288619995117e-01,7.594197243452072144e-02,4.307149723172187805e-02,7.841123938560485840e-01,3.637028932571411133e-01,8.808793872594833374e-02,8.043925166130065918e-01,-6.150496751070022583e-02,-9.409126639366149902e-01,-6.856508255004882812e-01,1.346879750490188599e-01,4.451114430921269960e-14,1.267378091812133789e+00,8.753324747085571289e-01,6.554867625236511230e-01,-2.572663724422454834e-01,-1.061332106590270996e+00,7.462408542633056641e-01,-1.589760563317811626e-14,-5.016157627105712891e-01,3.423029482364654541e-01,7.384044677019119263e-02,-7.580125927925109863e-01,3.479127585887908936e-01,-1.071334004402160645e+00,1.239171862602233887e+00,-9.608465433120727539e-02,6.871494650840759277e-01,5.402606129646301270e-01,-5.150966644287109375e-01,7.349420785903930664e-01,-9.042785763740539551e-01,3.868287503719329834e-01,3.245308101177215576e-01,5.310254693031311035e-01,-6.706975102424621582e-01,-9.030061364173889160e-01,5.778961777687072754e-01,1.465717107057571411e-01,-7.223477959632873535e-01,-1.558873206377029419e-01,4.119983017444610596e-01,-1.954510807991027832e-01,-3.008696734905242920e-01,-5.754318237304687500e-01,7.755698561668395996e-01,-1.903087496757507324e-01,1.034865826368331909e-01,-7.914478778839111328e-01,2.008213996887207031e-01,7.897974848747253418e-01,7.926409244537353516e-01,2.815159857273101807e-01,1.015900075435638428e-02,-2.987999618053436279e-01,4.525446593761444092e-01,-4.167635738849639893e-01,6.599981784820556641e-01,1.124590992927551270e+00,-1.195702552795410156e+00,1.056648254394531250e+00,4.511857926845550537e-01,-6.832408905029296875e-01,-5.637269616127014160e-01,-5.062479376792907715e-01,-6.866244673728942871e-01,-6.215448379516601562e-01,9.213575720787048340e-01,7.239371538162231445e-02,6.555272936820983887e-01,5.281973792267517787e-15,-1.218739271163940430e+00,9.420303106307983398e-01,-2.477265149354934692e-01,-9.103770554065704346e-02,5.800303220748901367e-01,-4.183650910854339600e-01,-2.806196920573711395e-02,-7.965714931488037109e-01,-3.620705902576446533e-01,1.239380359649658203e+00,-7.519479095935821533e-02,-3.805009424686431885e-01,-6.018338203430175781e-01,6.986398100852966309e-01,-5.609723329544067383e-01,-4.871155697772425186e-14,1.047127366065979004e+00,1.015455603599548340e+00,-5.032824277877807617e-01,-3.656226098537445068e-01,-4.722379148006439209e-01,-1.583455353975296021e-01,5.560478568077087402e-01,-6.352939009666442871e-01,3.214807212352752686e-01,8.884532451629638672e-01,1.803733780980110168e-02,5.055593733905260068e-14,-5.746283531188964844e-01,4.022605717182159424e-01,5.698254704475402832e-01,1.696786135435104370e-01,9.531585574150085449e-01,-9.625697135925292969e-01,-7.592316865921020508e-01,1.760669111590743019e-14,-5.390641093254089355e-01,-4.647538661956787109e-01,1.252071261405944824e-01,8.119485974311828613e-01,-1.094057321548461914e+00,1.123648762702941895e+00,1.149580478668212891e+00,8.215250074863433838e-02,-4.894164502620697021e-01,-5.970997214317321777e-01,6.335106492042541504e-01,-5.165355801582336426e-01,-1.306812167167663574e-01,9.584130048751831055e-01,1.422688396669584410e-14,2.641432918608188629e-02,1.401115536689758301e+00,-6.114088743925094604e-02,1.762430770714442513e-14,2.176833748817443848e-01,-7.426588982343673706e-02,8.790527582168579102e-01,-8.171743750572204590e-01,6.346017122268676758e-01,-1.067343354225158691e-01,1.113330960273742676e+00,4.032787680625915527e-01,-6.520946025848388672e-01,1.063647270202636719e+00,8.033706545829772949e-01,-1.708548463840754705e-15,4.996685683727264404e-01,-2.912101447582244873e-01,3.440669775009155273e-01,-6.155642867088317871e-01,1.512502580881118774e-01,-4.953605830669403076e-01,4.281811714172363281e-01,6.504882127046585083e-02,-1.166173934936523438e+00,1.909727901220321655e-01,3.614221484485140301e-14,-8.471229076385498047e-01,-2.931210696697235107e-01,8.476501703262329102e-01,-2.132856398820877075e-01,9.726237505674362183e-02,5.796890333294868469e-02,6.779865026473999023e-01,-2.918685674667358398e-01,2.422368526458740234e-01,4.033388197422027588e-01,9.073765873908996582e-01,5.178651809692382812e-01,-1.050092652440071106e-01,5.696669816970825195e-01,2.358406633138656616e-01,-6.569283604621887207e-01,5.437023043632507324e-01,5.073734130316837065e-15,4.763137102127075195e-01,1.085236072540283203e+00,1.073011636734008789e+00,-1.188955545425415039e+00,9.151951670646667480e-01,5.547918677330017090e-01,1.894471794366836548e-01,4.205466508865356445e-01,-9.353218972682952881e-02,-6.606830954551696777e-01,-7.019079327583312988e-01,-6.205999851226806641e-01,-4.321178197860717773e-01,-7.194682359695434570e-01,5.923573970794677734e-01,3.575198948383331299e-01,8.654679656028747559e-01,-1.499428302049636841e-01,-8.726239204406738281e-01,3.021664619445800781e-01,-7.695952057838439941e-01,3.100605905055999756e-01,-4.095471203327178955e-01,1.650279034520057975e-14,-7.260915637016296387e-01,1.434090984798932350e-14,-3.608916997909545898e-01,-7.620344758033752441e-01,9.589171409606933594e-02,2.931407094001770020e-01,-1.326305508613586426e+00,-1.661352465646102894e-14,-5.221990346908569336e-01,6.288532018661499023e-01,6.268009543418884277e-01,6.695457696914672852e-01,1.494582742452621460e-01,9.497764110565185547e-01,-2.331185191869735718e-01,2.058128416538238525e-01,-6.670376062393188477e-01,1.027884244918823242e+00,-1.923683583736419678e-01,1.125562191009521484e+00,1.953594945371150970e-02,7.903497219085693359e-01,-5.407224297523498535e-01,-3.776299580931663513e-02,9.286464452743530273e-01,6.740919351577758789e-01,-5.316465497016906738e-01,4.437911212444305420e-01,-6.698522894135403027e-16,-2.143478028805798768e-14,1.215725913643836975e-01,8.219341039657592773e-01,5.219035148620605469e-01,1.098453640937805176e+00,8.783017992973327637e-01,1.338665008544921875e+00,9.667608141899108887e-02,8.519024848937988281e-01,2.152679413557052612e-01,3.337063789367675781e-01,1.191336631774902344e+00,7.210341095924377441e-01,-5.885758399963378906e-01,1.421054244041442871e+00,6.189460307359695435e-02,4.858193993568420410e-01,2.823065519332885742e-01,-2.752101123332977295e-01,-8.422862887382507324e-01,-1.270923614501953125e-01,-5.115051269531250000e-01,-8.612859845161437988e-01,-1.408577710390090942e-01,-1.008936047554016113e+00,-4.174728691577911377e-02,2.137987464666366577e-01,1.057569861412048340e+00,7.875490784645080566e-01,1.535141766071319580e-01,-4.513103961944580078e-01,2.073794901371002197e-01,-2.199013233184814453e-01,-6.641799807548522949e-01,-3.965751528739929199e-01,-2.639248669147491455e-01,8.746922016143798828e-02,8.392284512519836426e-01,7.720888257026672363e-01,-3.603442609310150146e-01,-6.347365379333496094e-01,-2.043343186378479004e-01,-1.139262437820434570e+00,-4.235218946380125971e-15,2.671856991946697235e-02,8.083490133285522461e-01,-1.047207973897457123e-02,3.527142601155840856e-15,1.111647412180900574e-01,9.928281307220458984e-01,9.141087532043457031e-02,4.388434588909149170e-01,1.898167878389358521e-01,-9.001238346099853516e-01,-3.190150034870949114e-14,-7.821037769317626953e-01,5.179880261421203613e-01,-1.624871343374252319e-01,8.724624514579772949e-01,4.674923419952392578e-02,-1.142023205757141113e+00,-1.569434404373168945e-01,3.065021038055419922e-01,4.799961149692535400e-01,-4.156464636325836182e-01,6.997450590133666992e-01,3.988820314407348633e-01,-3.170943558216094971e-01,-6.104853153228759766e-01,-3.583392798900604248e-01,-1.397303044795989990e-01,-1.285683959722518921e-01,1.199442371726036072e-01,-2.611613869667053223e-01,-5.439643859863281250e-01,3.250677883625030518e-01,1.188724562525749207e-01,2.970331609249114990e-01,5.069159865379333496e-01,6.266005039215087891e-01,6.199061870574951172e-01,-5.444384813308715820e-01,-4.460644125938415527e-01,-6.290615797042846680e-01,1.066555619239807129e+00,-8.155812621116638184e-01,1.063515663146972656e+00,-7.022164463996887207e-01,-1.527116745710372925e-01,-1.401068925857543945e+00,-9.023317098617553711e-01,-3.213910325480968944e-14,4.836630523204803467e-01,1.543848216533660889e-01,3.918313980102539062e-01,-2.623401582241058350e-02,6.688449978828430176e-01,-5.197604298591613770e-01,8.675495982170104980e-01,-5.715934038162231445e-01,2.368510961532592773e-01,-8.006453514099121094e-02,-4.452757239341735840e-01,-7.214004397392272949e-01,-6.900158524513244629e-01,3.465275168418884277e-01,7.646472752094268799e-02,2.576473057270050049e-01,-6.752449274063110352e-02,-1.106268167495727539e-01,2.099587470293045044e-01,5.260672569274902344e-01,-1.573408246040344238e-01,-1.950162090361118317e-02,6.015082597732543945e-01,-7.134667038917541504e-01,-6.438637375831604004e-01,-5.377246737480163574e-01,7.923473715782165527e-01,-2.373843453824520111e-02,-9.236655831336975098e-01,-1.554039418697357178e-01,6.138502359390258789e-01,1.280895758925572336e-14,-1.002677440643310547e+00,-2.176926732063293457e-01,6.855450868606567383e-01,-3.304422199726104736e-01,3.786539137363433838e-01,-7.390609798414368714e-15,-3.250335156917572021e-01,1.506016956921620714e-14,2.384916692972183228e-01,-2.520748376846313477e-01,-8.060541749000549316e-01,-3.887215852737426758e-01,-2.870855927467346191e-01,5.519003272056579590e-01,-2.302113771438598633e-01,7.023833990097045898e-01,2.347550988197326660e-01,-5.050049424171447754e-01,-5.174726247787475586e-02,6.767190098762512207e-01,-8.856858015060424805e-01,-6.424586176872253418e-01,-4.057050049304962158e-01,4.947938218001490807e-14,-1.633491814136505127e-01,8.495117425918579102e-01,5.101130809634923935e-04,-9.530488252639770508e-01,1.964182108640670776e-01,-1.282482385635375977e+00,3.423834219574928284e-02,7.608968019485473633e-01,7.067892551422119141e-01,6.261147856712341309e-01,-6.935342550277709961e-01,8.013267517089843750e-01,7.036912441253662109e-01,-7.129498124122619629e-01,3.607570528984069824e-01,1.924637854099273682e-01,6.365491151809692383e-01,-3.316917419433593750e-01,-1.143768072128295898e+00,5.857031345367431641e-01,-6.929734349250793457e-01,-1.760424822568893433e-01,-1.247668862342834473e-01,6.062255501747131348e-01,-2.465423345565795898e-01,-2.811067700386047363e-01,-8.602315187454223633e-01,-9.166284799575805664e-01,3.050009906291961670e-01,1.381480135023593903e-02,-7.187536358833312988e-01,-1.162098646163940430e+00,1.028846621513366699e+00,-1.197184801101684570e+00,-4.400374591350555420e-01,-3.449095487594604492e-01,-1.075708746910095215e+00,-5.206393003463745117e-01,9.241331219673156738e-01,1.060370683670043945e+00,2.436154782772064209e-01,8.695978522300720215e-01,-1.347035467624664307e-01,1.601945459842681885e-01,-5.036814212799072266e-01,-3.298694491386413574e-01,3.637156262993812561e-02,-2.284298103319773454e-14,7.688807845115661621e-01,2.833819875806831146e-15,3.955062031745910645e-01,4.211626350879669189e-01,8.046966791152954102e-01,9.835603237152099609e-01,8.344212770462036133e-01,-7.145239710807800293e-01,6.305941939353942871e-01,5.289830639958381653e-02,3.118405938148498535e-01,5.729029178619384766e-01,1.930585503578186035e-01,3.116343915462493896e-01,-1.279110431671142578e+00,-4.470497369766235352e-01,1.990923583507537842e-01,-7.386733889579772949e-01,9.247652888298034668e-01,-8.617078065872192383e-01,-1.182500958442687988e+00,5.759658813476562500e-01,-4.554694592952728271e-01,4.959759712219238281e-01,-6.343560185061332402e-15,9.323024749755859375e-01,-5.824140310287475586e-01,6.094605922698974609e-01,-9.163457751274108887e-01,3.762555420398712158e-01,1.478784829378128052e-01,-6.843302249908447266e-01,4.723901748657226562e-01,-7.395358383655548096e-02,7.756282091140747070e-01,8.015878200531005859e-01,1.380615234375000000e-01,-6.472758054733276367e-01,4.124630689620971680e-01,8.362959623336791992e-01,7.760418057441711426e-01,4.218334704637527466e-02,-2.748934030532836914e-01,5.737556815147399902e-01,9.103982448577880859e-01,-2.461018413305282593e-01,-3.762212031710801541e-14,-7.562438845634460449e-01,-2.399397005950834605e-15,-5.092055201530456543e-01,-2.775109708309173584e-01,-7.392196059226989746e-01,1.126494556665420532e-01,-9.378879666328430176e-01,-5.430003404617309570e-01,9.579500555992126465e-01,-1.697905494858504422e-14,2.222936898469924927e-01,-4.951789975166320801e-01,-3.958235681056976318e-01,2.677161991596221924e-01,-2.169531237604035989e-14,-3.685048818588256836e-01,-4.295114340146372056e-14,-1.192947864532470703e+00,-1.329716295003890991e-01,7.080600410699844360e-02,2.309948764741420746e-02,-1.285396456718444824e+00,-2.116036117076873779e-01,3.336673080921173096e-01,-2.486520409584045410e-01,4.681898951530456543e-01,5.414765477180480957e-01,-4.414770007133483887e-01,-2.718548774719238281e-01,-1.244418859481811523e+00,-4.548291132827966821e-14,3.796260356903076172e-01,8.588353991508483887e-01,8.027272224426269531e-01,1.066227078437805176e+00,3.334991633892059326e-01,7.301558852195739746e-01,4.781163632869720459e-01,9.300230741500854492e-01,-2.475557126370257766e-14,5.469277501106262207e-01,-5.123728513717651367e-01,-8.713002204895019531e-01,6.580089926719665527e-01,4.921896383166313171e-02,-4.206669330596923828e-01,4.844425618648529053e-01,-1.061601638793945312e-01,-1.571322321891784668e+00,-1.711188703775405884e-01,-1.545482575893402100e-01,8.530411124229431152e-01,2.896916037674161781e-14,-5.962436199188232422e-01,-9.242758154869079590e-01,5.616337060928344727e-01,-6.052448153495788574e-01,-1.029194593429565430e-01,-7.527422159910202026e-02,4.820515215396881104e-01,8.721652626991271973e-01,9.251021146774291992e-01,-3.776394412566448644e-14,1.318391412496566772e-01,-5.271498560905456543e-01,-9.044685363769531250e-01,2.689265310764312744e-01,-7.586995959281921387e-01,-1.456798413455515084e-14,2.124161103630485548e-14,-5.702403677834873286e-15,-9.168436527252197266e-01,8.487257361412048340e-01,1.478839218616485596e-01,4.181875288486480713e-01,-6.621781587600708008e-01,7.229013741016387939e-02,-5.006351470947265625e-01,1.642414672417980698e-14,3.301454484462738037e-01,-8.626758307218551636e-02,1.036566495895385742e-01,9.860244393348693848e-01,6.858322620391845703e-01,2.679190039634704590e-01,5.674440860748291016e-01,-1.028120756149291992e+00,9.192477911710739136e-02,-4.526686966419219971e-01,1.717486381530761719e-01,1.307142019271850586e+00,-1.058155059814453125e+00,-5.256585478782653809e-01,-5.227235555648803711e-01,6.765292584896087646e-02,1.764758974313735962e-01,2.219851613044738770e-01,-9.392399191856384277e-01,9.188328683376312256e-02,-4.822418093681335449e-01,6.740663051605224609e-01,-2.053323738251608410e-14,6.999241113662719727e-01,-1.568059918022335353e-14,-8.757686614990234375e-02,1.921532303094863892e-01,6.096387505531311035e-01,5.995547175407409668e-01,-1.023288667201995850e-01,1.376345604658126831e-01,-1.025903105735778809e+00,5.728406310081481934e-01,-1.115599513053894043e+00,2.478797286748886108e-01,-5.114296078681945801e-01,-1.205871224403381348e+00,2.453024983406066895e-01,8.569641709327697754e-01,-3.903550654649734497e-02,-1.458504319190979004e+00,2.047716380140784942e-14,7.815563082695007324e-01,2.731608152389526367e-01,-3.396878540515899658e-01,6.325205564498901367e-01,6.345760822296142578e-01,1.010409221053123474e-01,-6.396597623825073242e-01,9.536767005920410156e-01,6.777944091401755244e-15,-4.039670228958129883e-01,6.463177204132080078e-01,-4.008250832557678223e-01,5.619347095489501953e-01,9.295271800532911577e-16,9.903794527053833008e-01,-8.408337831497192383e-01,-5.854752659797668457e-01,1.945311129093170166e-01,-3.746403455734252930e-01,-7.509765028953552246e-01,-1.072156071662902832e+00,2.688041925430297852e-01,1.738310158252716064e-01,6.502269506454467773e-01,1.555202960968017578e+00,5.106765031814575195e-01,-7.599210143089294434e-01,-2.953738719224929810e-02,5.701516866683959961e-01,-8.685582876205444336e-01,-3.825864863631067703e-15,1.015491485595703125e+00,7.351103425025939941e-01,1.899068027128286013e-14,-2.863636113176540321e-14,-9.895833134651184082e-01,6.495504975318908691e-01,-9.231221675872802734e-01,-7.589418292045593262e-01,-5.298041105270385742e-01,5.488317012786865234e-01,1.264331936836242676e-01,4.441544413566589355e-01,3.259467482566833496e-01,-5.151464343070983887e-01,7.348096370697021484e-01,2.914720475673675537e-01,-9.087888002395629883e-01,5.618651509284973145e-01,-3.707356452941894531e-01,-9.539003968238830566e-01,1.053625583648681641e+00,4.260129507732517140e-14,-1.631696373224258423e-01,6.250064969062805176e-01,5.872148871421813965e-01,4.036771953105926514e-01,-7.421337366104125977e-01,-6.644968688488006592e-02,8.036977052688598633e-01,-3.816124498844146729e-01,8.686597645282745361e-02,-4.634898900985717773e-01,4.029078483581542969e-01,-1.486404247841126292e-14,-4.655273854732513428e-01,9.325516223907470703e-01,-5.659162998199462891e-01,2.694298624992370605e-01,5.850428342819213867e-01,1.013712644577026367e+00,-6.524527668952941895e-01,-4.920924007892608643e-01,-1.286533117294311523e+00,1.238198056817054749e-01,3.787454366683959961e-01,6.132627725601196289e-01,-3.895784020423889160e-01,-4.912140667438507080e-01,-2.099137157201766968e-01,-1.054403856396675110e-01,-3.439323008060455322e-01,1.148941755294799805e+00,-1.562695577740669250e-02,1.225834551595895994e-15,1.965412348508834839e-01,-3.176433145999908447e-01,7.455931901931762695e-01,-6.633391976356506348e-02,-5.927646160125732422e-01,4.485924243927001953e-01,4.764970019459724426e-02,6.764889359474182129e-01,1.694113612174987793e-01,1.994867920875549316e-01,-2.309416532516479492e-01,1.328838944435119629e+00,-1.381829619407653809e+00,-3.004657030105590820e-01,6.002192497253417969e-01,8.980785608291625977e-01,-6.175258159637451172e-01,1.946851696781742858e-14,1.170161843299865723e+00,6.126348972320556641e-01,-9.335260391235351562e-01,-1.360722899436950684e+00,8.934247493743896484e-01,-1.171636506915092468e-01,4.919487833976745605e-01,-6.919860243797302246e-01,-4.531484842300415039e-01,-2.748211611080554617e-14,8.839656114578247070e-01,6.736587285995483398e-01,-5.117772817611694336e-01,2.095629088580608368e-02,6.986594200134277344e-01,-1.188936949380551417e-15,1.109557747840881348e+00,-4.914116263389587402e-01,1.007902503013610840e+00,7.774336934089660645e-01,9.589636921882629395e-01,6.530896767939671499e-15,-3.566543161869049072e-01,4.448646306991577148e-02,5.871781468165526707e-15,-7.619375586509704590e-01,4.669038057327270508e-01,4.628423750400543213e-01,-9.308286011219024658e-02,-1.374408364295959473e+00,6.280405819416046143e-02,6.070623993873596191e-01,1.013660311698913574e+00,4.969670772552490234e-01,-7.895467430353164673e-02,8.482033610343933105e-01,5.064315199851989746e-01,2.256451398134231567e-01,4.094260931015014648e-01,2.960768640041351318e-01,-3.716874420642852783e-01,-9.985011816024780273e-02,-1.672844669861270339e-14,4.315975308418273926e-01,-1.162739753723144531e+00,-3.256995677947998047e-01,3.179410099983215332e-01,4.864938259124755859e-01,-2.237763404846191406e-01,5.365481972694396973e-01,2.212310806011703879e-14,-1.620263606309890747e-01,6.368632912635803223e-01,6.752561330795288086e-01,-2.656373977661132812e-01,4.078380167484283447e-01,-1.226927757263183594e+00,-7.302203178405761719e-01,1.320908218622207642e-01,3.029449582099914551e-01,-1.033967494964599609e+00,1.032094399636314386e-15,-8.225073814392089844e-01,7.871378064155578613e-01,3.280397355556488037e-01,5.785570144653320312e-01,2.050808817148208618e-01,5.550892949104309082e-01,-1.136186242103576660e+00,2.238044887781143188e-01,8.458927869796752930e-01,-2.832807600498199463e-01,-5.908159017562866211e-01,1.101044893264770508e+00,-7.829360961914062500e-01,-5.191038250923156738e-01,-8.063443303108215332e-01,6.047241687774658203e-01,-4.659675657749176025e-01,6.044664382934570312e-01,2.340308129787445068e-01,-8.471361994743347168e-01,9.261380434036254883e-01,1.979273259639739990e-01,1.060029864311218262e+00,2.974990904331207275e-01,-3.864905834197998047e-01,-1.069745540618896484e+00,1.074008107185363770e+00,1.417981237173080444e-01,-7.984444499015808105e-01,2.278029720696912730e-14,-4.562546312808990479e-01,-3.602686226367950439e-01,3.855854272842407227e-01,4.950741529464721680e-01,1.031054779887199402e-01,3.104738593101501465e-01,-5.588232874870300293e-01,-1.254215240478515625e+00,-1.667300909757614136e-01,-3.034218549728393555e-01,5.456209485957264071e-14,8.933652639389038086e-01,-5.819125175476074219e-01,-6.864235997200012207e-01,-7.166361808776855469e-01,-6.922472119331359863e-01,1.748444288969039917e-01,-4.220840632915496826e-01,6.897439956665039062e-01,-3.794163465499877930e-01,5.264310911297798157e-02,-9.024053812026977539e-01,3.645832538604736328e-01,4.995153189734161114e-15,7.421459555625915527e-01,3.756313621997833252e-01,-1.483401060104370117e+00,1.138568639755249023e+00,-8.175732493400573730e-01,6.131701469421386719e-01,1.506964713335037231e-01,2.512599232406403926e-14,8.767954707145690918e-01,-3.928148746490478516e-01,-2.858031392097473145e-01,-8.907167315483093262e-01,6.982570290565490723e-01,7.438177466392517090e-01,-2.165449708700180054e-01,-2.361053518494526937e-14,7.929575443267822266e-01,1.076118259443498842e-14,-1.474531531333923340e+00,4.923310875892639160e-01,-5.742507576942443848e-01,6.542128324508666992e-01,-5.008161067962646484e-01,-3.900623023509979248e-01,-8.150830268859863281e-01,-5.267866253852844238e-01,2.642467916011810303e-01,-4.782895371317863464e-02,-1.037084817886352539e+00,1.172187042255187078e-14,-1.241654157638549805e+00,5.953022241592407227e-01,3.870964748784899712e-03,-6.664861440658569336e-01,-2.467561662197113037e-01,5.261793732643127441e-01,-9.662249684333801270e-01,5.892338156700134277e-01,-1.496249809861183167e-02,-3.813934624195098877e-01,-8.199124932289123535e-01,2.647582888603210449e-01,8.725720047950744629e-01,-1.150884255766868591e-01,4.991600513458251953e-01,3.217466175556182861e-01,-6.513939052820205688e-02,3.855039477348327637e-01,9.208837747573852539e-01,2.293568700551986694e-01,1.303216218948364258e-01,-6.870449781417846680e-01,6.562438011169433594e-01,-1.428672790527343750e+00,3.517410159111022949e-01,7.233688831329345703e-01,-7.328153252601623535e-01,-7.635015845298767090e-01,3.651045858860015869e-01,8.899790048599243164e-01,-8.261256217956542969e-01,-4.531246423721313477e-01,7.210955804367626121e-15,3.909450173377990723e-01,-7.189777493476867676e-01,-1.055185317993164062e+00,-6.054929494857788086e-01,-4.582546161654467431e-14,8.041808381676673889e-03,-5.483711361885070801e-01,1.920602172613143921e-01,-3.336773812770843506e-01,1.124789595603942871e+00,6.139678359031677246e-01,-2.304687541612900070e-14,-4.278600811958312988e-01,1.312608271837234497e-01,-4.017177820205688477e-01,-1.067819962362543187e-14,-7.857645303010940552e-02,2.674332261085510254e-01,-1.514677554368972778e-01,7.148510813713073730e-01,8.724741339683532715e-01,5.604298114776611328e-01,1.052019476890563965e+00,-1.059270435309431907e-14,-6.190491374582052231e-03,-2.664184011518955231e-02,6.430491805076599121e-01,-2.956591248512268066e-01,-3.112559318542480469e-01,1.646932065486907959e-01,9.258846640586853027e-01,-6.075701117515563965e-01,-1.030875011005447095e-14,4.635248890445808900e-15,-2.428825497627258301e-01,2.818340957164764404e-01,1.034473061561584473e+00,-9.625245630741119385e-02,3.012719750404357910e-01,1.547840684652328491e-01,1.807185113430023193e-01,-8.766213059425354004e-01,-6.432472467422485352e-01,4.451321810483932495e-02,2.555587291717529297e-01,5.541931390762329102e-01,-5.486046075820922852e-01,-1.745127886533737183e-01,8.701132982969284058e-02,1.793623864650726318e-01,1.117362976074218750e+00,3.098166584968566895e-01,3.673234879970550537e-01,8.746696710586547852e-01,8.136609792709350586e-01,-5.201689600944519043e-01,-1.465615071356296539e-02,7.572340369224548340e-01,5.442475676536560059e-01,-5.280005335807800293e-01,2.191353738307952881e-01,8.300708532333374023e-01,8.459963649511337280e-02,-8.820561170578002930e-01,4.723164737224578857e-01,9.346153587102890015e-02,4.407397210597991943e-01,2.742117643356323242e-01,-6.854910254478454590e-01,-7.600338757038116455e-02,2.004858553409576416e-01,-1.640672385692596436e-01,5.534264445304870605e-01,-1.686180476099252701e-03,-9.190044403076171875e-01,3.673547506332397461e-01,-1.241544246673583984e+00,-4.655075073242187500e-01,-2.676467895507812500e-01,2.208846658468246460e-01,6.664184331893920898e-01,3.363962173461914062e-01,7.882366180419921875e-01,-1.328822672367095947e-01,2.024890184402465820e-01,8.230364322662353516e-01,-1.239529728889465332e+00,2.331790477037429810e-01,-7.496633529663085938e-01,6.399709582328796387e-01,4.434419870376586914e-01,5.417852997779846191e-01,-8.204401135444641113e-01,-6.373192071914672852e-01,-8.444724082946777344e-01,3.482760488986968994e-02,5.508090853691101074e-01,2.322141267359256744e-02,7.297762632369995117e-01,7.787879109382629395e-01,6.775661706924438477e-01,1.158665567636489868e-01,-1.954826712608337402e-01,6.567053496837615967e-03,-1.177453041076660156e+00,-7.179475426673889160e-01,1.385719329118728638e-01,8.895457983016967773e-01,2.856727838516235352e-01,4.037154912948608398e-01,-1.343033432960510254e+00,7.089536786079406738e-01,2.377431541681289673e-01,6.308449506759643555e-01,-5.206608176231384277e-01,1.051012277603149414e+00,3.012693244289384176e-14,9.389619827270507812e-01,-2.732619643211364746e-01,-6.285309195518493652e-01,3.824123144149780273e-01,-1.156242415308952332e-01,-3.039597272872924805e-01,1.538871824741363525e-01,3.183538019657135010e-01,-1.510965228080749512e-01,3.979110717773437500e-01,-1.622019410133361816e-01,-4.627486169338226318e-01,-2.803743429915725449e-14,-4.643482714891433716e-02,5.415589213371276855e-01,1.798288524150848389e-01,5.220799039937738806e-14,3.761633932590484619e-01,-4.825281500816345215e-01,-2.258224189281463623e-01,1.529069393873214722e-01,3.518013358116149902e-01,-8.924339413642883301e-01,-5.464506149291992188e-01,-5.652106553316116333e-02,3.156152367591857910e-01,-4.753935933113098145e-01,-2.288331389427185059e-01,-9.151253104209899902e-01,-1.740940660238265991e-02,-4.184117019176483154e-01,-4.093422293663024902e-01,-1.400817632675170898e+00,7.644948959350585938e-01,-4.428191347676316281e-14,3.448890745639801025e-01,1.657968014478683472e-01,4.066659212112426758e-01,-6.257056593894958496e-01,8.164682239294052124e-02,-5.918825864791870117e-01,2.406663447618484497e-01,-3.182770609855651855e-01,-2.272107079625129700e-02,-3.798299431800842285e-01,-3.620278108871187450e-14,3.594321608543395996e-01,4.635838866233825684e-01,-2.056595087051391602e-01,3.944314122200012207e-01,5.909250378608703613e-01,1.448153555393218994e-01,-4.846917680580153931e-14,1.694164127111434937e-01,7.663614153861999512e-01,-1.869557425379753113e-02,-8.382579684257507324e-01,6.382219195365905762e-01,-4.216787219047546387e-01,-7.622458785772323608e-02,8.987557888031005859e-01,-1.280669927597045898e+00,-1.292014598846435547e+00,4.339942038059234619e-01,2.556918367899001232e-14,-7.669112086296081543e-01,6.180403828620910645e-01,1.741757541894912720e-01,-6.108332276344299316e-01,-3.925545513629913330e-01,5.593721866607666016e-01,5.099188685417175293e-01,4.910370334982872009e-02,4.061424048636130824e-14,-4.885553941130638123e-02,6.066932678222656250e-01,4.826009646058082581e-02,7.966271042823791504e-01,5.282577276229858398e-01,3.633036911487579346e-01,5.637512483745721337e-17,-5.824010968208312988e-01,-8.018738627433776855e-01,-5.270985886454582214e-02,4.669471830129623413e-02,5.785399675369262695e-01,-5.453702807426452637e-01,-3.081200420856475830e-01,1.077587455511093140e-01,-1.963548213243484497e-01,8.168768286705017090e-01,1.711974889039993286e-01,-2.962278723716735840e-01,5.702496170997619629e-01,1.031023144721984863e+00,-5.315774679183959961e-01,-8.910899162292480469e-01,3.597184717655181885e-01,-5.539155751466751099e-02,4.875537455081939697e-01,5.662733912467956543e-01,1.051074028015136719e+00,-3.301342760362452333e-14,3.001165762543678284e-02,3.356635272502899170e-01,-7.454575300216674805e-01,-9.821901917457580566e-01,3.362213373184204102e-01,9.502418041229248047e-01,9.202466011047363281e-01,1.023449540138244629e+00,5.525816082954406738e-01,-1.031314611434936523e+00,4.246471524238586426e-01,1.461779177188873291e-01,7.311148643493652344e-01,7.920506596565246582e-01,1.905456334352493286e-01,2.198868542909622192e-01,1.752464622259140015e-01,-5.004360079765319824e-01,-2.756596803665161133e-01,9.939398005272444270e-15,-6.324491649866104126e-02,6.908900141716003418e-01,-1.354966587877298040e-14,1.672471016645431519e-01,-8.029310703277587891e-01,7.357671260833740234e-01,7.850374579429626465e-01,1.809923201799392700e-01,-9.191586822271347046e-02,3.158427476882934570e-01,-9.791507746747737939e-15,9.501635283231735229e-02,-3.265727162361145020e-01,3.235057890415191650e-01,-1.802019178867340088e-01,-6.437402963638305664e-01,-3.018439412117004395e-01,-2.228686958551406860e-01,8.039773702621459961e-01,5.070543289184570312e-01,1.382158696651458740e-01,5.668751597404479980e-01,-6.662827730178833008e-01,1.807275116443634033e-01,6.422204971313476562e-01,-1.089680552482604980e+00,5.038713291287422180e-02,2.589766681194305420e-01,-1.736420951783657074e-02,5.270757675170898438e-01,3.264365367643476401e-14,4.901203811168670654e-01,8.517409563064575195e-01,-1.778690367937088013e-01,-4.460728764533996582e-01,3.281497210264205933e-02,-6.949936151504516602e-01,5.378091335296630859e-01,4.087607562541961670e-01,6.179428100585937500e-01,1.240067034959793091e-01,2.077438766259938341e-14,-1.078151226043701172e+00,-7.095576524734497070e-01,-1.102464795112609863e-01,4.623418152332305908e-01,9.642542004585266113e-01,-9.343091845512390137e-01,-2.178758382797241211e-01,-4.233894646167755127e-01,-1.113417387008666992e+00,-4.369967877864837646e-01,9.729883670806884766e-01,5.709401965141296387e-01,-1.044255614280700684e+00,-9.647067785263061523e-01,7.633365392684936523e-01,-3.798514902591705322e-01,-5.896955728530883789e-01,8.929261565208435059e-01,1.454299595206975937e-02,-1.513057708740234375e+00,-4.305504560470581055e-01,1.470521390438079834e-01,5.967471003532409668e-01,2.435233145952224731e-01,-3.592256903648376465e-01,6.155616417527198792e-02,-8.264333009719848633e-01,3.853781036693496032e-14,7.620946764945983887e-01,-2.506169974803924561e-01,7.051105499267578125e-01,7.542099356651306152e-01,-6.137360334396362305e-01,6.941267251968383789e-01,-6.843356490135192871e-01,-1.185456275939941406e+00,-1.042736291885375977e+00,5.553147792816162109e-01,-8.763135671615600586e-01,-3.536557555198669434e-01,8.121228814125061035e-01,5.480248928070068359e-01,-9.649908542633056641e-01,3.427990674972534180e-01,-6.790735125541687012e-01,4.722031652927398682e-01,1.886519603431224823e-03,8.566935062408447266e-01,-5.643045902252197266e-01,2.085982412099838257e-01,5.513040653333523000e-14,3.705921769142150879e-01,-1.188280284404754639e-01,-7.584831118583679199e-02,8.508359193801879883e-01,-2.704607844352722168e-01,-4.769220054149627686e-01,9.489475488662719727e-01,-6.070444583892822266e-01,-1.030997514724731445e+00,1.291004568338394165e-01,3.018341064453125000e-01,-4.635860323905944824e-01,8.575959205627441406e-01,7.597824931144714355e-01,3.209622502326965332e-01,-1.245479583740234375e+00,1.196389943361282349e-01,9.165304303169250488e-01,-1.731329858303070068e-01,-7.620482444763183594e-01,-1.204284429550170898e+00,1.021917581558227539e+00,1.477551758289337158e-01,7.798225879669189453e-01,2.485789805650711060e-01,1.047732491315112729e-14,-6.332914829254150391e-01,1.291255652904510498e-01,3.433794081211090088e-01,2.316126972436904907e-01,6.594977974891662598e-01,-8.490296006202697754e-01,-4.960439503192901611e-01,-5.182257294654846191e-02,2.933714389801025391e-01,5.889156460762023926e-01,1.759396046400070190e-01,3.767349123954772949e-01,7.092275619506835938e-01,9.082462191581726074e-01,-5.927386879920959473e-01,3.382870554924011230e-01,-3.534277379512786865e-01,6.568796467036008835e-03,1.014148235321044922e+00,9.713404178619384766e-01,-6.358415484428405762e-01,2.999874018132686615e-02,5.169245004653930664e-01,9.130798578262329102e-01,-4.970970451831817627e-01,-7.040724158287048340e-01,-1.475825011730194092e-01,9.078320264816284180e-01,-8.636679649353027344e-01,2.717370092868804932e-01,7.453035116195678711e-01,4.797554016113281250e-01,5.280832052230834961e-01,-3.928465286905623299e-14,9.160597324371337891e-01,-1.250360719859600067e-02,2.600019872188568115e-01,8.204312622547149658e-02,-5.128483101725578308e-02,1.320952028036117554e-01,7.757570147514343262e-01,5.063125491142272949e-01,-1.065855741500854492e+00,-5.502903461456298828e-01,7.531744837760925293e-01,8.615196347236633301e-01,5.927576422691345215e-01,1.368439832749503843e-14,2.237046062946319580e-01,2.130800783634185791e-01,2.182122043551792262e-14,4.160101523518772854e-15,-5.207528918981552124e-02,6.533451080322265625e-01,5.448364093899726868e-02,6.702370047569274902e-01,-1.437822461128234863e+00,7.583694458007812500e-01,1.036226600408554077e-01,-7.931137681007385254e-01,-6.788921356201171875e-01,6.075490713119506836e-01,-5.844115614891052246e-01,-6.882496476173400879e-01,7.525187134742736816e-01,5.851244926452636719e-01,5.980196595191955566e-01,-1.055442020297050476e-01,1.302714943885803223e-01,3.808849155902862549e-01,1.235059079204674226e-14,-1.184937655925750732e-01,5.523033142089843750e-01,-8.279910683631896973e-01,4.609846033544473531e-14,1.141437411308288574e+00,2.841781377792358398e-01,1.864235997200012207e-01,4.434670507907867432e-01,9.439189732074737549e-02,4.761837422847747803e-01,2.627919018268585205e-01,1.686112255133882798e-14,9.339553117752075195e-02,5.136184021830558777e-02,3.033371690224113959e-14,4.544959664344787598e-01,-3.160012066364288330e-01,6.627468466758728027e-01,9.677802920341491699e-01,3.867509961128234863e-01,5.944423675537109375e-01,8.095473647117614746e-01,-2.057063765823841095e-02,1.559392958879470825e-01,-4.045122265815734863e-01,-1.223258860409259796e-02,-7.302941083908081055e-01,4.090448319911956787e-01,-2.727818489074707031e-01,-8.441851139068603516e-01,-2.366613000631332397e-01,9.309113025665283203e-01,7.145588397979736328e-01,7.723418474197387695e-01,-3.157671689987182617e-01,7.094945907592773438e-01,1.537268608808517456e-01,4.002343416213989258e-01,5.789596438407897949e-01,-6.918228864669799805e-01,-4.872915148735046387e-01,8.567858338356018066e-01,2.262248545885086060e-01,-4.827306270599365234e-01,7.001157999038696289e-01,9.012219905853271484e-01,-1.084342692047357559e-02,-3.884823438957650532e-15,7.510718703269958496e-01,3.628857806324958801e-02,3.777963519096374512e-01,3.733453154563903809e-01,1.261369287967681885e-01,2.175474166870117188e-02,-1.070946455001831055e+00,2.534265816211700439e-01,7.708175182342529297e-01,-7.851130962371826172e-01,-7.501506805419921875e-02,-6.236365437507629395e-02,-5.746097490191459656e-02,7.024411559104919434e-01,7.577276229858398438e-01,-7.015783190727233887e-01,8.716368675231933594e-02,9.137762784957885742e-01,4.221418797969818115e-01,-4.257349669933319092e-02,-6.210133433341979980e-01,5.905171856284141541e-02,3.827483952045440674e-01,-1.748719438910484314e-02,1.838662475347518921e-01,-6.742933988571166992e-01,4.203758537769317627e-01,-8.675934672355651855e-01,7.198975980281829834e-02,5.356636643409729004e-01,-4.241317510604858398e-01,-2.858582437038421631e-01,-1.049618959426879883e+00,4.235217347741127014e-02,-3.510441780090332031e-01,9.140712022781372070e-01,8.699985742568969727e-01,-4.805989563465118408e-01,-2.620475888252258301e-01,-4.392379820346832275e-01,5.350887179374694824e-01,7.547951340675354004e-01,-4.021320343017578125e-01,-1.308097124099731445e+00,1.314921411229956483e-14,-6.939035058021545410e-01,-4.225562214851379395e-01,4.780676960945129395e-01,9.348502159118652344e-01,4.607611298561096191e-01,9.140279889106750488e-01,8.059411644935607910e-01,6.475575566291809082e-01,6.866609454154968262e-01,1.169245466589927673e-01,-2.086371630430221558e-01,-3.495292961597442627e-01,7.054027915000915527e-01,-5.564269423484802246e-01,-1.724264025688171387e-01,-2.447620183229446411e-01,4.790126979351043701e-01,-8.895936012268066406e-01,3.405960500240325928e-01,9.992143511772155762e-01,-8.515792489051818848e-01,7.002021074295043945e-01,-4.200732111930847168e-01,5.254920125007629395e-01,-5.629025101661682129e-01,-1.652981489896774292e-01,2.230920046567916870e-01,4.478118419647216797e-01,-7.581404447555541992e-01,6.825822591781616211e-01,6.637344360351562500e-01,4.382167160511016846e-01,-3.004848957061767578e-01,-1.246686458587646484e+00,-1.813757240373085194e-14,-5.382978916168212891e-01,-1.854531280696392059e-02,-8.422603011131286621e-01,8.598868250846862793e-01,6.484907865524291992e-02,-1.582867652177810669e-01,-4.127617478370666504e-01,3.868432939052581787e-01,2.306743711233139038e-01,-1.870327293872833252e-01,3.988092243671417236e-01,-1.121453009545803070e-03,-9.078155159950256348e-01,5.375373363494873047e-01,4.721540212631225586e-01,7.600834965705871582e-01,-6.568592786788940430e-01,-1.237754151225090027e-01,2.972488999366760254e-01,1.329406521660952273e-14,8.555330634117126465e-01,2.341696321964263916e-01,1.242246702313423157e-01,-5.743246674537658691e-01,1.969859004020690918e-01,1.804174926047386746e-14,3.749518096446990967e-01,1.223809211115716236e-14,7.217098474502563477e-01,1.948133260011672974e-01,2.331382036209106445e-01,4.491390585899353027e-01,3.721123561263084412e-02,3.213627338409423828e-01,-8.787637203931808472e-02,3.678545951843261719e-01,1.584769412875175476e-02,-9.939149022102355957e-02,-1.541632562875747681e-01,-7.563530206680297852e-01,-5.835454463958740234e-01,-1.267825362923080679e-14,-7.376799583435058594e-01,-1.483730524778366089e-01,-6.146218776702880859e-01,6.303710490465164185e-02,-2.207096815109252930e-01,6.309906840324401855e-01,8.736192584037780762e-01,5.610390901565551758e-01,-1.510584801435470581e-01,-1.144006013870239258e+00,3.872378543019294739e-02,9.707112908363342285e-01,1.648482233285903931e-01,5.643777251243591309e-01,7.272129058837890625e-01,-1.050208508968353271e-01,4.849657323944753240e-14,-6.187678575515747070e-01,7.163909673690795898e-01,-3.211733102798461914e-01,1.859484991656966402e-14,-2.902321703732013702e-02,7.915637493133544922e-01,-3.845105469226837158e-01,7.273122668266296387e-01,1.987793445587158203e-01,6.756250262260437012e-01,2.752199470996856689e-01,-1.860653050091230082e-14,-3.292089402675628662e-01,-4.444906413555145264e-01,5.390980839729309082e-01,-3.803833197859804449e-14,1.306806057691574097e-01,4.907998581659377135e-14,-8.681889176368713379e-01,7.390183806419372559e-01,-8.384245634078979492e-01,-1.041757182092001993e-14,-9.880247712135314941e-01,-6.488766074180603027e-01,4.704146087169647217e-01,7.725335359573364258e-01,7.652565240859985352e-01,-2.130071360723247154e-14,6.673717498779296875e-01,-2.368639558553695679e-01,-3.176771104335784912e-01,-1.145829796791076660e+00,-4.383435481996114658e-14,-1.459024585447488837e-14,-5.618482828140258789e-01,6.352043151855468750e-01,-6.708126515150070190e-02,5.143486261367797852e-01,4.175754785537719727e-01,-2.417188424788142831e-14,-8.770845532417297363e-01,-3.328525722026824951e-01,-4.581168889999389648e-01,5.304700136184692383e-01,-1.158833980560302734e+00,2.938830256462097168e-01,4.389758408069610596e-01,-1.677506715059280396e-01,9.434131383895874023e-01,9.472421556711196899e-02,6.694743037223815918e-01,3.283305168151855469e-01,-2.844935655593872070e-01,-1.345485210418701172e+00,6.902413368225097656e-01,3.777482733130455017e-02,-9.795138239860534668e-02,7.013037204742431641e-01,1.272562146186828613e-01,6.803904771804809570e-01,3.176613450050354004e-01,3.931986689567565918e-01,5.638951063156127930e-02,5.187460161946988446e-15,-3.851735293865203857e-01,-4.507512226700782776e-02,2.520383596420288086e-01,-2.142420560121536255e-01,3.841959536075592041e-01,2.528727948665618896e-01,-3.131229745433582179e-14,9.277487397193908691e-01,-7.156562209129333496e-01,-5.469401478767395020e-01,3.421336412429809570e-01,7.479315251111984253e-02,8.927745223045349121e-01,-1.859524995088577271e-01,-2.060978710651397705e-01,2.495426825246949143e-16,2.042398005723953247e-01,7.336254119873046875e-01,-9.196314215660095215e-01,2.464256733655929565e-01,5.024161338806152344e-01,1.851976662874221802e-01,6.273566484451293945e-01,-2.072775065898895264e-01,6.579105742275714874e-03,-2.403753995895385742e-01,-4.935767352581024170e-01,-1.702242472955035890e-14,-6.885514259338378906e-01,4.630286395549774170e-01,-8.476821184158325195e-01,4.045562148094177246e-01,5.812171697616577148e-01,5.944462418556213379e-01,7.537211179733276367e-01,-6.780555844306945801e-01,2.602482438087463379e-01,2.582102417945861816e-01,5.027626156806945801e-01,-4.835188686847686768e-01,-5.328971743583679199e-01,4.118770658969879150e-01,5.936450958251953125e-01,1.042061969637870789e-01,-9.393518567085266113e-01,1.387805342674255371e-01,7.457281947135925293e-01,2.886861264705657959e-01,7.256283925506992749e-15,-7.262672185897827148e-01,-6.919998526573181152e-01,-4.070817982834359916e-14,2.124899532645940781e-03,8.662177324295043945e-01,-7.414976954460144043e-01,-4.997416734695434570e-01,-7.773178219795227051e-01,-1.340185701847076416e-01,9.398124217987060547e-01,-1.184862971305847168e+00,1.004525303840637207e+00,-1.101147055625915527e+00,-2.547691948711872101e-02,4.408561810851097107e-02,-5.580871701240539551e-01,-5.756959915161132812e-01,-3.743735849857330322e-01,-7.019343376159667969e-01,9.485161304473876953e-02,1.035036563873291016e+00,-6.577217611693220167e-15,5.062986165285110474e-04,-4.486282467842102051e-01,7.549037691205739975e-03,-3.483587205410003662e-01,3.357933461666107178e-01,-7.537197470664978027e-01,3.491527959704399109e-02,7.220629453659057617e-01,-1.675486735030345953e-14,-9.475427865982055664e-01,-1.456904411315917969e+00,9.951867461204528809e-01,-3.144231736660003662e-01,-9.392945766448974609e-01,3.026465661198560197e-16,6.010882854461669922e-01,7.878686189651489258e-01,8.165405392646789551e-01,8.440108299255371094e-01,-1.146998703479766846e-01,6.778265833854675293e-01,5.904109477996826172e-01,-5.457069873809814453e-01,7.733440995216369629e-01,1.836487650871276855e-01,-2.117412537336349487e-01,-1.848756968975067139e-01,-1.969663426280021667e-02,5.946467071771621704e-02,-4.097994565963745117e-01,-1.108704209327697754e+00,-1.177089065313339233e-01,-6.417188048362731934e-01,6.170102953910827637e-01,7.066755294799804688e-01,4.630331695079803467e-01,3.364249765872955322e-01,-1.270599603652954102e+00,6.487971544265747070e-01,1.150914281606674194e-01,-9.161655306816101074e-01,1.774954152839597343e-14,1.122951060533523560e-01,4.020966589450836182e-01,-2.738835513591766357e-01,9.156256914138793945e-01,-5.966481566429138184e-01,-1.973398327827453613e-01,-1.036323904991149902e+00,6.693339943885803223e-01,-4.571623206138610840e-01,7.010501623153686523e-01,-1.602464122697710991e-03,4.042022526264190674e-01,7.302435636520385742e-01,-9.864071607589721680e-01,-7.075598835945129395e-01,6.163980960845947266e-01,3.811013102531433105e-01,-5.174757167696952820e-02,-1.344206184148788452e-01,-1.209933236241340637e-01,-7.835453152656555176e-01,-8.594340085983276367e-01,7.828903794288635254e-01,-7.082135230302810669e-02,-7.227580547332763672e-01,2.622020244598388672e-01,5.078817605972290039e-01,1.396538615226745605e-01,8.361163866300869163e-15,4.138543829321861267e-02,3.440341651439666748e-01,-2.311054349464231744e-14,-1.267930269241333008e-01,5.107774734497070312e-01,6.105221509933471680e-01,2.576607763767242432e-01,-7.946841716766357422e-01,-3.290874660015106201e-01,5.245132446289062500e-01,5.211624503135681152e-01,2.718124389648437500e-01,1.541869491338729858e-01,-1.055670738220214844e+00,-1.998579502105712891e-01,-1.102464199066162109e+00,2.688938975334167480e-01,6.543480753898620605e-01,4.807640612125396729e-01,-8.881269693374633789e-01,1.128823608160018921e-01,-1.431428082619354281e-14,-6.055642962455749512e-01,1.902488917112350464e-01,-1.786722391843795776e-01,6.212275028228759766e-01,2.442844063043594360e-01,-4.667601585388183594e-01,-3.296446502208709717e-01,3.358458280563354492e-01,-4.276856184005737305e-01,-9.744596481323242188e-02,3.728025555610656738e-01,4.830779731273651123e-01,2.731237187981605530e-02,5.188783258199691772e-02,-5.945225954055786133e-01,4.435930252075195312e-01,-5.135702490806579590e-01,-1.416573673486709595e-01,-3.713923990726470947e-01,2.146450988948345184e-02,-3.491314500570297241e-02,1.100374385714530945e-02,8.565480709075927734e-01,-9.599713236093521118e-02,8.551161885261535645e-01,-4.440279603004455566e-01,-1.049086898565292358e-01,-1.187307357788085938e+00,-2.173001766204833984e-01,4.304776489734649658e-01,-5.150605440139770508e-01,-4.722466170787811279e-01,4.069960415363311768e-01,9.244701266288757324e-01,-4.294474720954895020e-01,2.531796135008335114e-02,-8.464684486389160156e-01,3.765120208263397217e-01,7.192484140396118164e-01,-4.311410188674926758e-01,-4.257556796073913574e-01,-1.027027726173400879e+00,2.782308757305145264e-01,-4.998516440391540527e-01,1.834875047206878662e-01,-3.764685392379760742e-01,-8.113811612129211426e-01,-3.416904211044311523e-01,9.062227010726928711e-01,2.765499353408813477e-01,-6.926676034927368164e-01,-1.448088735342025757e-01,-7.772888541221618652e-01,3.235815465450286865e-01,-8.354696035385131836e-01,-7.289701104164123535e-01,5.473884940147399902e-01,8.818352222442626953e-01,-1.107865422964096069e-01,2.422234117984771729e-01,-1.200500845909118652e+00,-5.785338878631591797e-01,4.315141141414642334e-01,-5.798458456993103027e-01,1.199380040168762207e+00,9.008882567286491394e-03,8.053642511367797852e-01,-8.059099316596984863e-02,-7.538686394691467285e-01,2.257845252752304077e-01,-3.967832326889038086e-01,4.463720023632049561e-01,1.015822812914848328e-01,-4.422945678234100342e-01,-5.859618782997131348e-01,-1.367919087409973145e+00,9.871222823858261108e-02,-8.601454496383666992e-01,1.113722100853919983e-01,-8.035790920257568359e-01,-3.594549000263214111e-02,5.913317799568176270e-01,1.658450961112976074e-01,-5.206559300422668457e-01,8.688059449195861816e-01,7.511074542999267578e-01,-2.641249299049377441e-01,-6.830505728721618652e-01,-6.990949511528015137e-01,7.815386056900024414e-01,1.083393454551696777e+00,1.441831588745117188e-01,2.550847232341766357e-01,3.022129535675048828e-01,-2.355139106512069702e-01,-3.874516785144805908e-01,-1.227106094360351562e+00,-3.041512966156005859e-01,-5.516927242279052734e-01,4.278205037117004395e-01,-1.560590267181396484e-01,2.479252368211746216e-01,-1.016368865966796875e+00,-6.207712888717651367e-01,-5.003033984275415125e-14,-6.917628049850463867e-01,-5.082888528704643250e-02,-7.837471365928649902e-01,1.904948651790618896e-01,3.923729062080383301e-01,2.950797080993652344e-01,-5.134252309799194336e-01,5.219436287879943848e-01,-2.720503211021423340e-01,3.574611842632293701e-01,6.300750970840454102e-01,-2.570080757141113281e-01,6.192762851715087891e-01,7.962810993194580078e-01,1.150977253913879395e+00,-3.213674172695274445e-14,7.305653095245361328e-01,-4.612641930580139160e-01,9.273909330368041992e-01,1.439415570348501205e-02,-7.743612527847290039e-01,-6.572411060333251953e-01,5.005958676338195801e-01,7.904521375894546509e-02,-5.761523246765136719e-01,1.128546237945556641e+00,-6.091753244400024414e-01,-8.273699879646301270e-01,1.997850537300109863e-01,-5.721547007560729980e-01,-1.848554052412509918e-02,-4.739913344383239746e-01,-1.459785103797912598e-01,-5.521857142448425293e-01,5.850424170494079590e-01,-4.438209533691406250e-01,1.250576972961425781e+00,3.046886026859283447e-01,2.683603763580322266e-01,-4.405340254306793213e-01,-3.956128027710233142e-14,-5.362217873334884644e-02,-5.161788463592529297e-01,-5.720743536949157715e-01,-3.655555248260498047e-01,-3.566771447658538818e-01,-4.252786040306091309e-01,-1.404296398162841797e+00,3.203311860561370850e-01,2.297918498516082764e-01,-6.763277649879455566e-01,-3.864225745201110840e-01,7.723625302314758301e-01,5.145648121833801270e-01,-9.116829633712768555e-01,1.481822252273559570e+00,2.377649843692779541e-01,-5.029249787330627441e-01,-6.568835377693176270e-01,-6.945161819458007812e-01,-5.720636909057469355e-14,-8.159972429275512695e-01,7.975658178329467773e-01,5.789824724197387695e-01,6.721875667572021484e-01,2.079294435679912567e-02,-4.044708013534545898e-01,1.397252678871154785e-01,1.615668535232543945e-01,-5.047683790326118469e-02,-2.391978353261947632e-02,-1.129264950752258301e+00,9.214540719985961914e-01,-1.558306164228112634e-14,-1.063781045377254486e-02,-6.340969204902648926e-01,-1.082545638084411621e+00,5.426295995712280273e-01,-1.022336483001708984e+00,1.013881325721740723e+00,4.343168735504150391e-01,9.933103621006011963e-02,1.517816632986068726e-01,-7.675971388816833496e-01,-3.780141174793243408e-01,2.327783405780792236e-01,-5.090146064758300781e-01,1.401173770427703857e-01,2.746312022209167480e-01,-2.870533764362335205e-01,1.066544055938720703e+00,-6.787498593330383301e-01,-6.278377175331115723e-01,4.526795446872711182e-01,-9.714207649230957031e-01,1.076970696449279785e+00,-1.008605957031250000e+00,-8.857455849647521973e-02,2.815296053886413574e-01,4.981130659580230713e-01,6.638793518826818785e-15,-1.133395813182960787e-14,5.832529067993164062e-01,4.765104651451110840e-01,-2.267709225416183472e-01,3.372821211814880371e-01,-7.559213042259216309e-01,8.761405348777770996e-01,1.957158893346786499e-01,-1.065991640090942383e+00,5.408633947372436523e-01,-2.196745127439498901e-01,-5.372020602226257324e-01,3.701010942459106445e-01,1.804957240819931030e-01,1.330604702234268188e-01,-1.086825013160705566e+00,2.303574383258819580e-01,6.833080947399139404e-02,4.090456664562225342e-02,-3.651057779788970947e-01,-4.851946830749511719e-01,-5.051636323332786560e-02,3.465442061424255371e-01,-6.531026959419250488e-01,5.530739203095436096e-03,8.019250035285949707e-01,5.566123127937316895e-01,8.523014187812805176e-01,3.137480616569519043e-01,-3.809536695480346680e-01,-7.600569128990173340e-01,1.762796640396118164e-01,-5.470772981643676758e-01,-4.039705097675323486e-01,-5.435764193534851074e-01,-6.680961847305297852e-01,4.486697614192962646e-01,-6.960558891296386719e-01,3.268521428108215332e-01,8.271538615226745605e-01,-6.528874635696411133e-01,-3.348456621170043945e-01,6.262241601943969727e-01,-1.028598189353942871e+00,-2.522962689399719238e-01,8.592599034309387207e-01,1.311483979225158691e+00,8.062781095504760742e-01,6.765921115875244141e-01,6.212015151977539062e-01,1.214211225509643555e+00,-1.825434118509292603e-01,9.801291823387145996e-01,5.392900705337524414e-01,4.903051257133483887e-01,8.725854009389877319e-02,3.363619148731231689e-01,2.715091407299041748e-01,2.110003679990768433e-01,9.746794700622558594e-01,-2.032447457313537598e-01,3.557551503181457520e-01,5.156139731407165527e-01,-5.294558405876159668e-01,4.735513329505920410e-01,-4.355247616767883301e-01,-6.552495807409286499e-02,-3.761382400989532471e-01,-5.221838355064392090e-01,3.082565367221832275e-01,-1.368931531906127930e+00,4.188633561134338379e-01,-1.228462725424636637e-14,-3.275220692157745361e-01,6.058561205863952637e-01,3.751349747180938721e-01,2.551864683628082275e-01,-2.721500694751739502e-01,5.244283676147460938e-01,9.841456413269042969e-01,-3.565450906753540039e-01,1.313020229339599609e+00,-9.269684553146362305e-01,1.081425189971923828e+00,-3.249035775661468506e-01,4.815604537725448608e-02,-9.519235044717788696e-02,4.420980047976572069e-15,-4.719774127006530762e-01,1.759059429168701172e-01,-2.242280244827270508e-01,1.097422242164611816e+00,6.327076554298400879e-01,-1.034721732139587402e+00,2.116260528564453125e-01,4.108249247074127197e-01,-4.838806986808776855e-01,-4.821387678384780884e-02,2.776300609111785889e-01,3.776217401027679443e-01,-5.593687295913696289e-01,-6.951818466186523438e-01,2.682795524597167969e-01,8.821358680725097656e-01,-4.166945815086364746e-02,-6.953131556510925293e-01,4.794349893927574158e-03,-1.031009912490844727e+00,2.301851511001586914e-01,6.850800514221191406e-01,-5.676523447036743164e-01,1.009340643882751465e+00,-4.951295852661132812e-01,-6.848344206809997559e-01,3.375092446804046631e-01,-9.889956692141210759e-17,4.804788231849670410e-01,7.797577381134033203e-01,9.413423389196395874e-02,2.538294196128845215e-01,-2.215444743633270264e-01,-1.993287950754165649e-01,1.893392205238342285e-01,-1.284862607717514038e-01,-1.900639384984970093e-01,1.265321612358093262e+00,-8.928639292716979980e-01,2.501116096973419189e-01,1.619604788720607758e-02,6.871284246444702148e-01,-6.203271150588989258e-01,-2.061425149440765381e-01,2.070695161819458008e-01,7.578728795051574707e-01,6.555720567703247070e-01,-4.883274137973785400e-01,3.637821078300476074e-01,-1.070095300674438477e+00,-1.897058864977398812e-14,1.201685070991516113e+00,-8.880587816238403320e-01,-7.754918932914733887e-02,4.505757093429565430e-01,-2.026160992681980133e-02,-2.174599170684814453e-01,6.580525040626525879e-01,4.148614704608917236e-01,1.295523494482040405e-01,-6.668445467948913574e-01,-4.395778179168701172e-01,-1.010505795478820801e+00,-3.486741185188293457e-01,-7.056304216384887695e-01,3.327040374279022217e-01,-9.024635702371597290e-02,3.105710744857788086e-01,-1.129575729370117188e+00,-4.828729629516601562e-01,-4.804008603096008301e-01,-5.415558815002441406e-01,8.851609826087951660e-01,-9.909829497337341309e-01,5.145697593688964844e-01,8.436520397663116455e-02,-6.258349865674972534e-02,1.186182737350463867e+00,-3.304201066493988037e-01,-8.017644882202148438e-01,4.837334454059600830e-01,-6.403885483741760254e-01,-5.075231567025184631e-02,3.962605893611907959e-01,-7.559328079223632812e-01,-2.734295129776000977e-01,-1.967383775423187098e-14,-6.856929659843444824e-01,6.276831030845642090e-01,7.334427833557128906e-01,1.519696861505508423e-01,-7.526850700378417969e-01,6.652536392211914062e-01,2.450105845928192139e-01,1.389483928680419922e+00,6.595588922500610352e-01,-7.142470479011535645e-01,4.903355538845062256e-01,7.964456677436828613e-01,3.737380802631378174e-01,2.077007889747619629e-01,1.096636414527893066e+00,-9.416462779045104980e-01,-1.059058785438537598e+00,-4.617651998996734619e-01,9.263803958892822266e-01,-5.275190472602844238e-01,9.041798114776611328e-02,6.765547990798950195e-01,1.220003915600176292e-14,7.057459354400634766e-01,-6.919030547142028809e-01,5.958691835403442383e-01,6.890946030616760254e-01,3.527373671531677246e-01,2.972271740436553955e-01,2.230226621031761169e-02,4.718142747879028320e-01,-1.092833280563354492e-01,1.049423098564147949e+00,-9.699755311012268066e-01,-4.014551341533660889e-01,1.652297005813596620e-14,7.079274654388427734e-01,-1.962075755000114441e-02,9.386123418807983398e-01,-5.582146048545837402e-01,1.894448995590209961e-01,2.645644843578338623e-01,-3.175507783889770508e-01,-1.249928116798400879e+00,-5.329377651214599609e-01,-9.474526643753051758e-01,-1.245857030153274536e-01,-9.780538082122802734e-01,8.542907834053039551e-01,2.714218497276306152e-01,-9.706865549087524414e-01,4.087303578853607178e-01,4.113672077655792236e-01,-1.070861101150512695e+00,6.817668676376342773e-01,7.194867730140686035e-01,3.748198151588439941e-01,9.917930960655212402e-01,1.058458089828491211e+00,1.065851092338562012e+00,4.117475152015686035e-01,2.613985836505889893e-01,4.687927067279815674e-01,-2.533208899265816660e-14,-7.436442971229553223e-01,-1.105370819568634033e-01,6.698892712593078613e-01,-5.766481757164001465e-01,-1.368186950683593750e+00,5.148887038230895996e-01,2.949877977371215820e-01,1.124590873718261719e+00,8.653787374496459961e-01,8.574731647968292236e-02,9.184798598289489746e-02,1.673862040042877197e-01,-3.332936391234397888e-02,-5.828239917755126953e-01,-1.099551677703857422e+00,6.920701861381530762e-01,7.050143927335739136e-02,3.483663201332092285e-01,-5.289319157600402832e-01,-5.066683292388916016e-01,-1.017439007759094238e+00,1.190101861953735352e+00,-4.539548754692077637e-01,8.074116110801696777e-01,7.878764867782592773e-01,6.187186837196350098e-01,7.216553092002868652e-01,1.083514809608459473e+00,-3.551214337348937988e-01,9.109237790107727051e-01,-1.037043571472167969e+00,-2.214598953723907471e-01,-1.428315192461013794e-01,4.812960922718048096e-01,-8.326399093046710914e-15,9.337457418441772461e-01,-2.015197090804576874e-02,-3.595792055130004883e-01,-2.368394136428833008e-01,-1.522453725337982178e-01,-3.907348215579986572e-01,1.621355563402175903e-01,-2.517327852547168732e-02,3.813477456569671631e-01,-5.765621066093444824e-01,-7.030972242355346680e-01,9.222883582115173340e-01,-5.269055068492889404e-02,3.700843751430511475e-01,8.233741521835327148e-01,-4.325956404209136963e-01,2.890093326568603516e-01,8.269360661506652832e-01,-7.721972465515136719e-02,-1.139103531837463379e+00,2.789307199418544769e-02,3.631886839866638184e-01,-3.417313098907470703e-01,-8.841262012720108032e-02,8.576348423957824707e-01,-9.640698432922363281e-01,-1.206300854682922363e-01,-1.590026766061782837e-01,3.922637403011322021e-01,1.036634325981140137e+00,-6.833782792091369629e-02,-9.208941459655761719e-01,-1.183052137494087219e-01,-9.912741780281066895e-01,-6.773902773857116699e-01,7.726929312319372189e-15,-1.373099535703659058e-01,-3.278645277023315430e-01,-4.246600866317749023e-01,3.016797602176666260e-01,3.864407241344451904e-01,1.024719238281250000e+00,-2.062275633215904236e-02,-8.079526424407958984e-01,-9.856007695198059082e-01,7.896519899368286133e-01,1.049723267555236816e+00,5.810889005661010742e-01,-1.696825027465820312e-02,4.380012154579162598e-01,6.182839274406433105e-01,-3.755665123462677002e-01,9.620071053504943848e-01,-3.448573052883148193e-01,8.785333037376403809e-01,-6.276341080665588379e-01,6.229386925697326660e-01,-8.316792249679565430e-01,8.003379690479494463e-15,-4.612815976142883301e-01,3.499941825866699219e-01,2.105383276939392090e-01,2.932493984699249268e-01,-3.968141227960586548e-02,-9.140889644622802734e-01,-3.269929357667400449e-14,8.049936294555664062e-01,-3.762729399434984467e-14,1.512256413698196411e-01,-4.277399554848670959e-02,7.917371392250061035e-01,-7.581433653831481934e-01,8.031607270240783691e-01,-1.516464203596115112e-01,-1.028639912605285645e+00,-6.867890357971191406e-01,-3.297527730464935303e-01,3.248290717601776123e-01,-4.105349257588386536e-02,-4.048245251178741455e-01,-3.998630046844482422e-01,2.418331580453757235e-15,2.614205181598663330e-01,4.399783611297607422e-01,-6.190916895866394043e-02,5.935192108154296875e-01,-1.173258030713695416e-14,-1.168848946690559387e-01,2.872037887573242188e-01,-3.629583612829723194e-14,3.667672872543334961e-01,7.626808881759643555e-01,-2.882725000381469727e-01,8.819147199392318726e-02,-6.752744317054748535e-01,6.865295171737670898e-01,1.043164506554603577e-01,-1.603951863944530487e-02,3.654286265373229980e-01,3.281704187393188477e-01,2.121282368898391724e-01,-3.576083481311798096e-01,-6.010143160820007324e-01,-7.819765210151672363e-01,8.896065354347229004e-01,3.470453917980194092e-01,2.418259829282760620e-01,-5.377504825592041016e-01,-1.229609438628629509e-14,9.224864840507507324e-01,2.152347862720489502e-01,1.108571216464042664e-01,3.256847560405731201e-01,5.156671404838562012e-01,-5.703049302101135254e-01,-9.823162555694580078e-01,6.216424703598022461e-01,6.913825116800290105e-15,9.522289633750915527e-01,2.591480612754821777e-01,-9.155067205429077148e-01,-3.480171263217926025e-01,5.124344229698181152e-01,5.430749654769897461e-01,1.936292648315429688e-01,-2.367963045835494995e-01,-5.212497115135192871e-01,-6.244258284568786621e-01,5.848456919193267822e-02,2.424041032791137695e-01,1.086203336715698242e+00,4.584885835647583008e-01,5.828328132629394531e-01,-2.465218752622604370e-01,-3.364548087120056152e-01,6.930693387985229492e-01,-5.419502258300781250e-01,1.387796252965927124e-01,1.555729490002565052e-14,-9.582345485687255859e-01,-6.064308285713195801e-01,9.359791278839111328e-01,-5.349370241165161133e-01,-5.467055439949035645e-01,5.853831768035888672e-01,-6.099810004234313965e-01,-6.769103407859802246e-01,6.063287258148193359e-01,-1.305158734321594238e-01,2.719188630580902100e-01,9.883603453636169434e-01,-2.577194571495056152e-01,3.434654176235198975e-01,-6.818093061447143555e-01,-1.074468612670898438e+00,6.124821901321411133e-01,6.279994249343872070e-01,-2.121758759021759033e-01,1.721355915069580078e-01,-1.746985465288162231e-01,-9.372832253575325012e-03,-4.029603302478790283e-01,-4.389976151287555695e-03,8.474420905113220215e-01,1.175351962447166443e-01,4.987248480319976807e-01,5.281503871083259583e-02,-9.612308740615844727e-01,5.044931173324584961e-01,6.327407360076904297e-01,5.363453626632690430e-01,-1.862082183361053467e-01,7.179703712463378906e-01,-8.352750539779663086e-01,-7.859355807304382324e-01,6.665463447570800781e-01,-8.080190420150756836e-01,8.900437504053115845e-02,-1.673060357570648193e-01,2.398171573877334595e-01,-5.059354305267333984e-01,-4.358071386814117432e-01,-2.767657041549682617e-01,-1.110761284828186035e+00,2.500563263893127441e-01,-2.700842618942260742e-01,5.411183238029479980e-01,7.917321473360061646e-02,1.412456780672073364e-01,3.202147185802459717e-01,-2.320529893040657043e-02,8.614657074213027954e-02,7.449194043874740601e-02,9.177273511886596680e-01,-4.422739744186401367e-01,-3.356962331810958711e-14,2.403965145349502563e-01,3.788162171840667725e-01,9.725145250558853149e-02,2.751294374465942383e-01,-9.583853185176849365e-02,-1.478344202041625977e-01,-7.646561132217989665e-15,5.095762069143132400e-14,-5.148731470108032227e-01,-1.104140132665634155e-01,7.580127716064453125e-01,8.589439988136291504e-01,1.683785116814596333e-14,8.445456624031066895e-01,-4.167094230651855469e-01,2.471679300069808960e-01,6.252050399780273438e-01,4.320042952895164490e-02,2.628128230571746826e-01,-7.365962266921997070e-01,5.785955190658569336e-01,5.306412652134895325e-02,8.167690634727478027e-01,1.741212457418441772e-01,-4.814565777778625488e-01,2.078680843114852905e-01,2.681970894336700439e-01,2.728240191936492920e-01,4.467135369777679443e-01,3.575136065483093262e-01,-7.770938277244567871e-01,-7.992020249366760254e-01,6.749342083930969238e-01,-5.758206918835639954e-02,1.273325085639953613e-01,-3.079850971698760986e-01,5.700353384017944336e-01,6.025409698486328125e-01,2.350424271446022173e-14,2.189065665006637573e-01,-8.259762525558471680e-01,-8.358328342437744141e-01,2.754333795816719249e-14,4.200354814529418945e-01,7.709165811538696289e-01,-5.412576198577880859e-01,8.116490840911865234e-01,6.696750968694686890e-02,-5.065590143203735352e-01,-1.018629550933837891e+00,4.836456775665283203e-01,7.881040573120117188e-01,8.706955313682556152e-01,-1.971721202135086060e-01,-9.126225113868713379e-01,-8.386013507843017578e-01,-2.115901346548629963e-14,1.921723634004592896e-01,-1.039624333381652832e+00,-6.338290870189666748e-02,-6.748895645141601562e-01,1.459307223558425903e-01,8.575811386108398438e-01,-2.876899242401123047e-01,-5.538703203201293945e-01,9.379851818084716797e-01,-5.892260000109672546e-02,-3.760776819084973854e-14,-9.488207846879959106e-02,-7.861338853836059570e-01,2.584379315376281738e-01,-4.515943825244903564e-01,-5.115692615509033203e-01,-1.926769912242889404e-01,5.376833677291870117e-01,5.516514778137207031e-01,2.674281001091003418e-01,9.577519893646240234e-01,-2.616034448146820068e-01,1.226862818002700806e-01,-1.108460783958435059e+00,6.119361519813537598e-01,-7.980142235755920410e-01,-1.474261134862899780e-01,-1.505038738250732422e-01,6.117117032408714294e-02,-1.233075737953186035e+00,9.055937528610229492e-01,1.186352372169494629e-01,7.468603253364562988e-01,-2.019468545913696289e-01,5.902484718437600586e-15,9.248900413513183594e-01,3.879852890968322754e-01,5.667863488197326660e-01,-9.783139452338218689e-03,6.834665685892105103e-02,3.931183516979217529e-01,7.686795592308044434e-01,6.615650057792663574e-01,9.962454438209533691e-01,8.361496329307556152e-01,-9.020617008209228516e-01,2.028455585241317749e-01,-7.938768714666366577e-02,4.062258303165435791e-01,-6.099941730499267578e-01,-5.472238063812255859e-01,3.846860527992248535e-01,-5.408132448792457581e-02,2.616669237613677979e-01,5.613052845001220703e-01,-1.404791474342346191e-01,5.597134232521057129e-01,2.118815332651138306e-01,4.656108021736145020e-01,-8.357728123664855957e-01,-6.350001096725463867e-01,-4.082575142383575439e-01,8.413883447647094727e-01,-8.653445839881896973e-01,-4.097670316696166992e-01,-2.188255786895751953e-01,-7.852859050035476685e-02,7.740283012390136719e-01,-4.923083484172821045e-01,5.857948660850524902e-01,-4.554273486137390137e-01,1.595262289047241211e-01,-3.061956465244293213e-01,-2.773834764957427979e-01,-4.800224006175994873e-01,6.896038055419921875e-01,6.092936396598815918e-01,-1.182016506791114807e-01,-1.200103908777236938e-01,3.989777863025665283e-01,5.887395739555358887e-01,7.403497695922851562e-01,8.118240833282470703e-01,5.314517021179199219e-01,5.283303260803222656e-01,1.907833293473062963e-14,2.862133271992206573e-02,-1.019164249300956726e-01,9.444132447242736816e-01,-9.183017611503601074e-01,4.472817778587341309e-01,3.742706477642059326e-01,-4.891718924045562744e-01,1.022408069664693109e-14,2.067482740997911295e-14,-1.932679861783981323e-01,-2.759971618652343750e-01,2.982616052031517029e-02,4.716171026229858398e-01,-6.696814298629760742e-01,3.770322501659393311e-01,-9.990509748458862305e-01,-4.016277192547476615e-14,1.112713813781738281e+00,7.776483893394470215e-01,1.009522242141408163e-14,6.137830018997192383e-01,4.002307355403900146e-01,2.199696749448776245e-01,2.870656549930572510e-01,-1.622043401002883911e-01,-1.765557527542114258e-01,-8.018572330474853516e-01,-3.979938328266143799e-01,9.083548784255981445e-01,2.922431380550892521e-15,3.313722610473632812e-01,-5.755500793457031250e-01,-9.348698258399963379e-01,4.355718791484832764e-01,7.671478986740112305e-01,6.843953132629394531e-01,5.964586734771728516e-01,3.549258708953857422e-01,1.699720472097396851e-01,-5.490719079971313477e-01,-3.875240981578826904e-01,-1.885041892528533936e-01,-3.532634973526000977e-01,2.860318422317504883e-01,-2.850810587406158447e-01,6.397242546081542969e-01,-1.024514794349670410e+00,4.994588494300842285e-01,5.097747594118118286e-02,-4.240233302116394043e-01,4.661157429218292236e-01,-1.173836350440979004e+00,-5.376618504524230957e-01,6.098551154136657715e-01,5.389910936355590820e-01,5.031285285949707031e-01,-4.346672892570495605e-01,2.835147678852081299e-01,2.713047564029693604e-01,9.862634539604187012e-02,5.085300207138061523e-01,-5.155134201049804688e-01,-5.255671143531799316e-01,-9.932392239570617676e-01,4.358045756816864014e-01,-7.055374793708324432e-03,-1.498087048530578613e-01,-5.376295372843742371e-02,-5.046089887619018555e-01,4.311917424201965332e-01,7.775381952524185181e-02,-2.863861322402954102e-01,7.864277958869934082e-01,-1.098298802971839905e-01,1.415558457374572754e-01,4.111106097698211670e-01,2.622399926185607910e-01,8.636952638626098633e-01,3.133688569068908691e-01,-3.897149860858917236e-01,5.133666992187500000e-01,-1.698128320276737213e-02,-4.942097365856170654e-01,-6.631349325180053711e-01,6.601102352142333984e-01,-9.533610939979553223e-01,-3.573333323001861572e-01,-5.330131649971008301e-01,4.719736576080322266e-01,2.305200137197971344e-02,6.667265295982360840e-01,5.970592498779296875e-01,1.961948722600936890e-01,-4.739717245101928711e-01,-4.955357313156127930e-01,2.309214472770690918e-01,-2.424607276916503906e-01,3.194092772901058197e-03,3.050883710384368896e-01,2.947921454906463623e-01,5.005272030830383301e-01,4.544185996055603027e-01,3.220875263214111328e-01,6.092364788055419922e-01,-3.859192430973052979e-01,-6.241745948791503906e-01,-1.727731972932815552e-01,-9.164237380027770996e-01,-8.016948311261561100e-15,4.281343147158622742e-02,-1.685738544197554201e-14,-2.446888618644078167e-14,-6.970594078302383423e-02,-6.142242550849914551e-01,-4.540451467037200928e-01,4.761334657669067383e-01,1.324432492256164551e-01,1.518185601648465444e-14,-8.230847716331481934e-01,4.373252093791961670e-01,4.781004190444946289e-01,4.311571419239044189e-01,1.328585743904113770e-01,5.412433147430419922e-01,-7.932761907577514648e-01,3.794687986373901367e-01,4.611713588237762451e-01,-2.439148873090744019e-01,1.796394288539886475e-01,7.470623254776000977e-01,7.962997555732727051e-01,-3.874233365058898926e-02,-4.695686995983123779e-01,-3.521438173069262045e-14,-8.104939460754394531e-01,2.186154428600491084e-14,-5.791272521018981934e-01,4.427861571311950684e-01,-5.552961654950797077e-14,2.460125535726547241e-01,-1.113286912441253662e-01,5.815606713294982910e-01,-6.616669018244536460e-15,1.517164707183837891e-02,-5.295864343643188477e-01,-3.713885247707366943e-01,-3.248291015625000000e-01,-4.468351212584716070e-14,-3.212907165288925171e-02,-5.409060120582580566e-01,8.428783416748046875e-01,8.710996061563491821e-02,-4.603439867496490479e-01,2.442255169153213501e-01,1.609942875802516937e-02,7.719359546899795532e-02,6.286349892616271973e-01,-7.769171595573425293e-01,1.528800787950045786e-14,-6.708386540412902832e-01,7.033324241638183594e-01,-1.413097273201234516e-14,-1.037438631057739258e+00,3.423573076725006104e-01,-6.792398691177368164e-01,-1.083360016345977783e-01,3.217232525348663330e-01,9.385619163513183594e-01,7.296344041824340820e-01,-1.807705014944076538e-01,1.976068168878555298e-01,-3.763626515865325928e-01,-1.312994157165068773e-14,1.929641342546251082e-14,-7.516539880748560054e-15,1.331854313611984253e-01,5.197125077247619629e-01,-4.431901276111602783e-01,5.500884056091308594e-01,-5.944856405258178711e-01,1.850259602069854736e-01,-5.621733069419860840e-01,3.539037704467773438e-01,-7.903169393539428711e-01,4.968617558479309082e-01,-6.950148940086364746e-01,5.287069082260131836e-02,-7.603548765182495117e-01,4.085148274898529053e-01,5.485976338386535645e-01,3.461735248565673828e-01,-2.492394447295778748e-14,7.831327319145202637e-01,-4.520740200372394546e-14,-8.549784421920776367e-01,-5.508324829861521721e-04,4.056856930255889893e-01,3.180757164955139160e-01,1.444442868232727051e-01,4.699251353740692139e-01,5.556805729866027832e-01,2.064131349325180054e-01,-4.129101634025573730e-01,-8.923689723014831543e-01,2.095821583501019519e-14,2.454422414302825928e-01,-3.222186863422393799e-02,3.917389512062072754e-01,-1.032007187604904175e-01,6.214975118637084961e-01,-4.054293334484100342e-01,-4.367384612560272217e-01,3.698520660400390625e-01,-1.161519885063171387e+00,5.129852890968322754e-01,8.008018732070922852e-01,4.902359843254089355e-01,8.494287729263305664e-01,9.961588978767395020e-01,8.074991703033447266e-01,1.397663056850433350e-01,3.824410438537597656e-01,3.217198846195389039e-15,1.498773300563291389e-14,-1.741183698177337646e-01,2.742155641317367554e-02,-1.074394941329956055e+00,-2.429096102714538574e-01,7.268662452697753906e-01,3.495854437351226807e-01,-3.193454742431640625e-01,-4.226411581039428711e-01,-2.848393917083740234e-01,-3.169564008712768555e-01,9.565519094467163086e-01,-4.168074727058410645e-01,1.641304641962051392e-01,3.720269501209259033e-01,-9.448541998863220215e-01,3.650717735290527344e-01,-1.056014948879954729e-14,-2.161445617675781250e-01,-4.653078615665435791e-01,7.754865884780883789e-01,-8.772121667861938477e-01,2.355874776840209961e-01,-5.306294560432434082e-02,1.618649959564208984e-01,-4.796097278594970703e-01,1.285168975591659546e-01,3.822601139545440674e-01,8.777747303247451782e-02,1.460578292608261108e-01,-1.038848012685775757e-01,9.700207114219665527e-01,6.795457005500793457e-01,-7.097940146923065186e-02,-1.221056506037712097e-01,-1.279835850000381470e-01,4.026870727539062500e-01,6.165042519569396973e-01,-6.227445602416992188e-01,1.208668388426303864e-02,-8.311434561967569190e-15,2.318852990865707397e-01,-1.214333176612854004e+00,-5.028066039085388184e-02,2.453335523605346680e-01,6.185011267662048340e-01,6.423058509826660156e-01,5.611797049641609192e-02,-6.394950151443481445e-01,-8.404384255409240723e-01,-4.776532351970672607e-01,4.105055630207061768e-01,-2.070413678884506226e-01,5.909172352403402328e-03,1.454777568578720093e-01,5.691991448402404785e-01,-7.362121343612670898e-01,-4.472833275794982910e-01,-4.691006839275360107e-01,-2.565726339817047119e-01,4.343420267105102539e-01,-3.067520558834075928e-01,-1.068338155746459961e-01,-3.573183119297027588e-01,-3.574062585830688477e-01,-1.191006302833557129e+00,2.347146868705749512e-01,-9.814819693565368652e-01,-3.943042457103729248e-01,1.550616770982742310e-01,7.870109081268310547e-01,-9.247272137477904885e-15,5.274350047111511230e-01,4.242537915706634521e-01,1.844928115606307983e-01,-3.070339560508728027e-01,-2.367942035198211670e-01,7.514669001102447510e-02,4.068623185157775879e-01,3.693892955780029297e-01,6.924428977072238922e-03,-2.244619131088256836e-01,4.059264659881591797e-01,7.447580099105834961e-01,-1.087988466024398804e-01,2.279995381832122803e-01,-3.020582795143127441e-01,-4.835583269596099854e-01,-1.278638839721679688e-01,5.085160732269287109e-01,2.512720823287963867e-01,-9.224268049001693726e-02,4.869602024555206299e-01,3.871024549007415771e-01,-3.333099558949470520e-02,-8.169254660606384277e-01,-5.949329028552552412e-15,-8.688438534736633301e-01,-2.774324417114257812e-01,-6.763201951980590820e-01,1.996718347072601318e-01,-4.726835489273071289e-01,2.070353031158447266e-01,-4.167013987898826599e-02,-1.005124688148498535e+00,1.830942630767822266e-01,-8.548587560653686523e-01,3.969325139841634043e-15,-2.634462714195251465e-01,-2.359610944986343384e-01,3.531944751739501953e-02,-1.643266109936560720e-14,7.607028633356094360e-02,3.983013927936553955e-01,5.943701863288879395e-01,-2.802293309510026087e-14,-1.103391721844673157e-01,2.381795551627874374e-03,6.013323068618774414e-01,-1.188934238875120203e-14,-9.565542936325073242e-01,4.331533014774322510e-01,-1.816197484731674194e-01,-7.613855600357055664e-01,-7.910392284393310547e-01,1.700592488050460815e-01,-3.743423521518707275e-02,2.000091224908828735e-01,5.527307391166687012e-01,8.046230077743530273e-01,2.939307689666748047e-01,3.628434836864471436e-01,1.520164440019840940e-14,3.388231992721557617e-01,-6.078298389911651611e-02,-3.234849996376631953e-14,-1.063184142112731934e-01,2.241569310426712036e-01,-5.993743538856506348e-01,6.308836916421589613e-15,6.162792444229125977e-01,4.220678005367517471e-03,8.211771249771118164e-01,-8.849963545799255371e-01,8.671994464757096233e-15,3.420012593269348145e-01,1.715076416730880737e-01,-3.096186369657516479e-02,-3.179713711142539978e-02,4.061848521232604980e-01,4.646385679636308441e-14,7.089108228683471680e-01,-1.267656922340393066e+00,-5.846152305603027344e-01,-1.413110792636871338e-01,5.482879281044006348e-01,-5.644617676734924316e-01,4.027908146381378174e-01,-8.422041535377502441e-01,-1.305798411369323730e+00,-1.115378811955451965e-01,-6.754845380783081055e-01,6.891624927520751953e-01,8.981729149818420410e-01,-5.250135064125061035e-01,1.372542083263397217e-01,-2.625472301858670227e-14,5.816935300827026367e-01,6.616345643997192383e-01,8.038573861122131348e-01,-1.086164712905883789e+00,4.087547361850738525e-01,6.313639283180236816e-01,-3.185136616230010986e-01,5.359907746315002441e-01,4.252609610557556152e-01,3.689304517808834893e-14,6.329754590988159180e-01,-4.695044457912445068e-01,-8.604253828525543213e-02,-7.664904594421386719e-01,4.779422581195831299e-01,-4.297627508640289307e-02,1.864388126575442645e-14,2.586122369854434999e-14,5.874471664428710938e-01,4.547196924686431885e-01,7.531172633171081543e-01,-5.720751427911938136e-14,-9.406881332397460938e-01,4.822749495506286621e-01,2.034755498170852661e-01,9.187218546867370605e-01,5.239263772964477539e-01,-1.878055860288441181e-03,2.786562740802764893e-01,6.296136379241943359e-01,-3.073154389858245850e-01,4.337823390960693359e-01,1.997474133968353271e-01,6.892314553260803223e-01,-3.806353211402893066e-01,1.107493937015533447e-01,2.505688965320587158e-01,-1.424483428891405723e-14,7.593632340431213379e-01,5.690502524375915527e-01,8.399713635444641113e-01,-3.369538486003875732e-01,-4.138543605804443359e-01,7.635215520858764648e-01,8.130109310150146484e-01,5.713229179382324219e-01,-7.701859623193740845e-02,5.662848949432373047e-01,3.018919527530670166e-01,-9.061517715454101562e-01,6.472110152244567871e-01,7.520592957735061646e-02,-3.732631504535675049e-01,6.105281710624694824e-01,5.338461399078369141e-01,5.151148438453674316e-01,1.129708811640739441e-01,6.741135120391845703e-01,1.940203458070755005e-01,-5.910491943359375000e-02,-2.710587345063686371e-02,4.822227358818054199e-01,5.864565372467041016e-01,-1.289998173713684082e+00,-3.534262478351593018e-01,-8.290312290191650391e-01,-3.114191889762878418e-01,4.972443282604217529e-01,3.692202270030975342e-01,-3.066999614238739014e-01,-8.450134992599487305e-01,-7.579072117805480957e-01,2.681414783000946045e-02,1.315068006515502930e-01,-5.738444929740543765e-15,4.378734529018402100e-01,-1.176441192626953125e+00,-5.979484915733337402e-01,7.791034877300262451e-02,8.773892521858215332e-01,-8.177033662796020508e-01,-9.888815134763717651e-02,-7.770313024520874023e-01,1.737123131752014160e-01,-2.297199815511703491e-01,-4.176774248480796814e-02,6.426053047180175781e-01,-6.283942461013793945e-01,2.061055116180966762e-14,1.468626381530974134e-15,-1.109372854232788086e+00,-5.322692915797233582e-03,5.941751599311828613e-01,1.634512394666671753e-01,3.385943394694675146e-14,-9.386337399482727051e-01,4.247722327709197998e-01,8.088605403900146484e-01,-7.917895913124084473e-01,-9.199459850788116455e-02,-2.576460095618515744e-14,1.144173461943864822e-02,7.974714636802673340e-01,8.291810154914855957e-01,6.324146389961242676e-01,2.767571806907653809e-01,-3.762786388397216797e-01,6.124819517135620117e-01,-1.259307861328125000e-01,2.530697584152221680e-01,-7.338043451309204102e-01,8.092812895774841309e-01,4.486425518989562988e-01,6.076495051383972168e-01,1.536791622638702393e-01,-6.553866267204284668e-01,5.377055406570434570e-01,7.455157637596130371e-01,-3.010730743408203125e-01,-1.343614328652620316e-02,5.034732222557067871e-01,-1.083987280226786018e-14,6.649352312088012695e-01,-4.831398725509643555e-01,-6.538239121437072754e-01,3.088376993379271518e-14,5.418990850448608398e-01,3.246687650680541992e-01,4.589386284351348877e-01,6.967385411262512207e-01,5.809159874916076660e-01,-1.047704200414674436e-14,4.497705996036529541e-01,1.433233618736267090e-01,1.309622373111933580e-14,3.798843324184417725e-01,2.603968083858489990e-01,6.906545162200927734e-02,4.719999432563781738e-01,-6.868575215339660645e-01,4.678978025913238525e-01,3.153902664780616760e-02,-2.245325893163681030e-01,2.744731605052947998e-01,-2.937858924269676208e-02,-8.319221138954162598e-01,1.919421043004680694e-14,-1.554470360279083252e-01,1.691915690898895264e-01,-6.782993078231811523e-01,3.409850299358367920e-01,5.389810204505920410e-01,2.478889375925064087e-01,3.343178033828735352e-01,-3.145194649696350098e-01,-1.072773337364196777e+00,-1.616195614568671085e-14,-8.178877085447311401e-02,5.938940048217773438e-01,-4.850332736968994141e-01,-1.375739336013793945e+00,-2.751674354076385498e-01,1.826861053705215454e-01,-2.066162216633141840e-14,1.668705728067806926e-14,7.139819264411926270e-01,4.428643584251403809e-01,-5.152811408042907715e-01,-9.684095382690429688e-01,-2.265698615050784626e-14,-3.957346826791763306e-02,1.795641481876373291e-01,-5.653327107429504395e-01,-2.363963872194290161e-01,-4.312198162078857422e-01,1.670546233654022217e-01,1.738592386245727539e-01,8.170869350433349609e-01,-4.270249605178833008e-01,4.092722237110137939e-01,2.755038738250732422e-01,-7.775504957778511805e-15,4.513805508613586426e-01,-3.806338012218475342e-01,4.054845497012138367e-02,2.640793919563293457e-01,3.395206928253173828e-01,-7.221629619598388672e-01,9.035413265228271484e-01,-2.497680783271789551e-01,4.399327337741851807e-01,-1.938019096851348877e-01,3.943960964679718018e-01,1.920335292816162109e-01,1.497643291950225830e-01,3.206560790004232830e-14,7.096810340881347656e-01,5.788942575454711914e-01,4.541741609573364258e-01,1.370456535369157791e-02,1.094225168228149414e+00,1.213454976677894592e-01,-8.679232746362686157e-02,1.529329167102543019e-14,-6.423959732055664062e-01,6.273095011711120605e-01,1.392598599195480347e-01,5.054053068161010742e-01,4.096426963806152344e-01,-1.954081058502197266e-01,4.945540726184844971e-01,-5.283180475234985352e-01,5.644304156303405762e-01,2.864306569099426270e-01,1.339725106954574585e-01,-5.471200942993164062e-01,3.860996663570404053e-01,-2.223879396915435791e-01,3.095611333847045898e-01,7.482788562774658203e-01,-4.173988103866577148e-01,-7.359111309051513672e-02,5.278947949409484863e-01,-2.291004210710525513e-01,-4.844215884804725647e-02,3.007510006427764893e-01,-2.417991757392883301e-01,-3.041293025016784668e-01,-4.111072719097137451e-01,4.003371298313140869e-01,1.951615065336227417e-01,4.119762778282165527e-01,2.902146279811859131e-01,-1.451608091592788696e-01,5.654634237289428711e-01,3.558289110660552979e-01,4.289190173149108887e-01,-1.176953434944152832e+00,5.540930032730102539e-01,4.168658256530761719e-01,-8.521370291709899902e-01,4.463635087013244629e-01,9.592752903699874878e-02,-1.089415922760963440e-01,2.927875816822052002e-01,5.678115487098693848e-01,4.157748520374298096e-01,5.965196490287780762e-01,-3.210074305534362793e-01,-5.299443006515502930e-01,-1.380021125078201294e-01,5.241752266883850098e-01,-7.783725261688232422e-01,-4.576712137526958712e-14,-4.764514863491058350e-01,-2.147222310304641724e-01,6.293119490146636963e-02,-5.883289873600006104e-02,3.838530480861663818e-01,-7.152907848358154297e-01,-4.406079351902008057e-01,2.391843050718307495e-01,3.038453459739685059e-01,6.078432798385620117e-01,3.741140067577362061e-01,-2.863073050975799561e-01,5.730213522911071777e-01,-1.709893382754405083e-14,5.401690006256103516e-01,3.593822941184043884e-02,7.870972156524658203e-01,2.598866522312164307e-01,-1.732140081003308296e-04,-5.069200471169953148e-14,-9.388660788536071777e-01,6.534479260444641113e-01,4.429889321327209473e-01,-6.546127200126647949e-01,-2.297107577323913574e-01,-2.913294136524200439e-01,4.175223410129547119e-01,9.272088110446929932e-02,-7.496069669723510742e-01,1.009955853223800659e-01,-8.335289359092712402e-02,-3.541113138198852539e-01,-1.005662202835083008e+00,2.819356741383671761e-03,-7.398000359535217285e-01,1.405443102121353149e-01,-6.572351455688476562e-01,6.506807804107666016e-01,-4.711433649063110352e-01,3.484223484992980957e-01,2.043743580579757690e-01,5.410349965095520020e-01,2.295692116022109985e-01,-1.025477886199951172e+00,-3.673240840435028076e-01,6.830663681030273438e-01,6.118224263191223145e-01,-7.040544748306274414e-01,5.464715957641601562e-01,6.621271371841430664e-01,4.941731393337249756e-01,2.999724447727203369e-01,-4.288647472858428955e-01,-9.922131299972534180e-01,5.382246971130371094e-01,2.035903632640838623e-01,-3.412944433360889929e-14,-5.288767218589782715e-01,1.254640668630599976e-01,-4.010280199280916169e-14,-7.427414059638977051e-01,2.187891155481338501e-01,5.269482731819152832e-01,3.116623163223266602e-01,-5.621873736381530762e-01,4.302585963159799576e-03,-5.650674551725387573e-02,-6.791878938674926758e-01,4.351035455324100965e-14,-5.113887190818786621e-01,-4.129528701305389404e-01,1.570747420191764832e-02,-2.195567265152931213e-02,2.056085169315338135e-01,-8.345184326171875000e-01,-6.373915672302246094e-01,5.326070189476013184e-01,7.634943127632141113e-01,-4.776391983032226562e-01,-3.975993394851684570e-01,4.516691382884518990e-15,-5.167548060417175293e-01,4.618662893772125244e-01,2.323285341262817383e-01,-6.742156147956848145e-01,-6.340432763099670410e-01,2.253614068031311035e-01,-4.960371553897857666e-01,2.124332822859287262e-02,5.633754655718803406e-02,-1.404494792222976685e-01,3.022349774837493896e-01,6.281263232231140137e-01,5.109035372734069824e-01,-6.064096093177795410e-01,-3.501623272895812988e-01,2.610105872154235840e-01,-3.042291963598238447e-14,-7.728264480829238892e-02,6.696648001670837402e-01,-9.016234427690505981e-02,5.903474688529968262e-01,1.776762604713439941e-01,6.222623586654663086e-01,-7.935048937797546387e-01,-2.529935538768768311e-01,-1.428146362304687500e+00,5.301995873451232910e-01,-2.532349824905395508e-01,-5.173236876726150513e-02,7.426189631223678589e-02,-1.199076101183891296e-01,3.298466801643371582e-01,6.518005132675170898e-01,1.268372088670730591e-01,5.082226395606994629e-01,-8.554680943489074707e-01,-1.222318768501281738e+00,-2.179595977067947388e-01,2.406118959188461304e-01,1.639510542154312134e-01,3.156186640262603760e-01,-7.323336601257324219e-01,7.756858468055725098e-01,4.467378854751586914e-01,7.019833326339721680e-01,5.536436438560485840e-01,-5.383296608924865723e-01,-5.165387988090515137e-01,-2.766750451790520038e-14,3.740018606185913086e-01,6.235820427536964417e-02,6.953440606594085693e-02,1.300616380003546957e-14,-8.527567982673645020e-01,4.814157783985137939e-01,1.321776211261749268e-01,-3.147062957286834717e-01,-5.740484967827796936e-02,4.254534244537353516e-01,1.558716893196105957e-01,-6.845710426568984985e-02,4.738117754459381104e-01,-5.192091464996337891e-01,-4.048941135406494141e-01,4.488556385040283203e-01,-1.157935559749603271e-01,-2.407015711069107056e-01,1.715823858976364136e-01,-2.120207399129867554e-01,-3.085963614284992218e-02,-4.122095108032226562e-01,5.109618902206420898e-01,2.939906120300292969e-01,3.811900019645690918e-01,-2.863834318886197827e-14,2.087865769863128662e-01,-3.675698339939117432e-01,1.199583306494590718e-14,5.638465881347656250e-01,-2.063072472810745239e-01,2.529970522901874019e-15,-8.466706871986389160e-01,9.658175520598888397e-03,-1.932337279010772069e-14,4.927544891834259033e-01,1.096122711896896362e-01,4.562615416944026947e-03,-5.094781517982482910e-01,-7.574750185012817383e-01,-1.111856579780578613e+00,-9.358432888984680176e-01,-5.824964642524719238e-01,-5.940394401550292969e-01,2.127901017665863037e-01,4.179522097110748291e-01,1.766453236341476440e-01,-2.071551379056752601e-14,6.020139455795288086e-01,-7.159065455198287964e-02,3.872718513011932373e-01,3.772222101688385010e-01,-3.109292387962341309e-01,-1.154197573661804199e+00,-1.504704505205154419e-01,9.490977972745895386e-02,-2.397355148328183388e-14,2.788761071860790253e-02,7.303491234779357910e-01,1.426917463541030884e-01,5.253414511680603027e-01,-3.547074794769287109e-01,-7.889959216117858887e-01,4.624846279621124268e-01,-6.873705983161926270e-01,-1.243219710886478424e-02,-4.940287172794342041e-01,-1.813256643901257903e-14,7.510944008827209473e-01,2.314664721488952637e-01,-3.366840779781341553e-01,1.854560003288450998e-14,-6.317448616027832031e-01,1.503660380840301514e-01,-7.035807967185974121e-01,-6.673645973205566406e-01,4.300708472728729248e-01,-9.738568663597106934e-01,1.771201491355895996e-01,2.345738410949707031e-01,7.232770323753356934e-02,3.898133933544158936e-01,-9.430311322212219238e-01,5.125117897987365723e-01,-6.149713397026062012e-01,2.563599050045013428e-01,4.240248799324035645e-01,6.871381998062133789e-01,-1.070166587829589844e+00,3.152594566345214844e-01,-7.148371934890747070e-01,-1.072950884699821472e-01,5.783580541610717773e-01,4.599743485450744629e-01,-9.627434611320495605e-02,-9.885672479867935181e-02,-6.505666375160217285e-01,3.191098868846893311e-01,-7.924553155899047852e-01,3.521615862846374512e-01,2.439336925745010376e-01,5.315274000167846680e-01,1.717576533555984497e-01,3.857095539569854736e-01,-6.733789443969726562e-01,-3.361660838127136230e-01,-7.300709486007690430e-01,6.175523996353149414e-01,4.499851012640387893e-14,-1.147497773170471191e+00,-3.203429877758026123e-01,-8.843975067138671875e-01,3.857872784137725830e-01,-1.865840788079983770e-14,4.945595264434814453e-01,-2.374585419893264771e-01,3.635217845439910889e-01,6.235160231590270996e-01,-5.178344845771789551e-01,2.827345132827758789e-01,-1.388230472803115845e-01,2.890053391456604004e-01,-9.372444152832031250e-01,-1.230566263198852539e+00,5.553128123283386230e-01,-1.705682128667831421e-01,2.692982256412506104e-01,4.280175864696502686e-01,6.062355637550354004e-01,-5.307227969169616699e-01,2.757933347029371124e-14,-3.307878077030181885e-01,1.954126656055450439e-01,-1.756539195775985718e-01,6.395486742258071899e-02,8.791797608137130737e-02,5.586006045341491699e-01,-1.441533207893371582e+00,3.640776276588439941e-01,4.686466157436370850e-01,5.629458427429199219e-01,6.685044765472412109e-01,-1.398200988769531250e-01,-5.285590887069702148e-02,-1.173103377223014832e-01,-4.521537125110626221e-01,-3.537214331118462840e-14,-7.659407854080200195e-01,-2.589970529079437256e-01,4.008592367172241211e-01,-2.049170285463333130e-01,-6.155859306454658508e-02,5.299850702285766602e-01,5.696388483047485352e-01,-6.435382962226867676e-01,1.606202828076733202e-14,3.499478995800018311e-01,4.503932595252990723e-01,3.914505839347839355e-01,3.376068472862243652e-01,3.068566322326660156e-01,3.320985734462738037e-01,4.144401103258132935e-02,8.723054826259613037e-02,2.895363867282867432e-01,-2.224923819303512573e-01,-7.505485415458679199e-01,5.516754723400643656e-14,6.251244544982910156e-01,-8.023154735565185547e-01,-1.792722940444946289e-01,1.348596391894177349e-14,-1.874521012316856389e-14,-7.191265225410461426e-01,7.790054082870483398e-01,2.736285030841827393e-01,-2.158928811550140381e-01,-1.477556824684143066e-01,5.595250725746154785e-01,-1.815584301948547363e-01,6.692889332771301270e-01,5.433103442192077637e-01,-4.558707028627395630e-02,-3.539494872093200684e-01,5.206323266029357910e-01,3.034560978412628174e-01,3.061305582523345947e-01,-7.843434065580368042e-02,-3.807178139686584473e-02,-3.720934391021728516e-01,-6.239151209592819214e-02,-6.878843903541564941e-02,-3.443983197212219238e-02,3.321984410285949707e-01,1.491377502679824829e-01,-5.857058763504028320e-01,1.315219998359680176e-01,4.400555193424224854e-01,4.693107903003692627e-01,9.691381676118701605e-15,1.911860108375549316e-01,-7.083770632743835449e-01,-6.967198848724365234e-01,5.956121087074279785e-01,4.528630375862121582e-01,8.289567381143569946e-02,-1.137215018272399902e+00,-3.700289726257324219e-01,-8.966427296400070190e-02,-6.255214810371398926e-01,5.547727346420288086e-01,-2.017350941896438599e-01,3.860003352165222168e-01,-7.343490719795227051e-01,5.487443804740905762e-01,-2.286217212677001953e-01,1.931993383634186823e-14,5.210185647010803223e-01,4.455597400665283203e-01,4.801431298255920410e-01,-1.223623965010151721e-14,1.481905994671437604e-14,-5.067211017012596130e-02,-6.107594072818756104e-02,6.789616205414919503e-15,3.561375439167022705e-01,6.738591194152832031e-01,-4.223266988992691040e-02,-9.103944897651672363e-01,-2.158370018005371094e-01,-1.021648526191711426e+00,-5.602275133132934570e-01,-8.267907798290252686e-02,2.420981079339981079e-01,-5.081821084022521973e-01,-7.670570611953735352e-01,2.381771504878997803e-01,2.977212071418762207e-01,1.424040645360946655e-01,-3.222556710243225098e-01,4.379684627056121826e-01,-2.126536667346954346e-01,2.540477216243743896e-01,-5.274854302406311035e-01,-1.609055995941162109e-01,-1.236130893230438232e-01,-9.653125405311584473e-01,2.125390022993087769e-01,-4.786814749240875244e-01,-7.493034005165100098e-01,4.874284565448760986e-01,4.580015540122985840e-01,9.507240355014801025e-02,-7.625635713338851929e-02,1.903304457664489746e-01,-3.832821547985076904e-01,-7.007032632827758789e-01,5.042499899864196777e-01,2.596903066393908832e-15,-2.992221713066101074e-01,1.022266894578933716e-01,1.947145909070968628e-01,3.507145047187805176e-01,1.033807608475430934e-14,-2.564656734466552734e-01,-3.240665495395660400e-01,-3.498027324676513672e-01,7.366781830787658691e-01,-5.967712998390197754e-01,-1.545391529798507690e-01,1.475616246461868286e-01,2.811661660671234131e-01,5.583757758140563965e-01,-9.621875882148742676e-01,-6.562949419021606445e-01,3.545355796813964844e-01,-6.286090016365051270e-01,3.118039369583129883e-01,4.248915314674377441e-01,4.798828959465026855e-01,5.345686078071594238e-01,2.791245281696319580e-01,3.315535485744476318e-01,-6.667863130569458008e-01,2.617579996585845947e-01,-1.357713490724563599e-01,3.607832491397857666e-01,-1.184242367744445801e-01,5.874966382980346680e-01,1.853460222482681274e-01,-1.623827666044235229e-01,1.547330766916275024e-01,6.968919634819030762e-01,-3.830362947394166939e-14,-2.696476876735687256e-01,5.436894670128822327e-02,-6.917375326156616211e-01,-5.347476005554199219e-01,4.999583661556243896e-01,5.654097795486450195e-01,-5.079723894596099854e-02,-1.106343194842338562e-01,1.440717875957489014e-01,-3.564083576202392578e-01,-1.013579964637756348e+00,5.020492672920227051e-01,4.607023000717163086e-01,5.678893923759460449e-01,4.797495603561401367e-01,-4.157142043113708496e-01,-3.839381784200668335e-02,-1.272997430802310162e-14,8.725259284612235655e-15,5.558162331581115723e-01,-1.125618219375610352e-01,3.326810300350189209e-01,3.261285722255706787e-01,-3.018360137939453125e-01,6.060726642608642578e-01,-8.002904653549194336e-01,-3.874370713575353564e-14,4.460871219635009766e-01,2.774235904216766357e-01,-7.274791598320007324e-01,-3.797454535961151123e-01,1.541921049356460571e-01,3.517750203609466553e-01,-3.149664909310803673e-15,-7.062557339668273926e-01,-7.082284723416119865e-15,-6.899331808090209961e-01,5.099642872810363770e-01,1.586151186522971601e-14,-1.532469287644604161e-14,-6.502506732940673828e-01,4.789149761199951172e-01,8.105493783950805664e-01,