6.298961043357849121e-01,-5.810351967811584473e-01,9.023712575435638428e-02,-7.581178545951843262e-01,-3.867313265800476074e-01,2.325819432735443115e-02,3.988522887229919434e-01,-4.069448411464691162e-01,7.086164951324462891e-01,-1.423098444938659668e-01,5.236837863922119141e-01,5.025362130254507065e-03,6.148963570594787598e-01,-2.993003726005554199e-01,8.463731408119201660e-01,5.109065175056457520e-01,-2.806202173233032227e-01,-6.938312649726867676e-01,7.833946347236633301e-01,2.387286126613616943e-01,-3.756045103073120117e-01,-1.122762039303779602e-01,5.821897983551025391e-01,4.311419129371643066e-01,-7.093747705221176147e-02,1.553894430398941040e-01,3.557119369506835938e-01,8.829268217086791992e-01,2.292446941137313843e-01,-5.101776719093322754e-01,1.618309639398428368e-14,-6.360553503036499023e-01,1.707909405231475830e-01,-4.021053612232208252e-01,4.054146707057952881e-01,4.076065123081207275e-01,1.428058296442031860e-01,-2.978448569774627686e-01,2.852291762828826904e-01,-2.677952945232391357e-01,-5.753999948501586914e-01,-7.142624258995056152e-01,-5.443032383918762207e-01,4.226578772068023682e-01,2.132054434259358922e-14,3.375675082206726074e-01,-1.673194766044616699e-01,-5.137137770652770996e-01,-5.876797437667846680e-01,3.935513794422149658e-01,1.476071123510981631e-14,-6.516423225402832031e-01,3.867449760437011719e-01,-5.799228549003601074e-01,-6.092800498008728027e-01,-6.564681529998779297e-01,-2.539889514446258545e-01,-6.419106572866439819e-02,4.608588020211211445e-14,-1.980710314188928456e-14,-9.583537280559539795e-02,-1.749911606311798096e-01,1.954995095729827881e-01,5.249584913253784180e-01,-3.008422504169327993e-14,7.156122922897338867e-01,-1.061166167259216309e+00,3.925978243350982666e-01,-7.958889007568359375e-01,2.455915696918964386e-02,7.040987163782119751e-02,-4.555157423019409180e-01,4.625244753712377810e-14,-3.998401165008544922e-01,5.388921866253740256e-15,-1.731403768062591553e-01,6.159240007400512695e-01,-6.921607255935668945e-01,1.430034935474395752e-01,-4.220475256443023682e-01,-2.090122103691101074e-01,-6.565519239658691025e-15,-8.463591337203979492e-02,-6.104811429977416992e-01,3.617901206016540527e-01,7.341876029968261719e-01,5.201580002903938293e-02,-4.646638929843902588e-01,-7.394109666347503662e-02,-2.770510315895080566e-01,1.858014166355133057e-01,1.230657387790972529e-14,-3.723036050796508789e-01,1.988809108734130859e-01,7.062386274337768555e-01,2.154774963855743408e-01,-2.596089839935302734e-01,-2.518338561058044434e-01,-3.379101157188415527e-01,-5.777164697647094727e-01,-7.727573513984680176e-01,-6.455842256546020508e-01,-4.291790425777435303e-01,3.672957122325897217e-01,-7.627745866775512695e-01,-4.046069681644439697e-01,2.142054587602615356e-01,-5.989125967025756836e-01,-4.848376512527465820e-01,6.682507991790771484e-01,-5.418114662170410156e-01,2.345089827350804040e-14,-2.057402371299227317e-14,-7.033638954162597656e-01,6.424331665039062500e-02,-5.139050483703613281e-01,-9.458564221858978271e-02,-2.675795257091522217e-01,2.549364566802978516e-01,-1.239573806524276733e-01,2.231692444504187328e-14,5.112971067428588867e-01,1.129073724150657654e-01,5.639082286506891251e-03,6.865842342376708984e-01,2.591678872704505920e-03,7.705553770065307617e-01,-1.391004025936126709e-01,-1.899080723524093628e-01,2.503273060843955178e-14,5.096125006675720215e-01,2.373533099889755249e-01,6.262743473052978516e-01,-4.385350048542022705e-01,-1.561146773920024655e-14,-2.433959338330599076e-14,2.438079645399222894e-14,-5.316558480262756348e-01,1.214113011956214905e-01,-9.555528312921524048e-02,9.094829559326171875e-01,7.020010948181152344e-01,7.474734783172607422e-01,2.750032842159271240e-01,-3.241748910325428779e-14,1.932014822959899902e-01,5.480143427848815918e-01,1.451009064912796021e-01,2.959772658624008901e-14,4.234772026538848877e-01,-5.434629917144775391e-01,-3.679948449134826660e-01,9.746533818542957306e-03,-5.960587859153747559e-01,2.573172748088836670e-01,3.058583438396453857e-01,-3.539626896381378174e-01,-3.798052966594696045e-01,-6.872037649154663086e-01,1.629879474639892578e-01,1.588167101144790649e-01,8.364858627319335938e-01,6.856213808059692383e-01,1.206021606922149658e-01,2.087831310927867889e-02,-1.078342348337173462e-01,-1.409851312637329102e-01,-2.552754878997802734e-01,3.362593054771423340e-01,8.283471465110778809e-01,9.058922529220581055e-01,6.460857391357421875e-01,-9.380245804786682129e-01,5.147801637649536133e-01,6.650711297988891602e-01,1.360745385456645778e-14,-2.717482447624206543e-01,4.043650925159454346e-01,-2.310822904109954834e-01,-3.742606043815612793e-01,-3.006784003636159275e-15,3.294735252857208252e-01,7.778221368789672852e-01,-1.095752418041229248e-01,-4.991735816001892090e-01,-1.490273163653910160e-03,-1.914718993707882622e-14,-2.300907075405120850e-01,2.348285615444183350e-01,2.766635255309693453e-14,2.240069806575775146e-01,-1.806344985961914062e-01,-3.336791992187500000e-01,5.575174689292907715e-01,2.989388108253479004e-01,-5.848877429962158203e-01,4.940484464168548584e-01,-3.803202509880065918e-02,-5.225083827972412109e-01,-7.144940495491027832e-01,-2.869241777221469281e-14,7.804743051528930664e-01,1.031064271926879883e+00,3.477043807506561279e-01,3.168084621429443359e-01,8.347195386886596680e-01,-4.144861400127410889e-01,1.029057617113818268e-14,3.714531660079956055e-01,8.011290431022644043e-01,1.673815548419952393e-01,3.452445645449504774e-14,-5.118572115898132324e-01,-5.846781121320726582e-14,-2.600979506969451904e-01,-4.793215915560722351e-02,-7.415508478879928589e-02,-3.457723259925842285e-01,3.139290809631347656e-01,-4.437094628810882568e-01,-7.574404031038284302e-02,2.903091924299182336e-15,3.541996479034423828e-01,-6.079902648925781250e-01,-5.714428424835205078e-01,2.114640325307846069e-01,-9.535024315118789673e-02,5.038621276617050171e-02,2.904129922389984131e-01,-7.113145589828491211e-01,3.232713341712951660e-01,-6.527371406555175781e-01,2.300821989774703979e-01,-5.595198273658752441e-01,-6.006985306739807129e-01,-4.343756735324859619e-01,3.438366651535034180e-01,3.319128453731536865e-01,-5.582621097564697266e-01,-2.650812864303588867e-01,5.175848007202148438e-01,-3.817648887634277344e-01,6.817063689231872559e-01,-1.959398090839385986e-01,-2.207344770431518555e-01,-1.200058907270431519e-01,-1.168130040168762207e-01,-4.278381764888763428e-01,3.341102825719748093e-14,-4.891521334648132324e-01,-8.310146331787109375e-01,-2.961901724338531494e-01,-3.527346253395080566e-01,-1.729521602392196655e-01,-3.264506459236145020e-01,5.940376520156860352e-01,4.339426010847091675e-02,3.183681368827819824e-01,1.179119497537612915e-01,1.566919981081920515e-14,-2.505365200340747833e-02,8.710637688636779785e-01,2.118730247020721436e-01,4.343693852424621582e-01,-7.826230674982070923e-02,4.047561287879943848e-01,4.438101314008235931e-03,7.488827705383300781e-01,-6.733987331390380859e-01,1.285893592127551610e-14,-4.318640849662949699e-14,6.567213535308837891e-01,-3.263890445232391357e-01,-3.442482352256774902e-01,-1.118225976824760437e-01,-5.064067840576171875e-01,3.271129727363586426e-01,-3.237869143486022949e-01,2.153295129537582397e-01,-6.237206459045410156e-01,-5.639745593070983887e-01,-5.567494034767150879e-01,-4.525429308414459229e-01,-3.370699584484100342e-01,5.036522278878061143e-15,-1.411850601434707642e-01,2.010540515184402466e-01,4.546993970870971680e-01,4.444851577281951904e-01,-3.510442674160003662e-01,2.204958796501159668e-01,-1.035405620932579041e-01,5.687804222106933594e-01,-1.385960876941680908e-01,6.994243264198303223e-01,1.862854212522506714e-01,5.548763871192932129e-01,2.243506163358688354e-01,-6.567309498786926270e-01,-2.503539025783538818e-01,-4.840438365936279297e-01,-4.350632429122924805e-01,-6.499817967414855957e-02,5.907937288284301758e-01,5.938676595687866211e-01,2.517342865467071533e-01,3.396082669496536255e-02,1.580680161714553833e-01,2.715242207050323486e-01,-1.546869128942489624e-01,6.196172833442687988e-01,-1.984981447458267212e-02,5.076645016670227051e-01,-2.791827023029327393e-01,5.590947866439819336e-01,8.473941087722778320e-01,4.738941192626953125e-01,-1.801402717828750610e-01,-6.343081593513488770e-01,4.572584033012390137e-01,-3.060208074748516083e-02,6.801872700452804565e-02,-8.066132068634033203e-01,7.559233307838439941e-01,-4.078387022018432617e-01,-7.528621237725019455e-03,5.950487852096557617e-01,1.927544766595207237e-14,1.153440549969673157e-01,-5.249428753554934157e-14,-4.922925829887390137e-01,-2.603342942893505096e-02,-3.674797341227531433e-02,-4.210955202579498291e-01,-9.799821674823760986e-02,-2.758819758892059326e-01,2.683707177639007568e-01,3.668549954891204834e-01,-3.680213391780853271e-01,-5.373548269271850586e-01,-4.819749593734741211e-01,6.678862571716308594e-01,1.051944494247436523e-02,5.999239683151245117e-01,-5.672686696052551270e-01,-4.480878710746765137e-01,5.586959123611450195e-01,9.453875571489334106e-02,-1.400657892227172852e-01,-3.510338664054870605e-01,-1.649843305349349976e-01,-1.607773602008819580e-01,-7.352167740464210510e-03,-4.404468834400177002e-01,5.630056262016296387e-01,-2.601140737533569336e-01,-2.481281161308288574e-01,6.837944984436035156e-01,-5.080455914139747620e-02,4.279537498950958252e-02,1.123856306076049805e-01,-3.197136521339416504e-02,-3.108938336372375488e-01,-1.230242997407913208e-01,2.247822135686874390e-01,7.267891168594360352e-01,-4.054730832576751709e-01,-2.845329359494122579e-14,2.095824629068374634e-01,-3.341866135597229004e-01,-5.238183140754699707e-01,-4.516544342041015625e-01,1.048595011234283447e-01,7.054427266120910645e-01,3.506192266941070557e-01,-2.390869557857513428e-01,-1.202628836035728455e-01,-1.744310371577739716e-02,-2.478717416524887085e-01,1.117470189929008484e-01,1.281627118587493896e-01,8.499058485031127930e-01,-6.316689401865005493e-02,3.219674825668334961e-01,-2.887365221977233887e-01,8.043802976608276367e-01,-1.215275824069976807e-01,7.227247208356857300e-02,-6.356307864189147949e-01,-2.370713800191879272e-01,3.472114089297928530e-14,-5.130082964897155762e-01,7.789907455444335938e-01,1.607616096735000610e-01,-1.735229045152664185e-01,4.027054011821746826e-01,-2.278692126274108887e-01,-2.439451962709426880e-02,8.013746738433837891e-01,7.118836045265197754e-01,-4.314067661762237549e-01,-8.646886944770812988e-01,1.202815100550651550e-01,-6.865589618682861328e-01,4.654156044125556946e-02,5.097497701644897461e-01,-2.753472626209259033e-01,-1.709188967943191528e-01,-3.023493587970733643e-01,-1.329893469810485840e-01,2.678974270820617676e-01,-9.330089688301086426e-01,7.172901630401611328e-01,-2.578143775463104248e-01,1.969446390867233276e-01,-1.300502717494964600e-01,-2.101314514875411987e-01,-2.232132703065872192e-01,-5.852457880973815918e-01,-5.977473855018615723e-01,-7.329377532005310059e-01,-1.897767484188079834e-01,1.782303452491760254e-01,-7.924042940139770508e-01,-5.680438876152038574e-01,4.135045111179351807e-01,-4.758141934871673584e-01,-2.785525321960449219e-01,-2.622866332530975342e-01,6.305503845214843750e-01,-3.320094714561946936e-14,5.332955011296859615e-15,1.286848038434982300e-01,2.405343346647149244e-14,-6.781448125839233398e-01,2.923389077186584473e-01,6.840485930442810059e-01,-3.188708126544952393e-01,-7.028064876794815063e-02,-3.654808104038238525e-01,-4.691136777400970459e-01,-4.547156393527984619e-01,6.930134892463684082e-01,2.910552918910980225e-01,-9.218787401914596558e-02,-4.327669441699981689e-01,-3.072337577490064087e-15,-5.528771877288818359e-01,-2.185177057981491089e-01,-5.723975971341133118e-02,-4.020431637763977051e-01,-2.590224444866180420e-01,-3.096297383308410645e-01,1.955373138189315796e-01,-3.881259858608245850e-01,-2.857092618942260742e-01,-5.003787279129028320e-01,3.744430541992187500e-01,-1.181704550981521606e-01,6.968622803688049316e-01,1.029198224583062482e-14,3.178398311138153076e-01,-2.286504209041595459e-01,-1.708248704671859741e-01,-4.207924604415893555e-01,-3.646992146968841553e-01,3.468878567218780518e-01,2.953537404537200928e-01,-6.794973015785217285e-01,6.730836033821105957e-01,-4.285826981067657471e-01,1.540820896625518799e-01,2.104419171810150146e-01,-5.343893594777701650e-14,4.922761768102645874e-02,-5.455365777015686035e-01,-6.105272769927978516e-01,-2.870832085609436035e-01,2.623791061341762543e-02,-1.967322379350662231e-01,3.066371008753776550e-02,-6.529467105865478516e-01,4.998666048049926758e-01,-4.093727767467498779e-01,-2.256864607334136963e-01,-4.393610656261444092e-01,-2.353207916021347046e-01,5.254256725311279297e-01,-4.249838292598724365e-01,5.100446343421936035e-01,-7.479625940322875977e-02,-4.220719039440155029e-01,-3.652041256427764893e-01,-4.223701953887939453e-01,-1.264674061546115780e-14,-4.373066425323486328e-01,-7.946847379207611084e-02,-4.562982171773910522e-02,3.490995466709136963e-01,7.416232824325561523e-01,-1.213752329349517822e-01,-6.533978581428527832e-01,-2.225063145160675049e-01,1.416081096976995468e-02,5.017916560173034668e-01,1.380377113819122314e-01,4.529800713062286377e-01,3.755295160663522924e-14,-2.519168257713317871e-01,-6.245933771133422852e-01,-2.373595684766769409e-01,-4.031391739845275879e-01,-5.294962195480715228e-15,-5.629849433898925781e-01,3.582031183170866773e-15,4.149860386966700010e-14,-3.985258042812347412e-01,3.157593309879302979e-02,-4.416695237159729004e-02,7.349201291799545288e-02,-4.881974756717681885e-01,4.481150507926940918e-01,-3.254394233226776123e-01,4.588551446795463562e-02,-1.024881750345230103e-01,-9.830020368099212646e-02,-2.678977847099304199e-01,-2.289562970399856567e-01,8.326852321624755859e-01,7.956159114837646484e-02,-5.838307142257690430e-01,-7.215604782104492188e-01,7.885182499885559082e-01,-3.245480358600616455e-01,-3.555502369999885559e-02,-4.826679527759552002e-01,-3.665626347064971924e-01,-3.064383268356323242e-01,-1.574434687983371217e-14,-2.702731788158416748e-01,3.808550536632537842e-01,-2.271308004856109619e-01,-3.978412449359893799e-01,-4.224240481853485107e-01,-1.763775944709777832e-01,-8.984214812517166138e-02,-4.018390774726867676e-01,1.555056683719158173e-02,-5.965166091918945312e-01,2.943077087402343750e-01,1.086417502455753331e-14,1.346467882394790649e-01,-7.282817363739013672e-01,3.986315727233886719e-01,-4.284732043743133545e-01,8.344147801399230957e-01,-4.017821252346038818e-01,6.484831571578979492e-01,-4.247938692569732666e-01,7.947648167610168457e-01,4.730556607246398926e-01,-1.888853311538696289e-01,7.137932181358337402e-01,-6.796623468399047852e-01,3.313264846801757812e-01,-1.718751937150955200e-01,-4.303643405437469482e-01,-5.161882042884826660e-01,2.578458487987518311e-01,-4.776853621006011963e-01,7.273079156875610352e-01,-2.124383449554443359e-01,-5.010874271392822266e-01,-2.262693196535110474e-01,2.255661599338054657e-02,-1.375866085290908813e-01,1.714526563882827759e-01,2.852859482395213309e-14,5.392218232154846191e-01,3.826420307159423828e-01,5.198816657066345215e-01,2.059215307235717773e-02,-3.092384636402130127e-01,-6.223543882369995117e-01,9.285017251968383789e-01,2.753007411956787109e-01,-4.141172394156455994e-02,-1.254262247855171195e-14,-2.675483822822570801e-01,5.096012353897094727e-02,-4.353518187999725342e-01,-5.191262960433959961e-01,6.057155728340148926e-01,5.225935578346252441e-01,-1.577153354883193970e-01,-3.256938159465789795e-01,1.655090012253872950e-14,7.345899939537048340e-02,5.367245674133300781e-01,1.161067262291908264e-01,-3.431973457336425781e-01,-1.807578653097152710e-01,-4.086583256721496582e-01,-4.446190893650054932e-01,8.946028351783752441e-02,-3.162565529346466064e-01,4.558029174804687500e-01,4.685703516006469727e-01,2.425724416971206665e-01,-1.941459774971008301e-01,-4.698567688465118408e-01,-1.977655440568923950e-01,-2.005729526281356812e-01,2.053463160991668701e-01,-3.686320483684539795e-01,-7.536368817090988159e-02,-1.636381596326828003e-01,-2.364148497581481934e-01,1.308302432298660278e-01,6.275176256895065308e-02,-3.431047871708869934e-02,-2.208178639411926270e-01,1.189981922507286072e-01,3.183283507823944092e-01,-1.462977379560470581e-01,1.304318755865097046e-01,4.698410332202911377e-01,-2.162350416183471680e-01,-9.518441557884216309e-02,1.012025713920593262e+00,-5.018017888069152832e-01,4.444500803947448730e-02,3.598819077014923096e-01,-3.137046396732330322e-01,5.820161104202270508e-01,-3.485020697116851807e-01,-3.874171674251556396e-01,3.943193156979302172e-14,2.001786231994628906e-01,7.506392151117324829e-02,3.094108700752258301e-01,-2.446701228618621826e-01,-5.110434293746948242e-01,-6.844680756330490112e-02,-4.421570599079132080e-01,-4.371764957904815674e-01,-1.309939324855804443e-01,4.359439611434936523e-01,4.383350908756256104e-01,-6.835153698921203613e-01,7.141243219375610352e-01,5.666169524192810059e-01,1.587901860475540161e-01,4.607456922531127930e-01,-2.418417781591415405e-01,7.720220834016799927e-03,1.500490605831146240e-01,1.072361394762992859e-01,4.057843089103698730e-01,6.150501370429992676e-01,-5.274525880813598633e-01,3.982118964195251465e-01,-3.705621138215065002e-02,-2.238869816064834595e-01,-5.246118887610243253e-14,8.976928144693374634e-02,-3.493597209453582764e-01,3.228911161422729492e-01,-2.742292582988739014e-01,3.372847139835357666e-01,1.024897336959838867e+00,-2.248976528644561768e-01,1.392105780541896820e-02,5.818283557891845703e-01,-3.042622506618499756e-01,4.772207736968994141e-01,2.049539685249328613e-01,3.490945994853973389e-01,-1.621674001216888428e-01,4.446527361869812012e-01,2.740840613842010498e-01,-3.272965252399444580e-01,-4.937659981406328225e-15,-1.650877892971038818e-01,-1.249678060412406921e-01,7.142578959465026855e-01,5.909922719001770020e-01,-1.904373168945312500e-01,1.101636141538619995e-01,-1.237561255693435669e-01,-2.841996550559997559e-01,-5.535917282104492188e-01,3.281928300857543945e-01,-3.721237778663635254e-01,3.627551198005676270e-01,-3.395300507545471191e-01,3.856016695499420166e-01,7.510851025581359863e-01,8.238717317581176758e-01,4.608255028724670410e-01,6.195605397224426270e-01,-7.680885195732116699e-01,-6.731052994728088379e-01,-1.446119393222033978e-03,2.676578164100646973e-01,1.121784672141075134e-01,-5.436292290687561035e-01,3.551734983921051025e-01,4.901087880134582520e-01,-3.924970924854278564e-01,-2.643518615514039993e-03,-5.681658983230590820e-01,1.006278753280639648e+00,-2.024252712726593018e-01,-3.245755732059478760e-01,9.015826582908630371e-01,-2.545356750488281250e-01,-2.682680487632751465e-01,-3.672952055931091309e-01,4.596558511257171631e-01,7.003372907638549805e-01,-4.892151951789855957e-01,6.812940239906311035e-01,-1.057037897408008575e-02,-2.731903685747067573e-14,5.278410911560058594e-01,-2.753062248229980469e-01,-6.421788930892944336e-01,-2.326829433441162109e-01,4.904073774814605713e-01,-2.972414195537567139e-01,-3.239046037197113037e-01,-1.149836257100105286e-01,-7.186508774757385254e-01,1.664193421602249146e-01,5.373162031173706055e-01,4.081221520900726318e-01,1.857582330703735352e-01,-1.709243030857503232e-14,-1.699145436286926270e-01,-2.091805189847946167e-01,3.782899975776672363e-01,-2.844587564468383789e-01,1.399584133077213036e-14,-2.076962441205978394e-01,-1.553248316049575806e-01,7.928033471107482910e-01,-5.882836505770683289e-02,3.807700872421264648e-01,-5.485600829124450684e-01,-5.077306628227233887e-01,1.356429904699325562e-01,-1.095178723335266113e-01,3.921588395813455086e-14,2.003613114356994629e-01,5.864011645317077637e-01,-3.588376641273498535e-01,1.981843113899230957e-01,-2.590968608856201172e-01,-3.429079949855804443e-01,-2.021337449550628662e-01,-9.009276208090180593e-15,2.963884174823760986e-01,4.393427968025207520e-01,-3.195983171463012695e-01,-4.435829222202301025e-01,2.394254654645919800e-01,-1.656896471977233887e-01,-1.696234643459320068e-01,7.547031641006469727e-01,-2.779070734977722168e-01,-1.125814765691757202e-01,-6.061680912971496582e-01,4.202154278755187988e-02,5.954960584640502930e-01,-6.530578136444091797e-01,-3.672733165228751762e-15,-6.257475912570953369e-02,-4.187447130680084229e-01,-3.118225634098052979e-01,4.966961145401000977e-01,5.225121378898620605e-01,2.303294539451599121e-01,3.346515595912933350e-01,8.789567720033676645e-15,-2.732931170612573624e-03,-2.027343660593032837e-01,-9.782800823450088501e-02,-5.263251811265945435e-02,-1.578400433063507080e-01,-2.614136338233947754e-01,-4.897665083408355713e-01,-1.065015718340873718e-01,-2.984732687473297119e-01,-5.155974030494689941e-01,3.522832989692687988e-01,4.541653394699096680e-01,-3.049529690725936992e-14,1.722608953714370728e-01,6.543880701065063477e-01,1.625640988349914551e-01,-9.045066684484481812e-02,5.897446721792221069e-02,-1.254819764941053975e-14,4.107211902737617493e-02,-1.505637655567840238e-14,-3.446988761425018311e-01,-1.598265916109085083e-01,-3.044858872890472412e-01,-4.373017549514770508e-01,2.374100983142852783e-01,1.286156326532363892e-01,-3.711140751838684082e-01,-8.465571701526641846e-02,-1.870270371437072754e-01,-3.683930337429046631e-01,-5.098550114780664444e-03,-4.583293199539184570e-01,-2.003803402185440063e-01,3.192827701568603516e-01,1.663893610239028931e-01,-1.304435133934020996e-01,-2.672721445560455322e-01,1.436249394155125758e-15,-4.596191048622131348e-01,-7.515053451061248779e-02,-3.740153610706329346e-01,-2.522102892398834229e-01,-4.186153709888458252e-01,1.051971721809531052e-14,-3.833532631397247314e-01,2.578276023268699646e-02,-3.124765528793316260e-15,-6.130347251892089844e-01,-3.214858472347259521e-01,-4.009330272674560547e-01,-3.492498695850372314e-01,3.554917319716077717e-14,2.090588613952882452e-14,-4.727203845977783203e-01,-2.531677186489105225e-01,-4.042166471481323242e-01,-3.737588524818420410e-01,-3.108751177787780762e-01,-1.201782881652020685e-14,9.244907647371292114e-02,1.101175025105476379e-01,-3.326180577278137207e-01,-2.172140479087829590e-01,-3.725242770508119250e-14,-3.983722627162933350e-01,4.817397892475128174e-01,-5.206574201583862305e-01,-2.433266490697860718e-01,2.567177712917327881e-01,1.401993010075909540e-14,-2.815205156803131104e-01,-1.138869374990463257e-01,5.848888158798217773e-01,-4.025390148162841797e-01,-1.955880671739578247e-01,1.355670556959761089e-14,-5.351664423942565918e-01,5.890806764364242554e-02,3.419513404369354248e-01,-6.519141197204589844e-01,-6.299160420894622803e-02,-1.544774025678634644e-01,3.071101248200251710e-14,-4.040477275848388672e-01,-6.544427275657653809e-01,6.018913984298706055e-01,1.210151091217994690e-01,4.927194714546203613e-01,1.715433448553085327e-01,-4.663671255111694336e-01,-3.850949406623840332e-01,3.770050108432769775e-01,2.304844856262207031e-01,4.611701965332031250e-01,6.887755542993545532e-02,2.667727172374725342e-01,6.211651563644409180e-01,5.436679720878601074e-01,2.779698669910430908e-01,3.412390135000206715e-14,1.833112165331840515e-02,-5.217474102973937988e-01,-1.558413654565811157e-01,-2.432729117572307587e-02,-1.031050905585289001e-01,-2.951485812664031982e-01,-9.401566535234451294e-02,-3.119964525103569031e-02,-3.229163289070129395e-01,-3.360790312290191650e-01,-3.919115066528320312e-01,-7.577371597290039062e-02,-1.788271516561508179e-01,-3.991522490978240967e-01,-6.410000324249267578e-01,-1.356720626354217529e-01,-1.469375342130661011e-01,7.831920740197437225e-15,-3.810066580772399902e-01,1.811808645725250244e-01,2.045411914587020874e-01,-3.387442529201507568e-01,-2.026592753827571869e-02,-2.537208795547485352e-01,-2.511217296123504639e-01,-1.055111829191446304e-02,6.627008318901062012e-01,5.241237282752990723e-01,6.098891330115138731e-15,3.727459963950852107e-15,1.225790858268737793e+00,-2.943263947963714600e-01,5.827648192644119263e-02,3.047142922878265381e-01,-5.648241639137268066e-01,-3.675583600997924805e-01,-1.777110099792480469e-01,2.357310801744461060e-01,-6.897142529487609863e-02,-2.303099334239959717e-01,-2.330627292394638062e-01,5.140352845191955566e-01,2.782401442527770996e-01,3.736607134342193604e-01,-4.110218286514282227e-01,4.289737374997201758e-14,2.504737377166748047e-01,3.587050361603116855e-14,4.211546778678894043e-01,-2.630316466093063354e-02,3.422289490699768066e-01,3.810571730136871338e-01,5.358854532241821289e-01,2.673244476318359375e-01,-3.501030802726745605e-01,-1.890061199665069580e-01,-1.652077883481979370e-01,2.737325035422673997e-14,-1.130129247903823853e-01,-1.207496877759695053e-02,-1.450642686214639182e-14,-2.893910408020019531e-01,-3.609148859977722168e-01,-2.127965539693832397e-01,1.467489600181579590e-01,4.024230539798736572e-01,1.008879765868186951e-01,5.351724028587341309e-01,-3.214366436004638672e-01,-1.619147509336471558e-01,-9.121128916740417480e-02,5.008824467658996582e-01,-3.056021034717559814e-01,-3.177354037761688232e-01,-1.135245710611343384e-01,7.681466937065124512e-01,-1.418881211429834366e-02,-1.680368781089782715e-01,-5.968242883682250977e-02,5.047376751899719238e-01,-2.515393793582916260e-01,8.680448681116104126e-02,-7.434529811143875122e-02,-1.618225127458572388e-01,2.826779782772064209e-01,-2.824006676673889160e-01,1.248308941721916199e-01,1.740276962792185189e-14,-1.594120711088180542e-01,-2.530729803235792774e-14,-1.344681233167648315e-01,-9.048383719264911640e-15,1.166441321372985840e+00,-2.860156297683715820e-01,1.504050344228744507e-01,-1.492366101592779160e-02,3.165075487939969512e-14,1.592250162556381465e-14,5.759270861744880676e-02,-3.382634520530700684e-01,-4.784876108169555664e-01,-3.610755801200866699e-01,-1.366648674011230469e-01,8.565483689308166504e-01,-5.790125131607055664e-01,-5.811296701431274414e-01,5.818936228752136230e-01,-1.335467696189880371e-01,-2.924126684665679932e-01,2.245372831821441650e-01,-3.422706723213195801e-01,8.482314944267272949e-01,5.222011804580688477e-01,-3.062943518161773682e-01,-2.629348635673522949e-01,4.326599240303039551e-01,-4.294346868991851807e-01,-3.600865602493286133e-01,1.424985677003860474e-01,-4.935199618339538574e-01,1.992646157741546631e-01,-5.100114941596984863e-01,6.216607093811035156e-01,5.514462590217590332e-01,-7.389613240957260132e-02,4.127349853515625000e-01,-2.994253635406494141e-01,-4.356619417667388916e-01,4.638148248195648193e-01,-3.288418352603912354e-01,-1.050335317850112915e-01,-2.225918322801589966e-01,-2.314147204160690308e-01,5.499805808067321777e-01,4.972849786281585693e-02,-3.670079708099365234e-01,-6.559692025184631348e-01,-2.957842350006103516e-01,-3.683485686779022217e-01,-1.527693867683410645e-01,-3.646691441535949707e-01,8.062085509300231934e-02,5.677378773689270020e-01,1.102588325738906860e-01,-1.211763247847557068e-01,3.982935547828674316e-01,-3.002084791660308838e-01,4.698335826396942139e-01,-3.387844860553741455e-01,4.356337785720825195e-01,-8.076124638319015503e-02,1.791729629039764404e-01,5.956698656082153320e-01,4.358966350555419922e-01,-2.274019271135330200e-01,-2.162354439496994019e-01,1.389103680849075317e-01,-1.922989934682846069e-01,-4.470861330628395081e-02,3.390498757362365723e-01,6.048282384872436523e-01,8.900515437126159668e-01,3.550870716571807861e-01,2.617357373237609863e-01,1.543471813201904297e-01,-4.445130527019500732e-01,-1.940545439720153809e-02,-1.699349135160446167e-01,3.254162967205047607e-01,2.387007921934127808e-01,1.038617547601461411e-02,-1.062195917702658809e-14,-4.044591188430786133e-01,-6.491898298263549805e-01,1.708599776029586792e-01,-7.255368232727050781e-01,-4.237854480743408203e-01,-8.689614385366439819e-02,-5.001193881034851074e-01,-8.539030328392982483e-03,1.097300797700881958e-01,-5.180163383483886719e-01,8.358362317085266113e-02,-3.374194726347923279e-02,-3.564685583114624023e-01,-1.965489834547042847e-01,6.448307667450588199e-15,1.229863379106216348e-14,4.325348138809204102e-01,-1.691718101501464844e-01,-1.734746247529983521e-01,5.204351544380187988e-01,-5.216394364833831787e-02,-3.635404084430075844e-14,-2.837980687618255615e-01,-1.595128327608108521e-01,-4.144759178161621094e-01,1.788953840732574463e-01,4.567435432688629615e-15,5.942743420600891113e-01,6.979611515998840332e-01,3.572821244597434998e-02,3.719633519649505615e-01,-3.795130103733355964e-14,5.308168286161357025e-15,1.022944072113715630e-14,1.749068349599838257e-01,1.755258440971374512e-01,-2.836986780166625977e-01,-1.444074809551239014e-01,9.880717843770980835e-02,-4.069426357746124268e-01,3.181707561016082764e-01,5.874454379081726074e-01,1.288335472345352173e-01,3.499653339385986328e-01,-9.527537971735000610e-02,-1.206051185727119446e-02,-3.836210072040557861e-01,-4.885182678699493408e-01,2.430264800786972046e-01,1.579911112785339355e-01,-7.507692277431488037e-02,3.269067704677581787e-01,2.808696031558321343e-14,-3.941499590873718262e-01,-3.712341487407684326e-01,-1.181652173399925232e-01,8.487859964370727539e-01,-1.860920190811157227e-01,-5.040737986564636230e-01,-5.601415634155273438e-01,-5.203436613082885742e-01,1.917215030396851594e-14,2.631892561912536621e-01,-3.171960711479187012e-01,3.592915087938308716e-02,-3.706054389476776123e-01,-1.428534388542175293e-01,2.439776062965393066e-01,-5.326161384582519531e-01,-8.351581692695617676e-01,-3.474721908569335938e-01,-3.487727344036102295e-01,-8.144917339086532593e-02,-2.803550064563751221e-01,4.377414286136627197e-01,-5.181841850280761719e-01,-1.444839686155319214e-01,4.069039225578308105e-01,-3.026394546031951904e-01,-4.177452325820922852e-01,-4.568714201450347900e-01,3.588767647743225098e-01,-5.014994144439697266e-01,-1.404239535331726074e-01,-2.116931527853012085e-01,9.189591556787490845e-02,-4.049507677555084229e-01,1.278099864721298218e-01,-3.995569050312042236e-01,-1.810023010921819886e-15,-3.397401571273803711e-01,-9.569857012143179881e-15,-2.430876046419143677e-01,3.575424849987030029e-01,-4.631243050098419189e-01,-1.246937513351440430e-01,-3.282593488693237305e-01,-2.443946152925491333e-01,2.223961574794597329e-14,-1.599287092685699463e-01,1.405885964632034302e-01,8.719556033611297607e-02,-3.035295009613037109e-01,-6.173862218856811523e-01,-2.211534827947616577e-01,4.888531565666198730e-01,1.373214721679687500e-01,-7.103024721145629883e-01,4.296683073043823242e-01,1.834331601858139038e-01,-5.269581824541091919e-02,-3.032908737659454346e-01,3.420515552656627767e-14,6.569073200225830078e-01,-1.312761753797531128e-01,1.624803096055984497e-01,-3.758292496204376221e-01,-4.399936646223068237e-02,1.006800055503845215e+00,9.072790126607097050e-15,-2.404291778802871704e-01,3.117693960666656494e-01,2.530855238437652588e-01,8.362871408462524414e-02,-1.368339508771896362e-01,-1.411923766136169434e-01,6.305007338523864746e-01,-3.373874723911285400e-01,-1.666441261768341064e-01,-2.531884908676147461e-01,-5.355451703071594238e-01,2.008618563413619995e-01,-1.353816390037536621e-01,-4.833410680294036865e-01,5.258558392524719238e-01,-2.427489310503005981e-02,2.397753298282623291e-02,-4.341193139553070068e-01,-8.338052034378051758e-02,-1.893101446330547333e-02,1.037867292761802673e-01,3.838626295328140259e-02,-1.300466878688356573e-14,-1.660449951887130737e-01,1.969519704580307007e-01,-7.574926316738128662e-02,1.130855381488800049e-01,-3.211115002632141113e-01,-2.888935632058310665e-14,2.964427508413791656e-02,1.244512796401977539e-01,-2.301248013973236084e-01,6.713491082191467285e-01,-3.196991980075836182e-01,2.953576782021433145e-15,9.080646634101867676e-01,-1.916306763887405396e-01,2.872408032417297363e-01,9.338192641735076904e-03,4.002988636493682861e-01,-2.268718183040618896e-02,1.029828041791915894e-01,-3.914521932601928711e-01,6.033669114112854004e-01,6.022560596466064453e-02,-4.061197638511657715e-01,-5.225306153297424316e-01,-2.788263261318206787e-01,-1.649024188518524170e-01,-1.512966156005859375e-01,-2.397543489933013916e-01,-3.502941727638244629e-01,-4.746037423610687256e-01,5.955206155776977539e-01,-2.430946081876754761e-01,6.835398729890584946e-03,2.644933760166168213e-01,6.399589776992797852e-01,-3.830562847169718954e-14,-3.438124358654022217e-01,-1.026378282495063465e-14,-2.311114221811294556e-01,-2.111046612262725830e-01,-6.137737035751342773e-01,-9.714764867660603820e-15,-6.060805916786193848e-01,-1.445203572511672974e-01,-2.849832773208618164e-01,-6.719792634248733521e-02,-7.658711820840835571e-02,2.929926812648773193e-01,-6.140059232711791992e-01,-1.634537577629089355e-01,1.444109351685877313e-14,-8.048546314239501953e-02,1.795012950897216797e-01,3.332113325595855713e-01,-3.519507348537445068e-01,-3.812918066978454590e-01,-4.378231763839721680e-01,3.194253146648406982e-02,6.886494159698486328e-01,6.982913613319396973e-01,2.190288901329040527e-01,-2.341768890619277954e-01,-4.787073135375976562e-01,-2.224290072917938232e-01,-2.417232990264892578e-01,3.121993541717529297e-01,-1.947832405567169189e-01,-1.887061744928359985e-01,-4.279251694679260254e-01,-1.936031728982925415e-01,-9.014368802309036255e-02,-2.860874831676483154e-01,-2.507497370243072510e-01,-3.699933886528015137e-01,5.653293728828430176e-01,-1.875527054071426392e-01,-2.336130291223526001e-01,-4.381045401096343994e-01,-3.688685894012451172e-01,3.325643762946128845e-02,-2.461494803428649902e-01,-6.188044548034667969e-01,-4.288952648639678955e-01,-5.219972506165504456e-02,-3.912816643714904785e-01,4.858056008815765381e-01,1.023468226194381714e-01,5.523399710655212402e-01,1.460602946641402500e-14,4.527074471116065979e-02,-3.356295228004455566e-01,-3.600526154041290283e-01,1.361474841833114624e-01,-1.161400079727172852e-01,5.948390960693359375e-01,1.449174880981445312e-01,4.129736870527267456e-02,-1.389040648937225342e-01,-3.633430600166320801e-01,2.894575893878936768e-01,-2.549007236957550049e-01,2.634907327592372894e-02,-1.712152063846588135e-01,-2.754543125629425049e-01,7.178058624267578125e-01,-4.552546441555023193e-01,-1.770906001329421997e-01,-2.838376164436340332e-01,2.505497038364410400e-01,-6.572711467742919922e-02,-2.999294400215148926e-01,-2.350935637950897217e-01,-5.514621138572692871e-01,-4.672764241695404053e-02,-3.502085208892822266e-01,-6.556058675050735474e-02,-6.238667368888854980e-01,-2.579390108585357666e-01,7.038184404373168945e-01,-1.646412312984466553e-01,1.696716621518135071e-02,-1.379848420619964600e-01,-4.672683775424957275e-01,-3.261171579360961914e-01,-4.866922795772552490e-01,-8.557295799255371094e-02,-2.300310432910919189e-01,1.498457044363021851e-01,-1.753139495849609375e-01,6.938761472702026367e-02,5.607184767723083496e-02,5.890127420425415039e-01,5.796526074409484863e-01,-4.562247097492218018e-01,-2.922302782535552979e-01,1.782551556825637817e-01,-1.013877317309379578e-01,3.550443947315216064e-01,-2.553741931915283203e-01,-3.450096249580383301e-01,-2.481992542743682861e-01,-7.687314413487911224e-03,1.842556707561016083e-02,1.798743307590484619e-01,-2.112480401992797852e-01,-3.893658816814422607e-01,-2.869704067707061768e-01,-4.420847818255424500e-02,-1.019150987267494202e-01,-2.918270528316497803e-01,6.251565217971801758e-01,-2.100187093019485474e-01,5.351718664169311523e-01,-2.773297429084777832e-01,4.130486845970153809e-01,-1.707443594932556152e-01,-1.585930138826370239e-01,-2.665321230888366699e-01,-1.340100020170211792e-01,-1.044103875756263733e-01,4.156525858635233550e-14,6.057422291083462695e-15,-1.423009783029556274e-01,-5.019652247428894043e-01,2.608559429645538330e-01,-2.055570930242538452e-01,-4.546070992946624756e-01,6.009900197386741638e-02,4.241496324539184570e-01,4.629310369491577148e-01,4.145850241184234619e-01,2.408977306913584471e-04,-4.488896131515502930e-01,3.118910361081361771e-03,-3.477227687835693359e-01,-1.060226735506882012e-14,-3.382380306720733643e-01,9.465721249580383301e-01,1.135620236396789551e+00,-2.080438279332755269e-14,5.376201495528221130e-02,-1.412488818168640137e-01,-2.656651584647101022e-14,-1.339244544506072998e-01,2.307532876729965210e-01,-5.911548137664794922e-01,-3.182923793792724609e-01,-9.322298318147659302e-02,3.601976098573274332e-14,-3.096120953559875488e-01,-2.040798813104629517e-01,-3.637400710493343681e-14,-5.256392806768417358e-02,1.829949952661991119e-02,-1.248269751667976379e-01,-2.041657455265522003e-02,-5.275436863303184509e-02,-3.619868159294128418e-01,-3.561545610427856445e-01,8.971124887466430664e-02,-2.761944234371185303e-01,7.860620021820068359e-01,7.533149123191833496e-01,3.635614514350891113e-01,-4.131880998611450195e-01,-1.884163916110992432e-01,-2.313626930117607117e-02,1.045852154493331909e-02,8.722833544015884399e-02,-1.228385940194129944e-01,-2.812342345714569092e-01,-3.132057189941406250e-01,-1.581817120313644409e-01,5.995146632194519043e-01,-3.294446766376495361e-01,-5.013021826744079590e-01,4.063786566257476807e-01,-1.345931887626647949e-01,9.883662462234497070e-01,-1.421601325273513794e-01,8.975293040275573730e-01,-1.550569981336593628e-01,-5.639005824923515320e-02,-5.796946287155151367e-01,3.574884831905364990e-01,-2.630591019988059998e-02,-6.275280714035034180e-01,-4.656169116497039795e-01,-2.020360529422760010e-01,-2.518085539340972900e-01,1.592350006103515625e-01,-2.219270616769790649e-01,3.499007724186431467e-14,3.748378157615661621e-01,-1.769873648881912231e-01,2.786998748779296875e-01,-7.096140831708908081e-02,-1.482729166746139526e-01,9.563797116279602051e-01,-2.385075986385345459e-01,-4.770180583000183105e-01,-2.802445292472839355e-01,-2.832877337932586670e-01,-8.775456994771957397e-02,-4.739891737699508667e-02,2.025388777256011963e-01,-2.371051162481307983e-01,-2.121185958385467529e-01,-1.470368653535842896e-01,2.718938291072845459e-01,5.773261785507202148e-01,-1.589360386133193970e-01,-1.282683461904525757e-01,2.662438452243804932e-01,-8.716011047363281250e-02,-2.609151899814605713e-01,-3.108108043670654297e-01,-1.503045391291379929e-02,4.517541229724884033e-01,5.592288970947265625e-01,6.662818789482116699e-01,-1.589839160442352295e-01,-1.980038434267044067e-01,-5.343191235057838384e-14,2.246174216270446777e-01,-5.792325362563133240e-02,-8.878774940967559814e-02,4.250069260597229004e-01,2.435661107301712036e-01,1.988271772861480713e-01,1.314355134963989258e-01,-3.125905692577362061e-01,-2.440394014120101929e-01,-2.581516504287719727e-01,-1.563113778829574585e-01,-3.630372136831283569e-02,-2.515401840209960938e-01,-6.280825138092041016e-01,-2.633703872561454773e-02,-2.174776792526245117e-01,2.414537966251373291e-01,-1.734234839677810669e-01,-4.433238208293914795e-01,-2.245296537876129150e-01,-5.177202224731445312e-01,-1.405326277017593384e-01,6.796644330024719238e-01,2.178208529949188232e-01,-1.342210918664932251e-01,3.496371805667877197e-01,-2.254812419414520264e-01,-4.520696997642517090e-01,3.428318420166734382e-14,1.190946549177169800e-01,-2.894069254398345947e-01,2.244255467771273660e-14,-1.855276823043823242e-01,3.874869644641876221e-02,-4.367864305920149404e-15,1.595539152622222900e-01,-1.543170213699340820e-01,7.996308803558349609e-02,1.394422568406529506e-14,9.104726463556289673e-02,-3.773121833801269531e-01,-2.004385292530059814e-01,8.396528661251068115e-02,-2.840476036071777344e-01,-1.665326207876205444e-01,7.411440014839172363e-01,2.536343634128570557e-01,2.558164596557617188e-01,-1.015037670731544495e-02,-3.438446223735809326e-01,-7.787994458585776464e-15,-9.972838452085852623e-04,5.250132679939270020e-01,2.008849978446960449e-01,-2.300775349140167236e-01,1.827673614025115967e-02,-1.757731586694717407e-01,-4.826229214668273926e-01,1.195478662848472595e-01,-1.305472254753112793e-01,2.524729073047637939e-01,-3.094119429588317871e-01,3.025740385055541992e-01,-8.130125465541891694e-15,-2.496126294136047363e-01,2.662896811962127686e-01,-3.497237563133239746e-01,-3.683908879756927490e-01,6.423377394676208496e-01,-3.139251172542572021e-01,-1.199483126401901245e-01,-1.574346423149108887e-01,7.310198545455932617e-01,2.698121666908264160e-01,1.433067470788955688e-01,-9.028276801109313965e-02,4.921135306358337402e-01,-3.482330739498138428e-01,-4.054508805274963379e-01,-6.859747171401977539e-01,-4.153743386268615723e-01,6.582762289365946817e-15,-3.902990818023681641e-01,2.732452452182769775e-01,-2.317609339952468872e-01,-3.119751513004302979e-01,-1.280632913112640381e-01,-1.359415352344512939e-01,-3.260476291179656982e-01,7.319309115409851074e-01,5.142080411314964294e-02,-3.766511082649230957e-01,2.705338001251220703e-01,2.196968197822570801e-01,7.058881521224975586e-01,-3.186482787132263184e-01,1.318656653165817261e-01,-2.970480173826217651e-02,-3.601880073547363281e-01,-1.258395314216613770e-01,-3.289930522441864014e-02,1.977327093482017517e-02,5.519230365753173828e-01,-1.958786696195602417e-01,1.258697453886270523e-02,-9.565860778093338013e-02,6.143695116043090820e-01,-1.221669688820838928e-01,9.486914873123168945e-01,7.354445010423660278e-02,5.506005883216857910e-02,-1.322935968637466431e-01,3.766655623912811279e-01,-3.702280223369598389e-01,-2.354359328746795654e-01,1.403110176324844360e-01,-2.313007712364196777e-01,1.161530762910842896e-01,5.912306308746337891e-01,1.466035544872283936e-01,-1.655581444501876831e-01,-2.087240219116210938e-01,-2.738723456859588623e-01,9.986631572246551514e-02,-1.779933571815490723e-01,-3.266457319259643555e-01,-3.046008944511413574e-01,-1.005718111991882324e-01,6.781139946711745720e-15,-4.649523794651031494e-01,-1.749602258205413818e-01,-6.404800713062286377e-02,-4.820093214511871338e-01,-2.047638595104217529e-01,-3.892158567905426025e-01,1.827540993690490723e-01,7.358003258705139160e-01,-2.863560318946838379e-01,3.370418548583984375e-01,-2.435822188854217529e-01,6.081170439720153809e-01,3.325123786926269531e-01,4.896815121173858643e-01,2.756947576999664307e-01,3.447108268737792969e-01,-3.233209252357482910e-02,-3.515827059745788574e-01,-6.423864513635635376e-02,1.191687583923339844e-01,-3.915444910526275635e-01,-1.395681500434875488e-01,9.891792212537910828e-15,-3.988439217209815979e-02,6.136163696646690369e-02,-1.700706630945205688e-01,-2.650395929813385010e-01,-1.251526027917861938e-01,-3.528105020523071289e-01,-9.167663007974624634e-02,-1.888128742575645447e-02,-4.475328326225280762e-01,-2.362928837537765503e-01,2.242678850889205933e-01,-2.582144737243652344e-01,-2.532867193222045898e-01,-3.176063895225524902e-01,6.880962252616882324e-01,-1.671844869852066040e-01,-2.110786736011505127e-01,4.093270748853683472e-03,-5.063457248974390090e-14,-3.553946018218994141e-01,1.410134182545149523e-14,-1.486994475126266479e-01,-1.568896137177944183e-02,-6.454923748970031738e-01,1.892432719469070435e-01,2.379304617643356323e-01,-2.685385346412658691e-01,2.083347886800765991e-01,-4.253253936767578125e-01,2.471629530191421509e-01,-6.109068393707275391e-01,5.590713913409921243e-14,-2.097483575344085693e-01,-2.023387849330902100e-01,1.957486420869827271e-01,3.056088685989379883e-01,-3.018727004528045654e-01,3.135102093219757080e-01,-4.584824740886688232e-01,-1.696824133396148682e-01,-2.798652946949005127e-01,4.217489063739776611e-02,-2.063504457473754883e-01,-4.830007553100585938e-01,-7.222289592027664185e-02,2.555745244026184082e-01,2.105830460786819458e-01,-2.066707424819469452e-02,1.836953908205032349e-01,-8.363423496484756470e-02,-1.111804470419883728e-01,-2.142923176288604736e-01,-1.534997969865798950e-01,-2.887910306453704834e-01,6.446983665227890015e-02,3.719839453697204590e-01,-2.540879290822972703e-14,-8.928006887435913086e-02,-1.878633350133895874e-01,-5.011551747593004369e-14,-1.575230211019515991e-01,-1.909357011318206787e-01,2.593839764595031738e-01,-3.521799668669700623e-02,-1.016411632299423218e-01,-1.054987534880638123e-01,2.816958427429199219e-01,-6.231439709663391113e-01,-2.248823347049226651e-15,-7.422021031379699707e-01,4.458357095718383789e-01,-2.961187958717346191e-01,6.827817559242248535e-01,-3.232800662517547607e-01,1.017456650733947754e-01,4.072291254997253418e-01,3.672624528408050537e-01,-3.818553313612937927e-02,-6.802093982696533203e-01,-2.866169214248657227e-01,1.764238774776458740e-01,-2.501655817031860352e-01,-4.199412465095520020e-02,5.223314762115478516e-01,-4.102654457092285156e-01,-5.122548937797546387e-01,-1.256339401006698608e-01,1.831772923469543457e-01,-7.145204544067382812e-01,-1.141643971204757690e-01,-1.898789405822753906e-01,1.841744394796493434e-14,7.121092081069946289e-01,-6.378032267093658447e-02,-5.596690997481346130e-02,4.672993421554565430e-01,-7.907324470579624176e-03,2.802145481109619141e-01,1.577246375381946564e-02,-1.419753730297088623e-01,-1.493174284696578979e-01,-1.599452495574951172e-01,-1.527654528617858887e-01,-6.739400327205657959e-02,-1.321648657321929932e-01,2.820252478122711182e-01,-2.206463813781738281e-01,4.113335648654736776e-14,8.302546292543411255e-02,8.242041468620300293e-01,-1.804009824991226196e-01,9.434135556221008301e-01,-3.303894698619842529e-01,-1.331797242164611816e-01,8.842104077339172363e-01,3.150855898857116699e-01,6.293265521526336670e-02,-6.010596081614494324e-02,-1.253348737955093384e-01,-1.723579317331314087e-01,-3.403435647487640381e-01,-1.543072760105133057e-01,-8.038501441478729248e-02,7.510375231504440308e-02,-3.031790442764759064e-02,-2.582621574401855469e-01,-3.755179643630981445e-01,-2.303368151187896729e-01,7.994638085365295410e-01,3.071632981300354004e-01,1.766275018453598022e-01,4.245322942733764648e-02,-3.883316516876220703e-01,-1.150406450033187866e-01,3.605156242847442627e-01,9.998977184295654297e-03,2.787088751792907715e-01,4.459554255008697510e-01,-1.977149397134780884e-01,3.604526631534099579e-03,8.922769427299499512e-01,-4.070512652397155762e-01,7.169814705848693848e-01,-3.605087399482727051e-01,6.133843660354614258e-01,-8.486289530992507935e-02,-5.754752755165100098e-01,8.095049262046813965e-01,7.747893929481506348e-01,1.899155527353286743e-01,-1.137784272432327271e-01,7.635285854339599609e-01,-6.283076107501983643e-02,4.571713209152221680e-01,8.135050535202026367e-01,1.289745271205902100e-01,4.263598620891571045e-01,-1.828779131174087524e-01,-1.158968657255172729e-01,-1.123551204800605774e-01,-5.183343887329101562e-01,-7.660868167877197266e-01,-1.592007875442504883e-01,2.309815026819705963e-02,2.075147181749343872e-01,-8.369877189397811890e-02,-1.426358520984649658e-01,-9.369433671236038208e-02,-2.189128845930099487e-01,-2.305498272180557251e-01,4.395668208599090576e-02,-5.731483101844787598e-01,-4.153205826878547668e-02,-3.619039356708526611e-01,5.484282970428466797e-01,-3.431024253368377686e-01,2.473731637001037598e-01,6.853687018156051636e-02,2.381517142057418823e-01,-1.277001202106475830e-01,1.078128946253691101e-14,-4.038633406162261963e-01,-3.862431347370147705e-01,2.942669093608856201e-01,-7.649017870426177979e-02,-3.181821668120365931e-15,2.269437164068222046e-01,5.089469552040100098e-01,-1.213256195187568665e-01,-3.017264008522033691e-01,-1.439290493726730347e-01,1.069586053490638733e-01,-2.105067968368530273e-01,4.009771049022674561e-01,-6.629301607608795166e-02,-2.254084497690200806e-01,3.539446771154246274e-14,-2.065816670656204224e-01,-2.737267315387725830e-01,-2.308218330144882202e-01,-3.695723414421081543e-01,-1.226299852132797241e-01,6.680919528007507324e-01,2.154573947191238403e-01,-4.196110665798187256e-01,-1.817016601562500000e-01,-1.139587312936782837e-01,-1.230680756270885468e-02,-4.687237401056025543e-14,-2.286915943346557595e-14,2.496296614408493042e-01,-1.210022121667861938e-01,-2.470501363277435303e-01,3.088659942150115967e-01,-3.948633372783660889e-01,-7.662887871265411377e-02,2.369482517242431641e-01,6.315412521362304688e-01,-3.702262938022613525e-01,-2.924818694591522217e-01,9.653078019618988037e-02,6.882703900337219238e-01,-2.320421487092971802e-01,-7.985059916973114014e-02,-1.197328343987464905e-01,2.557733654975891113e-02,7.676826417446136475e-02,-9.678112904999962990e-15,-1.257703006267547607e-01,1.770491749048233032e-01,2.245352864265441895e-01,4.274026607891528995e-16,-2.793974243104457855e-02,-6.083010509610176086e-02,4.754526019096374512e-01,-5.991348996758460999e-02,-1.067330017685890198e-01,1.013168096542358398e+00,-6.503229588270187378e-02,-1.268233656883239746e-01,5.091752111911773682e-02,-1.534820944070816040e-01,-1.649242639541625977e-01,-1.580968797206878662e-01,-3.239315554074556625e-14,-3.399756550788879395e-02,2.341404110193252563e-01,1.256234943866729736e-01,3.773651719093322754e-01,-1.049385219812393188e-01,-1.528019145946319518e-14,-2.907588779926300049e-01,-4.646623134613037109e-02,-2.157604992389678955e-01,-3.206670284271240234e-01,4.689415991306304932e-01,-3.622833490371704102e-01,4.439794343800984588e-14,3.750233352184295654e-01,-8.752099424600601196e-02,-2.592317461967468262e-01,7.673834562301635742e-01,-3.852404654026031494e-01,-1.656756848096847534e-01,3.339697718620300293e-01,2.619217932224273682e-01,7.343805860728025436e-03,-1.282367557287216187e-01,-1.739361137151718140e-01,-1.405722796916961670e-01,6.911078095436096191e-01,-7.162404805421829224e-02,3.730207681655883789e-01,-6.735752522945404053e-02,4.675278663635253906e-01,-3.102878928184509277e-01,-7.871059328317642212e-02,-1.807411015033721924e-01,-5.639412403106689453e-01,3.189165890216827393e-01,-2.604731917381286621e-01,-7.641481608152389526e-02,-4.573290050029754639e-01,-3.190640360116958618e-02,7.623159885406494141e-01,-4.930587112903594971e-01,2.374472916126251221e-01,6.912261247634887695e-02,8.474310040473937988e-01,-2.199511080980300903e-01,-2.004171609878540039e-01,-1.575001478195190430e-01,-2.113066911697387695e-01,-9.853679686784744263e-02,-7.402594089508056641e-01,1.033672839403152466e-01,5.813235640525817871e-01,3.456530272960662842e-01,-1.268934458494186401e-01,1.310120373964309692e-01,5.841848850250244141e-01,1.773849874734878540e-01,-3.223919868469238281e-01,3.758380732283780890e-14,-1.561953872442245483e-01,-2.344229072332382202e-01,1.048518121242523193e-01,4.958010092377662659e-02,-2.544775605201721191e-01,1.353635787963867188e-01,3.079187572002410889e-01,-4.174070656299591064e-01,-8.839312195777893066e-02,-2.766616940498352051e-01,-3.070649504661560059e-01,7.757365703582763672e-01,-1.076811775565147400e-01,3.486848771572113037e-01,-1.042236238718032837e-01,3.382919132709503174e-01,3.509079664945602417e-02,8.533880710601806641e-01,9.299075603485107422e-02,-2.049783989787101746e-02,-8.854645261371224541e-15,-3.641154766082763672e-01,7.136925458908081055e-01,1.056229621171951294e-01,5.282189846038818359e-01,-3.135759234428405762e-01,-6.909732253599157326e-15,-1.579657644033432007e-01,-5.043030381202697754e-01,4.179615974426269531e-01,-6.435793042182922363e-01,-7.329586148262023926e-02,-1.715770661830902100e-01,-6.861121952533721924e-02,-2.122569978237152100e-01,-7.947405427694320679e-02,-2.519859671592712402e-01,3.750092089176177979e-01,-3.575064837932586670e-01,-6.203929185867309570e-01,-3.335016667842864990e-01,-5.670452490448951721e-03,-3.502624034881591797e-01,2.390806525945663452e-01,-3.144291043281555176e-01,-2.514685690402984619e-01,-1.944026798009872437e-01,-1.739988476037979126e-01,-4.825915768742561340e-02,-1.340480446815490723e-01,4.365276992321014404e-01,2.873464953154325485e-03,6.675021350383758545e-02,-6.223797798156738281e-02,9.373409152030944824e-01,-3.216791152954101562e-01,1.609268486499786377e-01,-1.170118749141693115e-01,-3.900806903839111328e-01,-2.276420593261718750e-01,3.838303983211517334e-01,7.808761165353610145e-15,-1.043759137392044067e-01,7.593530416488647461e-02,-1.641476601362228394e-01,-3.621128797531127930e-01,-2.007334381341934204e-01,-1.904855668544769287e-02,-9.168691196895228934e-16,-2.595751881599426270e-01,-1.281781494617462158e-01,-2.408087700605392456e-01,-2.175457775592803955e-01,-4.055893123149871826e-01,-3.633075952529907227e-01,-1.136979863692677908e-14,9.930687546730041504e-01,-1.417653560638427734e-01,-2.446117848157882690e-01,3.111808001995086670e-01,1.969281286001205444e-01,-6.951121091842651367e-01,-5.965841468423604965e-03,-3.710324168205261230e-01,-2.403125315904617310e-01,-2.934295833110809326e-01,-8.670845627784729004e-01,-5.867244601249694824e-01,-2.236333042383193970e-01,1.747014522552490234e-01,3.090452849864959717e-01,-3.537193834781646729e-01,-3.007670305669307709e-02,9.927644133567810059e-01,5.652126073837280273e-01,-4.287186563014984131e-01,1.655060350894927979e-01,-5.361037254333496094e-01,-6.026024222373962402e-01,1.417063325643539429e-01,-6.193842887878417969e-01,-4.234529137611389160e-01,-8.674651384353637695e-01,1.259017288684844971e-01,7.112581729888916016e-01,1.408999860286712646e-01,-7.515727728605270386e-02,-4.885502755641937256e-01,2.071426510810852051e-01,1.924594789743423462e-01,4.721137285232543945e-01,-4.851085599511861801e-03,-2.758237719535827637e-01,2.182427644729614258e-01,-5.470719933509826660e-01,4.578472673892974854e-01,-1.053777262568473816e-01,-1.774934977293014526e-01,3.230397701263427734e-01,-2.663910090923309326e-01,-2.442700117826461792e-01,1.655870676040649414e-01,3.528929352760314941e-01,-8.665367960929870605e-01,7.091032862663269043e-01,4.933793842792510986e-01,4.708094000816345215e-01,6.357600092887878418e-01,8.155548572540283203e-01,-4.469754695892333984e-01,-1.649148464202880859e-01,1.060914620757102966e-01,7.367616891860961914e-02,3.827218413352966309e-01,-5.701252818107604980e-01,3.776543140411376953e-01,1.563694328069686890e-01,7.444537878036499023e-01,1.163531169295310974e-01,-3.296418190002441406e-01,3.564581573009490967e-01,-1.848352104425430298e-01,-3.885204195976257324e-01,-7.343674898147583008e-01,-7.442628741264343262e-01,-9.341813921928405762e-01,1.313613951206207275e-01,-6.646053194999694824e-01,2.749541103839874268e-01,7.165546417236328125e-01,-3.046354949474334717e-01,2.819377183914184570e-01,6.260445117950439453e-01,-6.629269123077392578e-01,3.556642532348632812e-01,-5.195779800415039062e-01,-5.818898081779479980e-01,-4.835399687290191650e-01,-5.192880034446716309e-01,4.529772698879241943e-01,-5.944861769676208496e-01,8.638477325439453125e-02,-1.036902219057083130e-01,-4.512599706649780273e-01,6.118173897266387939e-02,9.338083267211914062e-01,1.019352674484252930e-01,4.460543096065521240e-01,-2.547151744365692139e-01,-6.829862594604492188e-01,4.070556536316871643e-02,-5.381614565849304199e-01,-6.621345877647399902e-01,-4.298006892204284668e-01,-4.842679798603057861e-01,-7.166376709938049316e-01,1.803942173719406128e-01,-3.576493263244628906e-02,7.096963524818420410e-01,-5.012834072113037109e-01,-6.481101512908935547e-01,6.035346388816833496e-01,-2.443248182535171509e-01,4.809581935405731201e-01,6.936597228050231934e-01,6.167532205581665039e-01,-3.217083215713500977e-02,-2.544160188240867509e-14,2.429997473955154419e-01,-7.032076716423034668e-01,-1.065624728798866272e-01,-3.934182822704315186e-01,2.061188369989395142e-01,-5.219786763191223145e-01,1.503205001354217529e-01,-2.552728056907653809e-01,-5.501099824905395508e-01,2.424147576093673706e-01,3.858931958675384521e-01,4.557076096534729004e-01,2.930072844028472900e-01,-8.144674103443931557e-15,-4.947325587272644043e-02,2.324182167649269104e-02,-1.289875209331512451e-01,2.933749854564666748e-01,6.424137949943542480e-01,1.356291025876998901e-01,-5.213555693626403809e-01,-3.984236121177673340e-01,-4.937752783298492432e-01,-3.662336766719818115e-01,7.938167452812194824e-01,-6.670047342777252197e-02,-2.850829660892486572e-01,-5.766900181770324707e-01,-4.173686504364013672e-01,2.086467742919921875e-01,-2.364208698272705078e-01,1.307674348354339600e-01,-3.199974894523620605e-01,-5.308934450149536133e-01,-4.672045707702636719e-01,6.369170732796192169e-03,-1.703770756721496582e-01,-4.623507708311080933e-02,-6.539779901504516602e-01,5.669777989387512207e-01,-5.430963635444641113e-01,-4.146533310413360596e-01,-2.749644033610820770e-02,-4.694631695747375488e-01,-3.675176501274108887e-01,1.564954072237014771e-01,5.442711114883422852e-01,6.305028498172760010e-02,-1.553182005882263184e-01,-7.236576080322265625e-02,-4.500650167465209961e-01,-2.767489850521087646e-01,-3.304726183414459229e-01,1.286050123816204205e-15,5.011917352676391602e-01,-4.772825539112091064e-01,1.911404045565508192e-14,1.193172708153724670e-01,-1.633853651583194733e-02,-2.603501975536346436e-01,-5.145934820175170898e-01,6.681877374649047852e-02,-7.349594961851835251e-03,-2.698298394680023193e-01,-3.134396672248840332e-02,-4.343393743038177490e-01,2.867615222930908203e-01,-3.857983052730560303e-01,-1.337026357650756836e-01,-5.822402238845825195e-01,4.795298278331756592e-01,2.972894608974456787e-01,-2.600036561489105225e-01,6.468260288238525391e-02,-3.321314454078674316e-01,1.384987682104110718e-01,-1.534802764654159546e-01,-2.179215252399444580e-01,6.149690747261047363e-01,-6.050617247819900513e-02,-3.332413733005523682e-01,-3.903184831142425537e-01,-7.944286436914298200e-15,-4.701374471187591553e-01,2.145355790853500366e-01,3.557522594928741455e-01,-8.872204273939132690e-02,-2.141822874546051025e-01,-3.766934201121330261e-02,1.476292029703625552e-14,-1.462108939886093140e-01,-4.620419144630432129e-01,-3.307666182518005371e-01,-3.375205099582672119e-01,-5.303545594215393066e-01,8.095808029174804688e-01,2.108046412467956543e-01,-5.510585904121398926e-01,-1.960153132677078247e-01,2.204381115734577179e-02,4.730459749698638916e-01,2.474732995033264160e-01,-2.853082716464996338e-01,-5.780276060104370117e-01,-2.601659893989562988e-01,-5.253902077674865723e-01,-1.117506325244903564e-01,3.764566183090209961e-01,1.411324143409729004e-01,-2.154808789491653442e-01,1.748415529727935791e-01,5.680510401725769043e-01,5.777308940887451172e-01,1.668184995651245117e-01,-5.525448918342590332e-01,1.150201484560966492e-01,-5.334469676017761230e-01,-5.403992533683776855e-01,-2.192915827035903931e-01,-2.232338935136795044e-01,4.623760282993316650e-01,9.122028350830078125e-01,-4.903331995010375977e-01,-1.110269129276275635e-01,9.684930673192412853e-15,-6.369092464447021484e-01,1.060938388109207153e-01,5.842759013175964355e-01,3.065842390060424805e-01,-6.777204871177673340e-01,3.437354862689971924e-01,-4.647260904312133789e-01,4.495366215705871582e-01,5.997478961944580078e-01,-3.701644837856292725e-01,-4.506282806396484375e-01,-2.281953394412994385e-01,-4.703036546707153320e-01,5.436135530471801758e-01,3.430440425872802734e-01,1.869920343160629272e-01,-2.930824756622314453e-01,4.875930249691009521e-01,-5.113050341606140137e-01,-1.573046570389410870e-14,-4.312804043292999268e-01,6.442121267318725586e-01,-1.650262475013732910e-01,3.672499358654022217e-01,7.616075873374938965e-01,9.486678987741470337e-02,1.827940940856933594e-01,1.805672198534011841e-01,-3.222221434116363525e-01,-5.120826959609985352e-01,4.765074700117111206e-02,-4.316785633563995361e-01,2.204816788434982300e-01,3.055286109447479248e-01,-4.581500589847564697e-01,1.998593211174011230e-01,4.889358282089233398e-01,3.332129716873168945e-01,5.633523464202880859e-01,8.379641771316528320e-01,-2.064926028251647949e-01,-1.570980657031057631e-14,-1.597131639719009399e-01,7.977922558784484863e-01,3.572907745838165283e-01,-2.313854247331619263e-01,1.466269642114639282e-01,-7.701046764850616455e-02,-2.916779220104217529e-01,5.848636627197265625e-01,-5.876309275627136230e-01,2.177943289279937744e-01,-2.853578031063079834e-01,6.123743206262588501e-02,-3.011516332626342773e-01,5.213083624839782715e-01,-6.363987326622009277e-01,-1.326686292886734009e-01,4.405053555965423584e-01,1.835603575335489207e-14,7.697429656982421875e-01,5.230593681335449219e-01,-4.672982692718505859e-01,8.257163763046264648e-01,-3.393215537071228027e-01,-5.074629783630371094e-01,4.000119566917419434e-01,-1.155663281679153442e-01,-1.608621925115585327e-01,3.042106926441192627e-01,-5.251795053482055664e-01,-1.584820002317428589e-01,-2.794799208641052246e-01,-9.363438189029693604e-02,4.570933580398559570e-01,-3.550430536270141602e-01,3.335404098033905029e-01,6.643038243055343628e-02,1.005722284317016602e+00,2.713543772697448730e-01,5.173461884260177612e-02,-4.680908024311065674e-01,6.336575001478195190e-02,-1.990231424570083618e-01,-1.870178245007991791e-02,1.601340025663375854e-01,5.290520191192626953e-01,2.170791849493980408e-02,8.440114855766296387e-01,-3.789675235748291016e-01,-1.516077816486358643e-01,-1.102943369366568907e-14,6.121197938919067383e-01,-2.031272202730178833e-01,1.166201457381248474e-01,-3.258370757102966309e-01,1.139022409915924072e-01,-2.275319695472717285e-01,9.800282120704650879e-01,2.717254161834716797e-01,8.435710072517395020e-01,4.934771060943603516e-01,-3.744868040084838867e-01,3.679532706737518311e-01,-4.298305213451385498e-01,-4.251534342765808105e-01,4.125834703445434570e-01,-3.557695448398590088e-01,-3.874155506491661072e-02,2.593318931758403778e-02,1.796550601720809937e-01,3.677760958671569824e-01,-1.116714328527450562e-01,-4.216596782207489014e-01,8.532624840736389160e-01,-2.540547251701354980e-01,4.206456542015075684e-01,-3.729072809219360352e-01,-2.455177605152130127e-01,-2.659406661987304688e-01,4.350392222404479980e-01,1.301941275596618652e-01,-4.580437242984771729e-01,1.966687291860580444e-01,-2.432729303836822510e-01,5.171628594398498535e-01,6.476266980171203613e-01,5.752090215682983398e-01,2.219790965318679810e-02,2.920144796371459961e-01,-4.897835664451122284e-03,-3.559120595455169678e-01,2.730692625045776367e-01,3.403214216232299805e-01,3.620824515819549561e-01,-4.424743652343750000e-01,6.579449176788330078e-01,-5.033521652221679688e-01,9.640070114239930599e-15,-1.672415882349014282e-01,1.189426556229591370e-01,1.712574809789657593e-01,-1.166722625494003296e-01,-3.944099247455596924e-01,2.190250009298324585e-01,2.524118125438690186e-01,-9.328510165214538574e-01,-2.195782214403152466e-01,3.396290242671966553e-01,-3.242986500263214111e-01,-3.038489520549774170e-01,-3.422846198081970215e-01,3.775661220847305322e-15,-2.423013895750045776e-01,2.623996436595916748e-01,-6.292774630642806316e-15,-7.438744883984327316e-03,-4.177474081516265869e-01,-4.254709780216217041e-01,-2.978250174148593110e-14,-3.567775487899780273e-01,5.057716965675354004e-01,4.000423848628997803e-01,-2.222827970981597900e-01,8.579841256141662598e-02,-4.617646336555480957e-01,-2.008370310068130493e-01,-5.424966812133789062e-01,-5.310007333755493164e-01,7.423613220453262329e-02,9.547976404428482056e-02,5.520033240318298340e-01,9.074709378182888031e-03,-7.512361556291580200e-02,-2.085349559783935547e-01,-3.084504008293151855e-01,2.860461473464965820e-01,-2.036603540182113647e-01,1.580811887979507446e-01,-4.181378781795501709e-01,7.284910678863525391e-01,-3.014865517616271973e-01,2.560968995094299316e-01,-1.971208900213241577e-01,-5.375533699989318848e-01,-3.437373042106628418e-01,5.208074450492858887e-01,5.076797008514404297e-01,-6.645577400922775269e-02,3.867447972297668457e-01,-2.294348739087581635e-02,6.975799798965454102e-01,-1.956305801868438721e-01,-1.595065295696258545e-01,9.677883237600326538e-02,6.396797299385070801e-01,-1.792974621057510376e-01,-1.596456021070480347e-01,-2.360747605562210083e-01,3.199914991855621338e-01,-4.553459584712982178e-01,4.894100725650787354e-01,-2.781939804553985596e-01,-4.393577575683593750e-01,-2.095652185380458832e-02,-2.168557345867156982e-01,-1.203615590929985046e-01,1.020871847867965698e-01,-2.157530933618545532e-01,-2.452731728553771973e-01,2.610032246482939938e-14,8.711526542901992798e-02,-5.534130334854125977e-01,4.264848828315734863e-01,3.422281444072723389e-01,-6.526741385459899902e-02,-7.713539600372314453e-01,1.442293226718902588e-01,2.698035910725593567e-02,2.715077437460422516e-02,8.245205879211425781e-02,-3.146463334560394287e-01,-1.570386737585067749e-01,3.618188309183721640e-14,-1.226218976080417633e-02,-6.326032280921936035e-01,-2.291755527257919312e-01,-5.933386683464050293e-01,-2.262045890092849731e-01,-3.914117813110351562e-01,9.896092861890792847e-02,7.703444361686706543e-01,8.091849684715270996e-01,-5.590604543685913086e-01,4.670764803886413574e-01,-3.254995644092559814e-01,6.903991103172302246e-01,7.543510794639587402e-01,-1.113659664988517761e-01,4.549565613269805908e-01,3.012481145560741425e-02,-4.670625180006027222e-02,4.196868464350700378e-02,-6.792706251144409180e-02,4.076458280906081200e-04,1.617284119129180908e-01,-1.629710346460342407e-01,-4.762069284915924072e-01,-1.784102874808013439e-03,2.784710824489593506e-01,1.842732131481170654e-01,-1.494210362434387207e-01,-5.554261803627014160e-01,2.912193238735198975e-01,4.312476515769958496e-02,-2.253680080175399780e-01,-5.063896626234054565e-02,4.572787880897521973e-01,-9.392399374528667688e-15,-1.485318988561630249e-01,-6.878714561462402344e-01,3.158288300037384033e-01,2.758805453777313232e-01,-6.303927898406982422e-01,-2.622689008712768555e-01,-2.217886298894882202e-01,-1.250223219394683838e-01,-4.918622076511383057e-01,-1.074711009860038757e-01,-4.449055790901184082e-01,3.129823803901672363e-01,-8.081273734569549561e-02,3.888441324234008789e-01,-4.628357291221618652e-01,1.047514900565147400e-01,9.292395412921905518e-02,-5.272213369607925415e-02,1.001763567328453064e-01,4.158643633127212524e-02,5.601808428764343262e-01,1.087956875562667847e-01,-2.170008979737758636e-02,-1.595116853713989258e-01,4.506795704364776611e-01,9.970350265502929688e-01,-1.573836505413055420e-01,-1.741185486316680908e-01,-7.854105532169342041e-02,-2.838283181190490723e-01,3.897791802883148193e-01,4.499653279781341553e-01,-1.405226886272430420e-01,9.151492118835449219e-01,2.060811817646026611e-01,-1.927000582218170166e-01,3.839668929576873779e-01,-3.485199213027954102e-01,-2.007661014795303345e-01,-3.018686547875404358e-02,-4.208517372608184814e-01,4.717192053794860840e-01,6.089301705360412598e-01,6.057596206665039062e-02,1.551354974508285522e-01,-2.767435014247894287e-01,-1.506857872009277344e-01,8.334124833345413208e-02,-2.248590290546417236e-01,-2.669137716293334961e-01,-3.247878551483154297e-01,-2.199124842882156372e-01,-7.804007828235626221e-02,2.458178381984851835e-14,1.509167402982711792e-01,-6.375997066497802734e-01,-2.076020091772079468e-01,5.018630623817443848e-01,-1.571075469255447388e-01,2.133697867393493652e-01,2.569960653781890869e-01,-4.038209915161132812e-01,-2.866783738136291504e-01,-1.230210289359092712e-01,-4.109116792678833008e-01,-6.270118951797485352e-01,-3.860167264938354492e-01,3.587914705276489258e-01,-1.957552134990692139e-01,-5.388360619544982910e-01,-2.177368998527526855e-01,-2.759516835212707520e-01,-1.953069716691970825e-01,7.797315716743469238e-03,-4.925439059734344482e-01,-4.547303617000579834e-01,3.543082475662231445e-01,1.736809209906126084e-14,-4.002098143100738525e-01,-1.071764007210731506e-01,3.416642546653747559e-02,-4.204232245683670044e-02,-1.297781169414520264e-01,3.802654445171356201e-01,1.767549663782119751e-01,-2.282358407974243164e-01,8.605565875768661499e-02,3.409787416458129883e-01,6.484693288803100586e-01,1.059411019086837769e-01,6.136379837989807129e-01,1.625942438840866089e-01,-2.534745335578918457e-01,-8.037713170051574707e-01,-6.419184803962707520e-01,5.503168702125549316e-01,1.068762838840484619e-01,-2.117037177085876465e-01,-2.755348682403564453e-01,-4.174602031707763672e-02,-3.638010574215366777e-14,-2.658681869506835938e-01,6.379175782203674316e-01,2.829717993736267090e-01,-7.288721203804016113e-02,4.826275110244750977e-01,-8.850244283676147461e-01,2.349716126918792725e-01,-6.933031082153320312e-01,-3.077821135520935059e-01,-4.703238010406494141e-01,-3.199084103107452393e-01,3.289984539151191711e-02,-2.011801004409790039e-01,-4.112694859504699707e-01,-4.657722637057304382e-02,2.266927361488342285e-01,-3.674691505402803704e-15,7.289469242095947266e-02,-1.489959508180618286e-01,-2.142648614143847358e-14,1.154393628239631653e-01,-1.902264170348644257e-02,2.160426527261734009e-01,4.410094320774078369e-01,-2.608806420401673515e-14,-2.635063230991363525e-01,-2.772924304008483887e-01,-2.836181223392486572e-01,-8.763818442821502686e-02,4.515795409679412842e-02,3.592334389686584473e-01,-3.545148996955162224e-14,7.009459137916564941e-01,-5.169243812561035156e-01,-2.907276153564453125e-02,-3.391728103160858154e-01,4.907395690679550171e-02,7.295158505439758301e-01,-6.297402381896972656e-01,-1.184006184339523315e-01,5.153755471110343933e-02,4.999558031558990479e-01,1.787068322300910950e-02,-1.381584937057943330e-14,2.383410930633544922e-01,5.500276684761047363e-01,-2.242720574140548706e-01,-9.665333200246095657e-04,-3.642356395721435547e-01,6.074829027056694031e-02,7.717917728793533688e-15,-6.310716271400451660e-03,-5.086757540702819824e-01,7.048174738883972168e-01,6.698033809661865234e-01,-6.440453976392745972e-02,-3.580029308795928955e-01,-1.768301427364349365e-01,-4.853464961051940918e-01,1.335261762142181396e-02,-1.512547750351540821e-14,-1.534916194145807822e-08,-2.262926101684570312e-01,-2.413504868745803833e-01,3.081916272640228271e-01,1.906542666256427765e-02,-4.768334031105041504e-01,-5.391395092010498047e-01,-1.936293840408325195e-01,-3.262920677661895752e-02,-8.573617041110992432e-02,-2.029665857553482056e-01,2.758719325065612793e-01,2.105305045843124390e-01,-2.438034266233444214e-01,7.559872392264195551e-15,-4.244338348507881165e-02,-3.940521180629730225e-02,1.109066158533096313e-01,1.084390357136726379e-01,2.334115654230117798e-01,-3.147733956575393677e-02,4.722677171230316162e-01,-1.250785291194915771e-01,-7.203270494937896729e-02,-4.081206917762756348e-01,-1.753007173538208008e-01,-5.021222829818725586e-01,2.364060824270458605e-14,-9.929543733596801758e-02,-9.737616032361984253e-02,-1.238249521702528000e-02,2.807443439960479736e-01,-2.785252332687377930e-01,-2.060583829879760742e-01,-1.950599253177642822e-01,-1.005322709679603577e-01,-3.195809423923492432e-01,-1.688187271356582642e-01,3.143498301506042480e-01,-2.181276082992553711e-01,5.402840375900268555e-01,2.829642891883850098e-01,-1.913846719178800143e-14,8.249505162239074707e-01,-3.244646787643432617e-01,-3.375999331474304199e-01,4.919248521327972412e-01,-8.831596374511718750e-02,-2.880075946450233459e-02,1.181137893518707446e-14,-5.691571481692206391e-14,3.316716408355117884e-14,5.422013060751851299e-08,6.448391079902648926e-02,6.893770764741097290e-15,-2.233178168535232544e-01,-3.546701073646545410e-01,6.979967653751373291e-02,-3.687944114208221436e-01,-1.756084412336349487e-01,-2.418061494827270508e-01,9.285516291856765747e-02,-4.857742488384246826e-01,-7.593385130167007446e-02,-2.361491173505783081e-01,-3.362048864364624023e-01,-2.937054932117462158e-01,1.292184740304946899e-01,3.288871347904205322e-01,-8.342004567384719849e-02,7.830650190776555775e-16,2.029445618391036987e-01,2.311635613441467285e-01,2.983538031431712256e-16,-1.038606911897659302e-01,-3.061992228031158447e-01,-5.566701889038085938e-01,-5.878016948699951172e-01,-1.931665986776351929e-01,-3.580345511436462402e-01,-2.830474972724914551e-01,6.600701808929443359e-01,-2.263765037059783936e-01,-2.572186887264251709e-01,-2.756520807743072510e-01,4.695906341075897217e-01,-3.777713179588317871e-01,-1.105428263545036316e-01,4.621027708053588867e-01,-1.338181048631668091e-01,-9.874428063631057739e-02,-4.707349240779876709e-01,7.338019609451293945e-01,-1.036783158779144287e-01,-2.445012629032135010e-01,-1.706981956958770752e-01,3.185575902462005615e-01,-1.335566192865371704e-01,3.585022389888763428e-01,1.828330103417416530e-14,-5.900249630212783813e-02,-3.646195828914642334e-01,-3.411125838756561279e-01,-8.059724420309066772e-02,-2.121087221064899692e-14,1.174894645810127258e-01,-2.059703767299652100e-01,4.852373898029327393e-01,9.464146453292895944e-15,-4.224586486816406250e-01,-2.710383119656177564e-14,-1.152226030826568604e-01,1.345576159656047821e-02,8.904143422842025757e-02,-1.895648986101150513e-01,1.512442976236343384e-01,2.374227195978164673e-01,-2.636225521564483643e-01,-1.237486526370048523e-01,-5.310783982276916504e-01,-1.729121953248977661e-01,-5.965952277183532715e-01,5.183948278427124023e-01,6.209388840943574905e-03,-1.327044516801834106e-01,2.925178110599517822e-01,5.514169335365295410e-01,-2.660163213839827900e-14,1.814170592451345293e-14,-5.100645422935485840e-01,-1.665150560438632965e-02,5.562746152281761169e-02,7.304657250642776489e-02,9.375166893005371094e-02,6.733471155166625977e-02,1.687354892492294312e-01,-4.040569067001342773e-01,-1.141423434019088745e-01,1.682455390691757202e-01,-1.096381917595863342e-01,3.196556270122528076e-01,-6.035044789314270020e-01,-5.779516540913368083e-14,-2.786694467067718506e-01,-3.570427000522613525e-01,5.710854017329861088e-14,-2.733353128526409132e-14,5.438918247818946838e-02,-1.195814758539199829e-01,-2.788435108959674835e-02,2.246019095182418823e-01,-2.740325629711151123e-01,-1.229785159230232239e-01,4.975327551364898682e-01,-1.683114767074584961e-01,1.899540424346923828e-01,2.028122395277023315e-01,2.595033645629882812e-01,1.507605612277984619e-01,-3.103635907173156738e-01,-2.164314836263656616e-01,-3.781051039695739746e-01,-3.743027448654174805e-01,2.652812302112579346e-01,9.856832623481750488e-01,-3.663682565093040466e-02,4.118304550647735596e-01,-6.654086709022521973e-02,-5.941914319992065430e-01,1.487656682729721069e-01,-1.566801369190216064e-01,-8.855792135000228882e-02,-2.878832221031188965e-01,-1.764279166011940847e-14,-1.223196461796760559e-01,4.984793066978454590e-01,1.577481329441070557e-01,-1.082569584250450134e-01,9.122538566589355469e-02,-2.905197739601135254e-01,-7.659165561199188232e-02,-4.089496433734893799e-01,1.726449579000473022e-01,-2.668530214577913284e-05,1.064016520977020264e-01,-2.230226248502731323e-01,-2.651400864124298096e-01,2.007644027471542358e-01,-4.328737258911132812e-01,-9.563529491424560547e-02,-6.736256182193756104e-04,-1.921264231204986572e-01,4.710029661655426025e-01,4.522169008851051331e-03,-1.551567912101745605e-01,1.051024124026298523e-01,-4.046375453472137451e-01,2.180130183696746826e-01,-2.585750222206115723e-01,-9.398990869522094727e-02,-2.507615459951349074e-14,1.682101786136627197e-01,-2.150538116693496704e-01,5.017701387405395508e-01,3.917865455150604248e-01,-2.562550455331802368e-02,-9.675557166337966919e-02,-5.765457823872566223e-02,-6.012989878654479980e-01,-4.299411475658416748e-01,3.493605554103851318e-01,-3.119352757930755615e-01,-1.592114269733428955e-01,-1.101372390985488892e-01,-6.774259358644485474e-02,4.842136502265930176e-01,-3.154647648334503174e-01,-3.713612556457519531e-01,-5.305722355842590332e-02,-1.976808880433875149e-15,-2.800908684730529785e-02,-1.731179840862751007e-02,-2.708063423633575439e-01,2.160017937421798706e-01,3.897799849510192871e-01,-5.587322115898132324e-01,5.411071181297302246e-01,-4.326641857624053955e-01,-1.028658822178840637e-01,-4.952831566333770752e-01,-3.278499841690063477e-02,1.394568830728530884e-01,-2.202957496047019958e-02,-1.815039515495300293e-01,5.324361920356750488e-01,4.939126074314117432e-01,2.563157379627227783e-01,-1.829539388418197632e-01,-3.395049273967742920e-01,-1.002882374450564384e-03,-7.034901529550552368e-03,-3.083533346652984619e-01,4.251972436904907227e-01,6.298212707042694092e-02,-2.105732411146163940e-01,-8.410165458917617798e-02,-5.561536550521850586e-02,-2.681149840354919434e-01,-1.288649290800094604e-01,-2.406735420227050781e-01,-2.957040071487426758e-01,6.169275045394897461e-01,-7.217997908592224121e-01,2.414650022983551025e-01,2.850859761238098145e-01,1.038979172706604004e+00,5.644003748893737793e-01,-3.100490570068359375e-01,-2.187011539936065674e-01,1.680854260921478271e-01,-9.793745726346969604e-02,2.602366507053375244e-01,3.980899602174758911e-02,-2.168530821800231934e-01,3.780057132244110107e-01,-6.044947728514671326e-02,-2.474975436925888062e-01,-9.528010338544845581e-02,-2.481898692639761261e-14,-1.949644833803176880e-02,7.170203924179077148e-01,-1.685974597930908203e-01,-5.023807883262634277e-01,2.324827909469604492e-01,-2.936817388127059558e-15,6.416803598403930664e-02,-5.533864450122001621e-15,-2.184449732303619385e-01,4.434202313423156738e-01,-1.299497788293402928e-14,1.048591017723083496e+00,-1.520761847496032715e-01,6.455417275428771973e-01,-5.313572287559509277e-01,-6.079451076942705284e-15,-3.785136342048645020e-01,-1.068470254540443420e-01,7.191736251115798950e-02,-3.092246651649475098e-01,-1.953898966312408447e-01,3.050258159637451172e-01,-1.187284365296363831e-01,1.283184438943862915e-01,-1.075047254562377930e-01,1.355812102556228638e-01,2.803695201873779297e-01,-2.447376996278762817e-01,-2.052808552980422974e-02,-5.630186200141906738e-01,-4.643163830041885376e-02,5.632676942056435987e-14,-3.636552989482879639e-01,-1.313905566930770874e-01,-5.450767874717712402e-01,-2.975594401359558105e-01,-2.864222824573516846e-01,8.405804634094238281e-01,-1.176560595631599426e-01,-1.727485209703445435e-01,1.594635237929260124e-15,-1.880022138357162476e-01,-2.187098413705825806e-01,9.387525916099548340e-01,-5.248009562492370605e-01,-2.019565850496292114e-01,-2.280079424381256104e-01,-3.685339987277984619e-01,-3.666773140430450439e-01,-4.188002788801329507e-15,2.438536286354064941e-01,-1.709859222173690796e-01,-6.736499071121215820e-02,-3.972052931785583496e-01,-2.555130124092102051e-01,-4.753568209707736969e-03,-3.206066489219665527e-01,-3.748830175027251244e-03,-2.836905419826507568e-01,2.367165982723236084e-01,-3.287641108036041260e-01,2.602429315447807312e-02,3.510397374629974365e-01,-2.358699291944503784e-01,4.110633730888366699e-01,-4.469935164196081612e-15,-3.002773821353912354e-01,-4.856035113334655762e-01,3.839434683322906494e-01,4.077546298503875732e-02,-1.481716036796569824e-01,-1.773051917552947998e-01,2.003379911184310913e-01,-3.069556598917638768e-14,5.531483888626098633e-01,-1.364414840936660767e-01,2.160097956657409668e-01,-1.317659020423889160e-01,3.843633234500885010e-01,1.056039089318951477e-14,6.260852217674255371e-01,-1.131388006284789194e-14,-9.765752591192722321e-03,4.442599713802337646e-01,1.824082881212234497e-01,-2.257105261087417603e-01,-8.669620752334594727e-02,-3.700638115406036377e-01,-7.087184786796569824e-01,1.150308325886726379e-01,1.124535799026489258e-01,9.850777387619018555e-01,2.197894155979156494e-01,-2.580852130856618742e-14,1.434769034385681152e-01,5.758055448532104492e-01,-6.178943067789077759e-02,-5.059429776716785343e-14,-1.372661888599395752e-01,2.857217490673065186e-01,-2.375339567661285400e-01,-5.005760192871093750e-01,5.851795673370361328e-01,5.156677365303039551e-01,-5.603374242782592773e-01,-4.646717011928558350e-01,1.774484727180229010e-14,-1.230023801326751709e-01,-3.056727945804595947e-01,-1.493629947100973826e-14,3.722751140594482422e-01,3.303210437297821045e-01,-2.188003063201904297e-01,2.973299939185380936e-03,-1.619506627321243286e-01,-5.569510534405708313e-02,-2.296363115310668945e-01,-1.762369275093078613e-01,-2.874586880207061768e-01,-2.539112865924835205e-01,-1.437498331069946289e-01,4.503457340116617802e-14,-3.116155266761779785e-01,4.240840971469879150e-01,-1.403589695692062378e-01,-7.327745109796524048e-02,-1.409637778997421265e-01,-1.429458707571029663e-01,-1.907593905925750732e-01,-3.318799436092376709e-01,-7.439474016427993774e-02,5.298606306314468384e-02,-3.900714218616485596e-02,-2.395898699760437012e-01,6.126744672656059265e-02,-3.092848658561706543e-01,-6.475693732500076294e-02,-1.315576136112213135e-01,-8.892309665679931641e-02,2.662421166896820068e-01,-2.078277468681335449e-01,-2.189080119132995605e-01,4.181888997554779053e-01,-2.068623863784452288e-14,2.331382185220718384e-01,1.644942313432693481e-01,-2.306658774614334106e-01,-3.236394003033638000e-02,-1.584051549434661865e-01,-1.629065722227096558e-01,-1.902802586555480957e-01,-1.693478375673294067e-01,-4.272242188453674316e-01,-1.729094535112380981e-01,4.663983359932899475e-02,6.084589362144470215e-01,8.216517418622970581e-02,-9.235762059688568115e-02,-3.360525518655776978e-02,-1.079410165548324585e-01,-8.930784463882446289e-02,-1.228678524494171143e-01,5.899193882942199707e-01,-9.938495068150671186e-15,-3.680183589458465576e-01,-3.947952091693878174e-01,2.059286172573920881e-15,4.818383455276489258e-01,-5.087488293647766113e-01,-7.561693191528320312e-01,-2.665807306766510010e-01,-3.650960922241210938e-01,1.476492285728454590e-01,-1.946625411510467529e-01,2.417758405208587646e-01,-8.703994750976562500e-02,-2.837032675743103027e-01,4.594022408127784729e-02,-2.246594876050949097e-01,4.452717676758766174e-02,-1.277632564306259155e-01,-2.519255578517913818e-01,-1.717225015163421631e-01,-1.264932453632354736e-01,4.001992046833038330e-01,-9.248229674994945526e-03,2.809848785400390625e-01,-1.169232577085494995e-01,-1.270233988761901855e-01,-6.998417526483535767e-02,-2.698892652988433838e-01,3.506506681442260742e-01,5.900707840919494629e-01,-2.310333185612939433e-15,-2.098948359489440918e-01,-7.890780270099639893e-02,-1.264755874872207642e-01,-1.276847124099731445e-01,6.239423751831054688e-01,-2.648695065360362477e-14,1.973791718482971191e-01,-1.169092506170272827e-01,-1.253697425127029419e-01,4.204789996147155762e-01,4.197733700275421143e-01,-1.797379404306411743e-01,-1.297460794448852539e-01,2.003349363803863525e-01,4.768890440464019775e-01,2.915468811988830566e-01,4.384024143218994141e-01,2.376528270542621613e-02,-1.335912495851516724e-01,7.107301056385040283e-02,-1.498831361532211304e-01,3.031698614358901978e-02,-3.001854121685028076e-01,8.974289894104003906e-02,-3.823019191622734070e-02,-2.737251818180084229e-01,-1.718823760747909546e-01,-1.707038879394531250e-01,4.710114896297454834e-01,-1.165368780493736267e-01,-3.413072228431701660e-01,4.119325801730155945e-02,-7.861553132534027100e-02,-2.797133624553680420e-01,-5.849684402346611023e-02,5.081535577774047852e-01,-2.348985821008682251e-01,-2.492981106042861938e-01,-8.805598318576812744e-02,7.520332187414169312e-02,-6.382360458374023438e-01,-2.870802689536669505e-14,5.040403008460998535e-01,1.015441179275512695e+00,-3.429858326064842700e-14,-4.624004662036895752e-02,-7.892821729183197021e-02,-1.437676399946212769e-01,-8.565766364336013794e-02,4.714809656143188477e-01,-4.237962141633033752e-02,-3.516406416893005371e-01,-4.300293326377868652e-02,-3.287307173013687134e-02,5.073135718703269958e-02,6.982005238533020020e-01,-1.081979572772979736e-01,-2.001820951700210571e-01,-2.577199339866638184e-01,2.617537081241607666e-01,-2.781467735767364502e-01,-3.319332301616668701e-01,-1.363488733768463135e-01,-4.802889749407768250e-02,4.397931993007659912e-01,-1.517846882343292236e-01,-1.604746729135513306e-01,-2.584544420242309570e-01,6.429898142814636230e-01,2.688461542129516602e-01,4.356857538223266602e-01,-3.298683837056159973e-02,-4.374966025352478027e-02,2.903550677343415265e-14,4.665865302085876465e-01,8.937810344264440765e-15,-2.478852570056915283e-01,7.377892136573791504e-01,5.871954560279846191e-02,8.081354945898056030e-02,1.176317222416400909e-02,3.391263484954833984e-01,6.772974133491516113e-01,2.453997880220413208e-01,8.972276002168655396e-02,-9.003733843564987183e-02,-1.426913738250732422e-01,-7.695700228214263916e-02,-9.922601282596588135e-02,4.372421801090240479e-01,5.792637467384338379e-01,3.976663351058959961e-01,-2.813353240489959717e-01,-3.124981001019477844e-02,-1.198445782065391541e-01,-2.672860026359558105e-01,3.789266347885131836e-01,4.801194667816162109e-01,-9.945187717676162720e-02,-3.492845594882965088e-01,5.205108523368835449e-01,-4.149962067604064941e-01,-1.887828260660171509e-01,-1.171594336628913879e-01,-2.345188252579274990e-14,-1.486792117357254028e-01,2.489351183176040649e-01,1.054963469505310059e-01,-2.137314230203628540e-01,-3.483344912528991699e-01,9.978130459785461426e-02,-1.681053042411804199e-01,-1.379463225603103638e-01,-2.012476421403217031e-14,7.408553361892700195e-02,5.180818960070610046e-02,-2.917763218283653259e-02,-2.641894519329071045e-01,-8.150959759950637817e-02,-6.160746216773986816e-01,-2.994903180704791557e-14,-2.496477067470550537e-01,5.950069054961204529e-02,2.672169506549835205e-01,-1.961007118225097656e-01,3.000910282135009766e-01,-1.893251836299896240e-01,1.841806471347808838e-01,-1.501715215395695024e-14,-9.222839027643203735e-02,8.443654775619506836e-01,-9.655051678419113159e-02,5.628152769678561318e-15,-2.655382454395294189e-01,1.783381551504135132e-01,-1.324994564056396484e-01,-2.865989667810708852e-10,4.250881671905517578e-01,-1.799925602972507477e-02,-1.463771164417266846e-01,-5.435596704483032227e-01,-3.123622373127701857e-14,-5.308818444609642029e-02,-4.953504726290702820e-02,-3.048280477523803711e-01,-2.072518318891525269e-01,-5.973646417260169983e-02,-4.610672593116760254e-01,2.733508944511413574e-01,-1.190062388777732849e-01,-3.835169225931167603e-02,-6.596348434686660767e-02,-2.706165611743927002e-01,3.658753335475921631e-01,8.879055380821228027e-01,-3.096534609794616699e-01,-1.258285790681838989e-01,-1.471134722232818604e-01,-3.834616541862487793e-01,-5.707721784710884094e-02,-3.044404387474060059e-01,-2.820188924670219421e-02,1.564151197671890259e-01,-5.591656830486804730e-14,-8.613524027168750763e-03,3.355328738689422607e-01,-1.602876335382461548e-01,-2.703228592872619629e-01,-1.610284596681594849e-01,-1.967866718769073486e-01,9.229794459644259652e-15,-2.085653841495513916e-01,1.709844022989273071e-01,-1.648615896701812744e-01,-2.484209090471267700e-01,2.473691552877426147e-01,-3.041197061538696289e-01,-1.000071987509727478e-01,2.824127972126007080e-01,-1.864662915468215942e-01,-2.350219190120697021e-01,-8.816573023796081543e-02,2.410334199666976929e-01,5.987295508384704590e-01,-1.239437013864517212e-01,2.054964949290208343e-14,5.488140583038330078e-01,-8.417062958621969460e-15,1.477763950824737549e-01,-7.644916325807571411e-02,2.438106089830398560e-01,-6.555560673297822216e-16,-4.042852818965911865e-01,4.299171268939971924e-01,2.524998188018798828e-01,-1.778203099966049194e-01,-1.983846426010131836e-01,-1.130298152565956116e-01,-1.844162195920944214e-01,-1.924831867218017578e-01,-2.267886996269226074e-01,-7.000195235013961792e-02,-5.763545632362365723e-02,1.898638159036636353e-01,-3.084431588649749756e-01,-2.802166932194295745e-14,-4.453685134649276733e-02,4.132204493400952472e-15,-1.748729050159454346e-01,-2.190070600728826616e-14,2.330821305513381958e-01,-8.879411220550537109e-02,2.137702256441116333e-01,3.230576515197753906e-01,-8.645604364573955536e-03,-7.966195046901702881e-02,-1.998164206743240356e-01,1.196564396367281666e-14,-3.129188716411590576e-01,1.815899014472961426e-01,-9.754754602909088135e-02,-1.217227801680564880e-01,-2.073641270399093628e-01,1.265657636204467473e-14,-1.815687268972396851e-01,-1.703845709562301636e-01,-3.962768986821174622e-02,3.720804750919342041e-01,2.098171263933181763e-01,-9.276590496301651001e-02,-7.882332056760787964e-02,-1.426037549972534180e-01,-1.511254161596298218e-01,5.689914226531982422e-01,-1.908774226903915405e-01,8.605829477310180664e-01,3.208540007472038269e-02,-3.101369440555572510e-01,6.857547760009765625e-01,-5.683194398880004883e-01,1.087034568190574646e-01,-2.855506241321563721e-01,1.197146731518518997e-14,-1.533646285533905029e-01,-7.236174345016479492e-01,1.713669896125793457e-01,-1.654568165540695190e-01,-8.263981342315673828e-02,-2.832694351673126221e-01,-2.404074519872665405e-01,-4.815912842750549316e-01,-2.206870168447494507e-01,-1.711962819099426270e-01,-1.516297552734613419e-02,-2.471133768558502197e-01,7.936633229255676270e-01,-1.277831345796585083e-01,-2.574255466461181641e-01,1.507825404405593872e-02,-1.220383271574974060e-01,-8.898729085922241211e-02,2.476430982351303101e-01,4.884930849075317383e-01,-3.605874478816986084e-01,-4.608529061079025269e-02,-3.518322706222534180e-01,-6.804148107767105103e-02,5.510990619659423828e-01,4.159108698368072510e-01,-8.280418813228607178e-02,-2.264973521232604980e-01,4.525806307792663574e-01,-1.898297816514968872e-01,3.130206868446477886e-14,3.945724070072174072e-01,-1.839817315340042114e-01,-1.637214608490467072e-02,-3.503098554508490836e-14,-1.644843071699142456e-02,1.894878447055816650e-01,2.532801984637955695e-14,-2.303293645381927490e-01,-4.953643083572387695e-01,-1.887339055538177490e-01,-2.215807696831148532e-15,1.387607002499742503e-14,-4.183004200458526611e-01,3.183861323457354287e-16,-2.538218796253204346e-01,-1.246986538171768188e-01,-2.945024985820055008e-03,5.803868174552917480e-01,2.348000109195709229e-01,-9.963802993297576904e-02,-3.252909481525421143e-01,-2.103273271151194501e-14,-1.456254869699478149e-01,5.673890709877014160e-01,9.905198202994104639e-15,-8.723839372396469116e-02,-6.260874867439270020e-02,5.639928579330444336e-01,6.604797244071960449e-01,5.605841875076293945e-01,2.449392527341842651e-01,-8.865326642990112305e-02,-1.075970977544784546e-01,-1.081521213054656982e-01,4.795352816581726074e-01,-1.347662806510925293e-01,-3.054408356547355652e-02,-3.406646102666854858e-02,-1.896975636482238770e-01,9.963826435471258292e-15,-2.478429526090621948e-01,-2.479869371104729409e-15,2.169749885797500610e-01,-6.706283092498779297e-01,1.937215402722358704e-02,5.271577835083007812e-01,5.472241786769714567e-14,3.481076061725616455e-01,2.431191038340330124e-03,-2.441506385803222656e-01,5.364184975624084473e-01,3.665722012519836426e-01,3.100257138684281433e-14,-1.907229572534561157e-01,-1.251207441091537476e-01,1.119948774576187134e-01,-7.604794111102819443e-03,-8.013558387756347656e-02,8.600086718797683716e-02,-1.566048115491867065e-01,6.863983869552612305e-01,-2.413616478443145752e-01,-1.836685985326766968e-01,-1.358156502246856689e-01,-1.586461514234542847e-01,2.158473990857601166e-02,-8.320169150829315186e-02,-1.743691563606262207e-01,-2.816825807094573975e-01,-4.676937460899353027e-01,-2.579764425754547119e-01,2.813551016151905060e-02,-1.157929822802543640e-01,-1.687373965978622437e-01,-3.545542061328887939e-01,-2.556160688400268555e-01,-1.830052435398101807e-01,-1.158537939190864563e-01,-4.310619235038757324e-01,2.804018259048461914e-01,3.029739856719970703e-01,5.063989385962486267e-02,-1.173575818538665771e-01,-9.150443598628044128e-03,-4.671831429004669189e-02,-1.484877169132232666e-01,2.994885742664337158e-01,-2.529274821281433105e-01,2.639871537685394287e-01,-6.354491412639617920e-02,-1.167948842048645020e-01,-5.460181236267089844e-01,4.112834632396697998e-01,-6.707439571619033813e-02,-1.331982165575027466e-01,4.536484181880950928e-01,-4.940902590751647949e-01,1.084501296281814575e-02,3.587586879730224609e-01,1.463743744809821445e-14,1.715512387454509735e-02,-1.005502119660377502e-01,2.326825764128927915e-14,3.229270279407501221e-01,1.725604087114334106e-01,-1.070138439536094666e-01,-1.967548727989196777e-01,-2.060728371143341064e-01,-1.281430274248123169e-01,-2.426172792911529541e-01,3.616029322147369385e-01,-5.292154848575592041e-02,1.079252809286117554e-01,-7.984917610883712769e-02,6.665399670600891113e-01,-1.653807610273361206e-01,-2.391601949930191040e-01,-1.012680009007453918e-01,-1.202304959297180176e-01,-1.754269301891326904e-01,-6.595444083213806152e-01,-1.411101967096328735e-01,2.567083239555358887e-01,-1.035647541284561157e-01,-1.036665169522166252e-03,-1.126085221767425537e-01,-2.181858718395233154e-01,-4.598484272403183248e-15,4.868317395448684692e-03,-4.015137441456317902e-03,6.489810943603515625e-01,-1.024842709302902222e-01,1.228482884808781289e-14,4.956185817718505859e-01,-1.214088499546051025e-01,5.966747403144836426e-01,9.128262102603912354e-02,-6.138285622000694275e-03,-5.172190070152282715e-02,6.701877117156982422e-01,1.063369512557983398e-01,2.121757864952087402e-01,-2.464275509119033813e-01,6.351846456527709961e-01,-1.531250029802322388e-01,-1.064317971467971802e-01,-6.372817605733871460e-02,7.330682128667831421e-02,-8.774640038609504700e-03,2.112390249967575073e-01,-1.063725277781486511e-01,-8.271392434835433960e-02,-2.964679598808288574e-01,5.856122970581054688e-01,-1.085061728954315186e-01,-6.516009569168090820e-02,-1.759613752365112305e-01,-1.393260508775711060e-01,8.860597014427185059e-02,-5.636338496080826876e-15,-2.878946363925933838e-01,2.594977915287017822e-01,-1.094211339950561523e-01,-1.303797327533665756e-14,1.621864736080169678e-01,-2.549055218696594238e-01,-3.627279028296470642e-02,3.684752285480499268e-01,4.046048820018768311e-01,-2.546705603599548340e-01,-2.597304061055183411e-02,-8.510370552539825439e-02,-8.452603965997695923e-02,-7.124384492635726929e-02,-4.916526377201080322e-02,-9.101115912199020386e-02,-1.462501585483551025e-01,7.008590698242187500e-01,2.756639719009399414e-01,-3.149847388267517090e-01,-2.869285456836223602e-02,-2.611291110515594482e-01,-1.006566137075424194e-01,-9.075465056654526130e-15,1.292532831430435181e-01,3.037941753864288330e-01,2.935150265693664551e-01,-2.315585464239120483e-01,-5.134245008230209351e-02,-6.540220230817794800e-02,-5.179006773133390529e-15,-8.530970662832260132e-02,1.990674883127212524e-01,3.462814092636108398e-01,3.358662426471710205e-01,4.073832333087921143e-01,1.917971521615982056e-01,1.739117205142974854e-01,7.118157297372817993e-02,-1.006561964750289917e-01,-4.458453506231307983e-03,-2.222871221601963043e-02,-3.218731880187988281e-01,6.710121035575866699e-02,4.660896062850952148e-01,6.445993781089782715e-01,-1.346012204885482788e-01,-1.159733831882476807e-01,-2.112736366689205170e-02,-1.048814281821250916e-01,-1.851444542407989502e-01,3.252631928444930931e-15,2.316887676715850830e-02,2.582455873489379883e-01,9.712479263544082642e-02,-1.126961931586265564e-01,-9.918544441461563110e-02,-5.127298831939697266e-02,4.830928519368171692e-03,2.722314000129699707e-01,-1.127351745963096619e-01,-1.162025853991508484e-01,1.749884933233261108e-01,-1.605433970689773560e-02,-6.539086699485778809e-01,2.043000757694244385e-01,4.579242765903472900e-01,3.442828655242919922e-01,-3.013463914394378662e-01,-1.683394312858581543e-01,7.359625697135925293e-01,3.270123600959777832e-01,-2.763751277530882011e-14,-1.847524940967559814e-01,-1.871635764837265015e-01,1.878258436918258667e-01,-5.011298134922981262e-02,3.993446528911590576e-01,-3.324396014213562012e-01,-1.023991107940673828e-01,5.366861820220947266e-01,-7.168704271316528320e-02,8.170767800417047533e-15,4.103491604328155518e-01,-1.652667820453643799e-01,-3.902141749858856201e-02,-8.853456377983093262e-02,1.671174615621566772e-01,-1.440766304731369019e-01,-7.916760630905628204e-03,1.151585337505478535e-14,-1.291054785251617432e-01,9.987498074769973755e-02,-3.212244436144828796e-02,-1.682824343442916870e-01,-1.365227550268173218e-01,-5.556572079658508301e-01,-2.142356336116790771e-01,4.435226023197174072e-01,1.534973455849866775e-14,3.235617280006408691e-02,1.536698639392852783e-01,-7.728612422943115234e-02,-1.147419437766075134e-01,-2.348838448524475098e-01,-1.947023160755634308e-02,-1.216604337096214294e-01,-9.928268939256668091e-02,-2.844481468200683594e-01,-3.608355298638343811e-02,-2.054356411099433899e-02,2.899216115474700928e-01,2.735394537448883057e-01,-1.857037469744682312e-02,2.644870881010098762e-14,1.188364177942276001e-01,-1.008599698543548584e-01,-7.480929493904113770e-01,-1.055283112413527014e-14,-1.942858844995498657e-01,5.741280913352966309e-01,-4.708018898963928223e-02,3.266826845388197398e-14,7.765925015145065669e-15,-5.229812860488891602e-02,-1.315430551767349243e-01,-2.198635190725326538e-01,-1.397913247346878052e-01,-2.631057985126972198e-02,-1.511738300323486328e-01,-1.455789655447006226e-01,-1.085836887359619141e-01,-2.654293179512023926e-01,-1.164376735687255859e-01,7.619771957397460938e-01,8.161974698305130005e-02,-2.218986749649047852e-01,-3.144395351409912109e-02,-7.075972110033035278e-02,-2.122493237257003784e-01,-2.066862583160400391e-01,-1.017998903989791870e-01,-1.516167819499969482e-01,-1.845744699239730835e-01,-3.526891469955444336e-01,1.636479512556569815e-14,-5.091772973537445068e-02,-1.307625621557235718e-01,2.869507372379302979e-01,-7.079877704381942749e-02,-1.354747712612152100e-01,5.047693848609924316e-01,-9.157224744558334351e-02,2.904206812381744385e-01,2.122101783752441406e-01,-1.128929239045499411e-14,7.784875035285949707e-01,-6.002584099769592285e-02,-4.097409057554103617e-14,3.259556889533996582e-01,-9.507122635841369629e-02,-1.090398049088080190e-14,-1.313592344522476196e-01,-1.139851510524749756e-01,-6.867866963148117065e-02,-1.578902900218963623e-01,-2.227115780115127563e-01,-1.722877286374568939e-02,-1.259552389383316040e-01,-7.852012664079666138e-02,2.617040276527404785e-01,-4.070274829864501953e-01,-1.013713851571083069e-01,-2.067110985517501831e-01,-4.080386832356452942e-02,6.839206069707870483e-02,-1.116014719009399414e-01,4.398974776268005371e-01,-3.863056600093841553e-01,1.072533130645751953e-01,3.319359421730041504e-01,-5.326354131102561951e-02,-5.684501305222511292e-02,-9.825400263071060181e-02,-2.557421624660491943e-01,6.135362982749938965e-01,-1.945548318326473236e-02,-9.399642050266265869e-02,-6.767818238586187363e-03,5.496260896325111389e-02,-6.251703947782516479e-02,-1.673958003520965576e-01,-2.434646189212799072e-01,5.805523321032524109e-02,-3.102579899132251740e-02,4.809072315692901611e-01,4.079170525074005127e-01,3.061646819114685059e-01,-9.399814903736114502e-02,7.402171492576599121e-01,-4.937017336487770081e-03,-7.903350889682769775e-02,-4.992883652448654175e-02,-6.401754915714263916e-02,-1.127358302474021912e-01,-7.778073847293853760e-02,-6.089420244097709656e-02,1.876672306596292861e-14,-1.398603618144989014e-01,-2.728824019432067871e-01,-9.645958989858627319e-02,-1.225992292165756226e-02,-2.953449077904224396e-02,-2.470058798789978027e-01,3.953590393066406250e-01,3.682347014546394348e-02,-2.794151628821017752e-15,7.150076627731323242e-01,4.785146564245223999e-02,1.457863303276803191e-14,-2.673670649528503418e-01,-8.088678121566772461e-02,4.860429465770721436e-01,-3.773185983300209045e-02,8.043934106826782227e-01,-1.616031229496002197e-01,-4.896687567234039307e-01,-1.639366000890731812e-01,-1.098358333110809326e-01,-2.883601784706115723e-01,-2.880504943727699163e-14,6.874670833349227905e-02,3.597206473350524902e-01,-1.496355980634689331e-01,-2.441026981242488958e-15,6.907711029052734375e-01,-9.628022462129592896e-02,-2.331335991621017456e-01,-1.925414502620697021e-01,-1.519252863162005862e-14,3.280859291553497314e-01,3.129581511020660400e-01,-9.233453869819641113e-02,-1.285728514194488525e-01,-3.336305320262908936e-01,4.173766076564788818e-01,-3.860296905040740967e-01,-6.877189874649047852e-02,-3.101739846169948578e-02,-3.511111736297607422e-01,-8.017714321613311768e-02,4.839843261404686015e-14,-1.087607890367507935e-01,-8.297695964574813843e-02,-1.288085579872131348e-01,-1.096892505884170532e-01,1.480481115847566420e-14,6.379828602075576782e-02,3.189017772674560547e-01,-6.012543290853500366e-02,-4.586291685700416565e-02,-3.553137183189392090e-02,6.965256333351135254e-01,-2.602455914020538330e-01,3.550822138786315918e-01,3.425391316413879395e-01,-1.916092336177825928e-01,-2.998983263969421387e-01,-9.727331250905990601e-02,-5.031024292111396790e-02,-1.029250919818878174e-01,-2.615217566490173340e-01,5.595278739929199219e-01,2.009508162736892700e-01,2.700443565845489502e-01,-2.515009939670562744e-01,5.761917906774854936e-15,1.251083612442016602e-01,-3.972795978188514709e-02,6.384551525115966797e-01,-1.379999220371246338e-01,-6.082342192530632019e-02,-1.605852991342544556e-01,1.190693303942680359e-01,-4.098438471555709839e-02,-1.078447699546813965e-01,4.837290942668914795e-01,3.435228019952774048e-02,-6.449893862009048462e-02,-2.396043837070465088e-01,-5.642128735780715942e-02,5.506758689880371094e-01,-6.193789094686508179e-02,-3.889295086264610291e-02,1.268809009343385696e-02,-6.665174663066864014e-02,-2.130433768033981323e-01,-1.382996263354658445e-14,-2.428361624479293823e-01,-8.317689597606658936e-02,-1.210054978728294373e-01,-1.133129336617754584e-15,-1.347126513719558716e-01,-2.201213985681533813e-01,-2.233304083347320557e-02,-1.175954863429069519e-01,-2.631371617317199707e-01,-1.315813660621643066e-01,-7.658025622367858887e-02,-7.414660602807998657e-02,2.337786704301834106e-01,-2.520578168332576752e-02,5.754850506782531738e-01,4.959257543087005615e-01,3.624330461025238037e-01,-1.329648196697235107e-01,-1.725524365901947021e-01,1.059259399771690369e-01,-1.837681347155104006e-14,-3.861935734748840332e-01,3.422802314162254333e-02,-7.729144394397735596e-02,-8.490545302629470825e-02,-6.835317611694335938e-01,-1.061336547136306763e-01,1.385560184717178345e-01,5.719812512397766113e-01,8.966428041458129883e-01,3.496633172035217285e-01,-2.172751426696777344e-01,-5.255517959594726562e-01,-1.171881631016731262e-01,1.942413300275802612e-01,1.074688891345007211e-14,-2.797078713774681091e-02,-5.136522278189659119e-02,-6.463719904422760010e-02,1.318509429693222046e-01,-2.043029218912124634e-01,4.958285911298328241e-14,-1.668715775012969971e-01,-8.205889165401458740e-02,-3.157304972410202026e-02,-1.951310187578201294e-01,-5.462618544697761536e-03,5.485731363296508789e-01,4.389251172542572021e-01,-1.947951130568981171e-02,-5.571519732475280762e-01,-4.634249955415725708e-02,-1.256608664989471436e-01,-1.177380457520484924e-01,8.045665621757507324e-01,-1.844887137413024902e-01,