4.184238985180854797e-02,-2.630662918090820312e-01,-3.602015078067779541e-01,-2.377810031175613403e-01,-2.235923409461975098e-01,-2.888317108154296875e-01,5.354908853769302368e-02,-3.551213443279266357e-01,-1.757837831974029541e-01,-3.505433797836303711e-01,-2.004327028989791870e-01,3.638599812984466553e-01,2.300789505243301392e-01,-4.208482503890991211e-01,2.599524259567260742e-01,-3.482823371887207031e-01,-3.616397082805633545e-01,1.857503652572631836e-01,2.159403562545776367e-01,-7.587797939777374268e-02,1.569283455610275269e-01,1.476401388645172119e-01,5.288696661591529846e-02,3.083229362964630127e-01,-3.211452960968017578e-01,1.842211186885833740e-01,-2.677294015884399414e-01,-1.373632252216339111e-01,-4.487890750169754028e-02,4.020348787307739258e-01,8.413476621123294752e-15,3.694217186421155930e-03,1.105293631553649902e-01,-8.253784477710723877e-02,-1.397636346518993378e-02,-2.672432959079742432e-01,8.716362714767456055e-02,-2.966090142726898193e-01,3.136526048183441162e-02,-2.037224024534225464e-01,4.792416095733642578e-01,3.432360887527465820e-01,-2.952875196933746338e-01,-1.657881438732147217e-01,1.922776479321933879e-14,2.255195081233978271e-01,1.026814356446266174e-01,-2.617147862911224365e-01,9.496909379959106445e-02,-2.436065822839736938e-01,1.844149968366695647e-15,-3.352477252483367920e-01,-3.809899091720581055e-01,-1.743315905332565308e-01,2.102370113134384155e-01,-2.769086360931396484e-01,-7.182688266038894653e-02,-4.090911637222305330e-15,1.326866862775199704e-14,1.344253738676899276e-14,-6.344547271728515625e-01,-8.143933862447738647e-02,1.804656386375427246e-01,2.928999662399291992e-01,-1.661085784435272217e-01,3.686716258525848389e-01,2.523426115512847900e-01,5.597117170691490173e-02,-2.517167627811431885e-01,-1.787398755550384521e-01,3.816248774528503418e-01,-1.533795297145843506e-01,-2.722924947738647461e-01,4.988655075430870056e-02,2.736648321151733398e-01,5.309474580372612607e-14,-1.509418302424615083e-14,-2.691873610019683838e-01,-2.866195142269134521e-01,-5.641678348183631897e-02,-3.101003468036651611e-01,-3.064118623733520508e-01,-4.182584319037743747e-15,-2.840858399868011475e-01,-1.099967807531356812e-01,-1.329241842031478882e-01,1.639753878116607666e-01,-2.029504179954528809e-01,-1.037072911858558655e-01,-2.270909547805786133e-01,-3.686503171920776367e-01,3.133725782122551151e-14,7.186258584260940552e-02,-8.620733022689819336e-02,4.269047081470489502e-01,-2.798503637313842773e-01,-2.586631476879119873e-01,-2.764115333557128906e-01,2.633908689022064209e-01,-2.494810223579406738e-01,-2.627959847450256348e-01,3.770497739315032959e-01,-4.051725193858146667e-02,-2.575233578681945801e-01,9.077388668477740646e-15,-4.585175961256027222e-02,-1.811880320310592651e-01,-2.550243437290191650e-01,-1.730264186322692105e-14,2.578057646751403809e-01,-3.069467246532440186e-01,-3.019327223300933838e-01,-2.989215552806854248e-01,-3.117684672167449211e-14,-2.202523797750473022e-01,-1.273442953824996948e-01,-3.861608505249023438e-01,-1.887725144624710083e-01,2.942167520523071289e-01,-1.627207696437835693e-01,-3.556174933910369873e-01,-6.365475058555603027e-02,-3.826772272586822510e-01,-1.445958912372589111e-01,-1.411341577768325806e-01,-1.813399940729141235e-01,2.176118046045303345e-01,3.304217457771301270e-01,-2.892421003229672660e-14,-4.644143283367156982e-01,-1.519066989421844482e-01,-2.342088450805503153e-14,-1.280551105737686157e-01,2.029409965271546101e-14,7.658354938030242920e-02,-1.828622967004776001e-01,-3.416843712329864502e-01,4.460797372761102220e-16,-1.936313509941101074e-01,1.388559937477111816e-01,-2.729545831680297852e-01,-2.053874917328357697e-02,-2.553466856479644775e-01,-1.706664115190505981e-01,-3.766912817955017090e-01,3.673429191112518311e-01,2.248661055536532727e-14,-1.978413611650466919e-01,-2.733688950538635254e-01,1.688549507736312322e-14,4.142402485013008118e-02,-2.303558290004730225e-01,-2.086802273988723755e-01,-1.277527958154678345e-01,-1.702927649021148682e-01,-1.357602179050445557e-01,-4.764809831976890564e-02,-3.364725708961486816e-01,3.270965218544006348e-01,-1.789005100727081299e-01,-3.094493970274925232e-02,-2.738602161407470703e-01,8.766363561153411865e-02,-2.318618744611740112e-01,2.543966770172119141e-01,9.014336764812469482e-02,-1.323529332876205444e-01,-2.564258575439453125e-01,-1.236867276020348072e-03,-2.905637919902801514e-01,2.807386517524719238e-01,-3.789764642715454102e-01,-1.777744144201278687e-01,-1.943433731794357300e-01,-3.556582925303558573e-14,-1.207448244094848633e-01,2.075078254842530057e-16,-1.687353551387786865e-01,-3.356309533119201660e-01,1.945065855979919434e-01,-1.478690654039382935e-01,2.966212332248687744e-01,-1.916677355766296387e-01,1.214681491255760193e-01,7.197622954845428467e-02,-2.307750135660171509e-01,-1.921364217996597290e-01,1.183348745107650757e-01,-1.188256889581680298e-01,1.857072133603417802e-14,-2.562509775161743164e-01,1.584432423114776611e-01,-1.401925981044769287e-01,-1.540109664201736450e-01,5.034307837486267090e-01,-5.725952210208079540e-14,-3.197311758995056152e-01,8.556186407804489136e-02,5.457502603530883789e-01,-3.313826024532318115e-01,-2.014344483613967896e-01,-1.906386166810989380e-01,-2.044369131326675415e-01,3.849511742591857910e-01,-8.653593063354492188e-02,-3.281196653842926025e-01,6.310901045799255371e-01,-3.785726055502891541e-02,2.495537278343271104e-14,-1.924262940883636475e-01,-3.063144981861114502e-01,-1.880740523338317871e-01,-2.950246036052703857e-01,2.310527325564450118e-14,1.283837407827377319e-01,7.451414905565965918e-15,1.631285548210144043e-01,-2.139475494623184204e-01,-4.606745764613151550e-02,-2.134395539760589600e-01,-5.381375551223754883e-02,-1.286506205797195435e-01,2.280990034341812134e-01,-3.951220318813841725e-14,8.782471716403961182e-02,-2.244780659675598145e-01,-1.457331031560897827e-01,4.007554352283477783e-01,-4.064948111772537231e-02,-1.241545453667640686e-01,-1.063330024480819702e-01,2.920912504196166992e-01,-4.179612696170806885e-01,-5.563739979798018598e-14,2.148884683847427368e-01,3.651737570762634277e-01,1.188153326511383057e-01,-3.811907395720481873e-02,5.586539208889007568e-02,-1.887328922748565674e-01,-2.081683278083801270e-01,-2.184071242809295654e-01,1.828526407480239868e-01,3.243106195920109069e-14,-3.242729604244232178e-02,-2.499016672372817993e-01,1.250731348991394043e-01,3.144403174519538879e-02,2.170447558164596558e-01,-1.314389556646347046e-01,-1.374402642250061035e-01,1.606532186269760132e-01,-4.197290167212486267e-03,-5.866304039955139160e-02,-3.098657727241516113e-01,3.991881906986236572e-01,3.925207853317260742e-01,-3.042818307876586914e-01,-1.619209051132202148e-01,-1.782096028327941895e-01,-8.685991168022155762e-02,-9.944553894822381196e-15,-2.798121571540832520e-01,-9.161331504583358765e-02,-8.100435137748718262e-02,-1.350415498018264771e-01,-1.432506442070007324e-01,-1.344004422426223755e-01,-1.176711097359657288e-01,-2.077610641717910767e-01,-1.454057693481445312e-01,1.659597605466842651e-01,-1.926907967225461454e-14,2.514416277408599854e-01,-2.232043445110321045e-01,-1.145390477342439484e-14,-1.022642552852630615e-01,-3.018944263458251953e-01,-2.347624748945236206e-01,-1.881670504808425903e-01,1.785990893840789795e-01,-1.294968277215957642e-01,-2.033845186233520508e-01,-3.608064055442810059e-01,-2.557579874992370605e-01,1.688395999372005463e-02,1.960920691490173340e-01,-1.378481835126876831e-01,-1.885516643524169922e-01,-1.129551827907562256e-01,-2.322807759046554565e-01,6.488709896802902222e-02,-2.943265438079833984e-01,3.297123858658768114e-14,-1.266794651746749878e-01,3.617220818996429443e-01,-8.769193664193153381e-03,1.304436326026916504e-01,2.969611585140228271e-01,-3.788226107586875613e-14,5.868492648005485535e-02,-2.634231746196746826e-02,1.416675001382827759e-01,-1.464321166276931763e-01,1.730451434850692749e-01,-1.057295724749565125e-01,1.063950285315513611e-01,-1.474281847476959229e-01,-8.150870352983474731e-02,-1.914666444063186646e-01,1.775516867637634277e-01,3.903048336505889893e-01,-1.593778729438781738e-01,7.961908727884292603e-02,-5.477947369217872620e-02,-1.064644381403923035e-01,7.006731078586930783e-15,1.895339041948318481e-01,-1.167833879590034485e-01,-1.818719953298568726e-01,-2.354672551155090332e-01,-1.965005248785018921e-01,-1.204589307308197021e-01,-1.418367475271224976e-01,-5.483448132872581482e-02,8.504851162433624268e-02,-7.758751511573791504e-02,3.683413863182067871e-01,-9.275949001312255859e-02,-7.650133222341537476e-02,-1.223940178751945496e-01,3.815729022026062012e-01,1.750626415014266968e-01,-7.734270393848419189e-02,7.344606798142194748e-03,-1.975030601024627686e-01,-1.010285317897796631e-01,1.271031051874160767e-01,1.845612823963165283e-01,1.334474831819534302e-01,-2.985821366310119629e-01,2.850063741207122803e-01,-1.654912382364273071e-01,-5.342403426766395569e-02,-1.848256289958953857e-01,-7.339730858802795410e-02,-1.226146370172500610e-01,4.891626536846160889e-01,-1.994103342294692993e-01,-6.475721299648284912e-02,-1.549902558326721191e-01,-1.907449066638946533e-01,-1.330118775367736816e-01,2.700945138931274414e-01,-1.068648993968963623e-01,1.429761946201324463e-01,3.270694911479949951e-01,2.466691881418228149e-01,-7.132734358310699463e-02,4.374920725822448730e-01,1.210164576768875122e-01,-8.502081781625747681e-02,-2.038399875164031982e-01,3.312780559062957764e-01,1.509547233581542969e-01,-4.468467459082603455e-02,-2.836067378520965576e-01,-6.912393122911453247e-02,-2.279362272929533195e-14,1.399862468242645264e-01,1.542248874902725220e-01,-1.462077200412750244e-01,1.098196431994438171e-01,-1.956153812608489584e-14,3.646578788757324219e-01,-1.351342946290969849e-01,-8.776824921369552612e-02,2.891941368579864502e-01,-1.583067327737808228e-02,5.252810120582580566e-01,-1.975908875465393066e-01,1.107870042324066162e-01,-4.723675921559333801e-02,-3.337549045681953430e-02,2.030786126852035522e-01,-8.152665942907333374e-02,-5.521986484527587891e-01,-1.736892908811569214e-01,3.980843126773834229e-01,-1.628423482179641724e-01,-1.705024540424346924e-01,-1.325799524784088135e-01,-2.817451655864715576e-01,-2.536861896514892578e-01,-1.513227820396423340e-01,-9.526560455560684204e-02,-5.045600235462188721e-02,-2.203274518251419067e-01,-6.280849874019622803e-02,7.866521365940570831e-03,2.639296352863311768e-01,-1.507037691771984100e-02,-1.433693766593933105e-01,7.879388332366943359e-02,2.351086990023953938e-14,-1.460066884756088257e-01,-2.585632167756557465e-02,-7.371119570298047263e-15,-1.481829434633255005e-01,-1.572592705488204956e-01,3.353025019168853760e-01,-1.207034570628292072e-14,-1.436456292867660522e-01,-9.753979742527008057e-02,-2.690053582191467285e-01,-1.940512657165527344e-01,-5.998937040567398071e-02,-1.905933171510696411e-01,2.812580168247222900e-01,-8.501583294230792565e-15,-1.129789724946022034e-01,4.576359689235687256e-01,2.292459160089492798e-01,-1.474031209945678711e-01,-1.701800078153610229e-01,5.498163027834769567e-14,-3.343856427818536758e-03,-1.765832751989364624e-01,-1.783679276704788208e-01,3.570137023925781250e-01,-2.521836757659912109e-01,2.654867768287658691e-01,-2.061054557561874390e-01,2.744010090827941895e-01,-7.628225535154342651e-02,-1.062375009059906006e-01,1.879872381687164307e-01,-1.263767033815383911e-01,-9.828675538301467896e-03,2.515116930007934570e-01,-1.084847152233123779e-01,-2.358108013868331909e-01,-8.201422542333602905e-02,-1.302863806486129761e-01,-1.015210971236228943e-01,-1.147615984082221985e-01,-1.420483142137527466e-01,8.551287651062011719e-02,-9.581470489501953125e-02,1.524904944612444357e-15,9.366908669471740723e-02,7.626194506883621216e-02,-1.391720324754714966e-01,-2.634041011333465576e-01,2.009610980749130249e-01,-5.635787174105644226e-02,-2.072262763977050781e-01,-1.363517194986343384e-01,-9.099309891462326050e-02,-1.682519316673278809e-01,-1.867712736129760742e-01,-1.685711890459060669e-01,-1.679210066795349121e-01,-8.195191621780395508e-02,-2.032683938741683960e-01,6.623319536447525024e-02,5.879431217908859253e-02,-1.218605861067771912e-01,-2.519347704946994781e-02,-2.782732620835304260e-02,-5.417225882411003113e-02,-8.952131122350692749e-02,2.996419370174407959e-01,-2.529852390289306641e-01,-1.166495904326438904e-01,-3.388146311044692993e-02,-5.848101340234279633e-03,-1.136416792869567871e-01,3.578867614269256592e-01,-1.721616089344024658e-01,1.150699679855829438e-14,-8.974643051624298096e-02,-2.100574970245361328e-01,3.174124510322076653e-14,-9.184564650058746338e-02,-5.751733481884002686e-02,5.614434480667114258e-01,-1.429068893194198608e-01,-1.404745578765869141e-01,-6.364782154560089111e-02,-9.080334566533565521e-04,1.630029082298278809e-01,2.119186520576477051e-01,-1.572736501693725586e-01,-2.279700189828872681e-01,2.168377935886383057e-01,-1.216903179883956909e-01,1.766932904720306396e-01,-1.889239251613616943e-02,5.219739079475402832e-01,-2.474336773157119751e-01,-1.558938771486282349e-01,-1.211301535367965698e-01,3.051148494705557823e-03,-3.397724945364624660e-14,-5.833807287074221914e-14,-8.592405170202255249e-02,-9.104065597057342529e-02,4.216639101505279541e-01,-8.540382981300354004e-02,-7.127487659454345703e-02,-3.987266868352890015e-02,2.439605742692947388e-01,-1.891400963068008423e-01,4.099260866641998291e-01,6.517742294818162918e-03,-1.750336438417434692e-01,-7.242926955223083496e-02,-1.042385473847389221e-01,-2.284361273050308228e-01,1.354676634073257446e-01,-6.796381622552871704e-02,-5.017006024718284607e-02,-5.507754907011985779e-02,4.781080484390258789e-01,-9.864048659801483154e-02,-8.014878630638122559e-02,-1.298581361770629883e-01,-9.570804983377456665e-02,-9.044502675533294678e-02,-8.404478430747985840e-02,7.388747483491897583e-02,-2.147781848907470703e-02,-7.289607822895050049e-02,-2.341927215456962585e-02,-2.395272850990295410e-01,-1.434667110443115234e-01,-1.651263684034347534e-01,-4.878887161612510681e-02,-5.341767892241477966e-02,-1.463344991207122803e-01,7.858009354972869676e-16,-7.281108945608139038e-02,-2.049186378717422485e-01,-1.450541019439697266e-01,-1.109450310468673706e-01,-3.345380350947380066e-02,-9.468761831521987915e-02,1.405294066877949000e-14,-2.680124528706073761e-02,-7.383827120065689087e-02,-6.823115795850753784e-02,-9.614430367946624756e-02,8.754651248455047607e-02,-2.079150080680847168e-01,-1.063044890761375427e-01,-1.066428273916244507e-01,3.138060896746598660e-14,-1.710947006940841675e-01,-1.881917119026184082e-01,-2.044022977352142334e-01,-4.699471592903137207e-02,-7.892355322837829590e-02,-2.190960496664047241e-01,-2.598096728324890137e-01,4.007107913494110107e-01,1.045228987932205200e-01,4.086110740900039673e-03,4.321782886981964111e-01,4.956450778990983963e-03,-9.123280644416809082e-02,1.850842982530593872e-01,2.980173528194427490e-01,-3.745141671970486641e-03,3.379399218144188421e-14,-1.369397789239883423e-01,-2.389077246189117432e-01,-1.007052287459373474e-01,4.118335247039794922e-02,6.454522907733917236e-02,-5.643991008400917053e-02,-1.735239923000335693e-01,2.658869624137878418e-01,-1.315596699714660645e-01,-1.740150302648544312e-01,-1.672838032245635986e-01,-9.637954086065292358e-02,-4.850096628069877625e-02,-9.755533188581466675e-02,-1.400601863861083984e-02,-9.100584685802459717e-02,-5.656887963414192200e-02,-1.312493830919265747e-01,-1.120244786143302917e-01,-8.927668631076812744e-02,1.469460688531398773e-02,-7.047668844461441040e-02,7.262700796127319336e-02,3.986244499683380127e-01,6.426233053207397461e-02,-3.867802768945693970e-02,-1.232857853174209595e-01,-1.299865739405690196e-14,-1.464545130729675293e-01,-9.409908950328826904e-02,2.650407329201698303e-02,-2.191992998123168945e-01,-2.442836761474609375e-02,4.703614488244056702e-02,-1.005199833011569469e-14,-1.241969838738441467e-01,-6.174983829259872437e-02,-9.247282892465591431e-02,-4.541209433227777481e-03,-1.916445493698120117e-01,-2.859710529446601868e-02,-1.223584935069084167e-01,4.171561598777770996e-01,-1.373127251863479614e-01,-3.636461123824119568e-02,-1.653225868940353394e-01,-1.635711640119552612e-01,7.993307709693908691e-02,-1.692928075790405273e-01,-7.526311278343200684e-02,-8.373448252677917480e-02,-1.488395780324935913e-01,3.235178589820861816e-01,3.949594795703887939e-01,-2.370937168598175049e-01,-6.811314076185226440e-02,-7.648754119873046875e-02,-5.413489043712615967e-02,3.555009961128234863e-01,-4.187476262450218201e-02,-2.031668424606323242e-01,-2.767700552940368652e-01,-2.513713538646697998e-01,-1.102446392178535461e-01,-9.535647928714752197e-02,3.395384252071380615e-01,-9.465951472520828247e-02,-4.089910164475440979e-02,-1.737718433141708374e-01,-7.631045579910278320e-02,-1.021176576614379883e-01,-4.672634601593017578e-02,-1.045583933591842651e-01,-1.196271032094955444e-01,-2.073798626661300659e-01,-1.056213602423667908e-01,-1.252168565988540649e-01,2.973443269729614258e-01,-1.773199439048767090e-01,-3.376431390643119812e-02,-4.912925139069557190e-02,-1.298527121543884277e-01,2.945678199788286794e-15,-6.959988921880722046e-02,-1.492915153503417969e-01,-4.870674759149551392e-02,-9.012677520513534546e-02,-9.953974187374114990e-02,-1.108194887638092041e-01,4.314567148685455322e-01,-1.684531718492507935e-01,3.570823669433593750e-01,2.785292565822601318e-01,-5.136818433722906141e-14,-3.864068910479545593e-02,-1.839672587811946869e-02,-1.318940371274948120e-01,1.728941500186920166e-01,-9.012583643198013306e-02,-8.985083253050703267e-15,-1.400061249732971191e-01,-4.022254422307014465e-02,2.180954813957214355e-01,-7.097749412059783936e-02,4.556013345718383789e-01,-9.523240476846694946e-02,2.166066467761993408e-01,2.171168625354766846e-01,-8.508213609457015991e-02,-8.726713061332702637e-02,-4.580222815275192261e-02,-6.856244802474975586e-02,-1.976860314607620239e-02,-1.877513714134693146e-02,-8.394625037908554077e-02,-3.535430431365966797e-01,-9.134427458047866821e-02,1.254163533449172974e-01,-1.199329048395156860e-01,-1.050945445895195007e-01,-9.156798571348190308e-02,4.335141479969024658e-01,2.324367165565490723e-01,-1.088751256465911865e-01,-2.415484338998794556e-01,-1.069952026009559631e-01,-1.900876313447952271e-01,1.443212181329727173e-01,-1.301207691431045532e-01,-1.192682087421417236e-01,-4.011122975498437881e-03,-6.932248920202255249e-02,-2.027639895677566528e-01,5.816755443811416626e-02,-8.780004084110260010e-02,-2.525079250335693359e-01,-1.104579195380210876e-01,4.812463223934173584e-01,4.696531891822814941e-01,-6.866201758384704590e-02,-1.510962104674280770e-14,-2.029084414243698120e-01,-1.567313075065612793e-01,2.785406013640617101e-14,-1.216553673148155212e-01,-7.307400554418563843e-02,-1.449203044176101685e-01,-1.814293712377548218e-01,2.898082137107849121e-01,-8.350029587745666504e-02,-1.041295081377029419e-01,-2.176050692796707153e-01,-1.691334247589111328e-01,-1.324808150529861450e-01,6.530392169952392578e-02,-1.642755120992660522e-01,-1.009268909692764282e-01,-7.132790982723236084e-02,-1.607817225158214569e-02,-4.730029031634330750e-02,2.195024043321609497e-01,-1.346992999315261841e-01,1.819566869951712990e-14,1.799874539774176663e-14,1.789500713348388672e-01,5.219314694404602051e-01,4.095559137597300225e-14,4.053456187248229980e-01,1.957499533891677856e-01,-4.501619278621075970e-15,-5.499619245529174805e-02,2.717765181198088242e-14,3.882773816585540771e-01,-7.423533499240875244e-02,2.894861400127410889e-01,-1.599356979131698608e-01,4.956289529800415039e-01,-8.703341335058212280e-02,-2.437750808894634247e-02,1.312429308891296387e-01,-1.652975380420684814e-01,3.119545280933380127e-01,-9.646152704954147339e-02,-1.353362053632736206e-01,-2.016029134392738342e-02,3.027876317501068115e-01,-8.709716796875000000e-02,-4.431330785155296326e-02,-1.043201889842748642e-03,2.855161428451538086e-01,-7.044872269034385681e-03,4.076408743858337402e-01,-1.831623613834381104e-01,-1.734208166599273682e-01,-4.963661357760429382e-02,-1.844639144837856293e-02,8.299552835524082184e-03,-1.397326290607452393e-01,-8.104049414396286011e-02,-8.057966083288192749e-02,1.500679701566696167e-01,-4.962673038244247437e-02,-1.239452417939901352e-02,2.771573141217231750e-02,-2.467492036521434784e-02,-7.275286316871643066e-02,-3.571908921003341675e-02,-1.484044045209884644e-01,3.825798928737640381e-01,2.582936509533222125e-14,4.691961812022631129e-14,1.066327691078186035e-01,-2.138417027890682220e-02,-6.542059034109115601e-02,3.360215723514556885e-01,-5.500462651252746582e-02,-8.811392635107040405e-02,-3.910882398486137390e-02,1.621562242507934570e-02,-4.561412706971168518e-02,5.522817969322204590e-01,-5.088565871119499207e-02,1.438689865482754848e-14,-7.051069289445877075e-02,-7.460483908653259277e-02,-6.765011698007583618e-02,-6.745699048042297363e-02,-2.489649457857012749e-03,5.658589601516723633e-01,3.879379928112030029e-01,-2.663540095090866089e-02,-5.015748739242553711e-02,-2.778034657239913940e-02,-5.556974187493324280e-02,3.054259121417999268e-01,1.225957274436950684e-02,2.234273850917816162e-01,-4.166194424033164978e-02,1.220015265841669500e-14,3.666338405290160696e-14,-1.126428470015525818e-01,-1.843499243259429932e-01,-4.911055043339729309e-02,-9.094262123107910156e-02,-1.707730293273925781e-01,-1.534756124019622803e-01,-2.636825144290924072e-01,-3.552572801709175110e-02,-7.381740957498550415e-02,-9.746419638395309448e-02,-1.652320325374603271e-01,-9.135061502456665039e-02,-8.055367320775985718e-02,-1.177525073289871216e-01,-9.594622254371643066e-02,-1.201490834355354309e-01,-4.899162054061889648e-02,-2.291640862532931533e-14,-8.681491017341613770e-02,-4.572758823633193970e-02,-2.394589036703109741e-02,-1.963390111923217773e-01,-9.365326166152954102e-02,-2.789954543113708496e-01,1.271422654390335083e-01,-1.284390091896057129e-01,-1.611214131116867065e-01,9.878649649328313104e-15,6.460850107817056251e-15,4.569330066442489624e-02,1.501273661851882935e-01,-3.994252160191535950e-02,-9.932733327150344849e-02,-2.206620387732982635e-02,-1.224555373191833496e-01,-6.100075319409370422e-02,1.531917601823806763e-01,-1.404592130674559361e-14,-1.208956837654113770e-01,-1.498866826295852661e-01,2.033436000347137451e-01,-4.181730374693870544e-02,6.343591958284378052e-02,-3.331879973411560059e-01,-1.039365306496620178e-03,-5.725727230310440063e-02,-2.721696430512884901e-15,-7.556363940238952637e-02,-8.335202932357788086e-02,-7.372128963470458984e-02,-2.683160640299320221e-02,-2.199298143386840820e-01,-4.388507455587387085e-02,-8.298405259847640991e-02,-1.133304759860038757e-01,-3.919128775596618652e-01,-4.516400396823883057e-02,7.976749821650766514e-15,-8.347920328378677368e-02,-1.648134738206863403e-01,2.833173573017120361e-01,-5.749727040529251099e-02,-2.535825595259666443e-02,-1.166658289730548859e-02,3.529088235835683984e-14,-7.288555055856704712e-02,-3.917631208896636963e-01,-9.656859189271926880e-02,-2.004083991050720215e-01,-3.646206483244895935e-02,-4.953685775399208069e-02,-5.681945383548736572e-02,-6.354169454425573349e-03,-5.837423261255025864e-03,-1.031236970447935164e-04,-1.882838644087314606e-02,-4.508379846811294556e-02,-3.707795590162277222e-02,3.367778603734217224e-14,-1.027362234890460968e-02,-1.609076261520385742e-01,1.098363548517227173e-01,-1.323626041412353516e-01,-3.545829281210899353e-02,4.825705095668885586e-15,-1.289182901382446289e-01,-1.987457871437072754e-01,-6.140443682670593262e-02,-3.147637451248255780e-14,-3.291922435164451599e-02,-3.767424076795578003e-02,-2.442308542091684714e-14,-8.013410121202468872e-02,-4.432979598641395569e-02,-1.151712909340858459e-01,1.222840622067451477e-01,-2.489760965108871460e-01,-1.225213035941123962e-01,-2.256298065185546875e-01,-5.810525640845298767e-02,9.700901061296463013e-02,2.423636466264724731e-01,-1.289814617484807968e-02,-1.274247653782367706e-02,-6.779823452234268188e-02,-6.151391279218907521e-15,-9.911043196916580200e-02,-6.825409829616546631e-02,-2.011489272117614746e-01,-1.043156459927558899e-01,-4.306868836283683777e-02,-7.137952744960784912e-02,-2.280119433999061584e-02,5.722280591726303101e-03,3.442194759845733643e-01,-1.195414662361145020e-01,-6.823813170194625854e-02,-4.159054532647132874e-02,-8.462288416922092438e-03,-4.881226271390914917e-02,-1.137846615165472031e-02,-1.277233809232711792e-01,-6.112022325396537781e-02,-1.156331077218055725e-01,-7.928350567817687988e-02,-3.874696791172027588e-02,-2.141550369560718536e-02,-3.333383645064830203e-14,-1.045760437846183777e-01,-1.136454045772552490e-01,4.652624726295471191e-01,-8.152329176664352417e-02,-6.694372743368148804e-02,-1.558354645967483521e-01,3.307619094848632812e-01,-4.259295761585235596e-03,3.782711178064346313e-02,8.314851492876793038e-15,-9.040673822164535522e-02,-9.444795432500541210e-04,-1.685225963592529297e-02,1.087471042035548230e-14,-2.220142073929309845e-02,2.929437160491943359e-01,-3.983877971768379211e-02,-1.319132447242736816e-01,-1.808289587497711182e-01,-1.170877441763877869e-01,-8.783402293920516968e-02,-3.764996528625488281e-01,-6.427715718746185303e-02,-1.173129454255104065e-01,-1.646928191184997559e-01,-4.329719394445419312e-02,-4.777897894382476807e-02,2.364393770694732666e-01,-1.347049921751022339e-01,-6.716527789831161499e-02,-4.864371195435523987e-02,-6.559681147336959839e-02,-9.557130187749862671e-02,-4.344006255269050598e-02,1.333340406417846680e-01,-4.502740502357482910e-02,-2.218356542289257050e-02,3.424665331840515137e-01,1.195767372846603394e-01,3.628243207931518555e-01,-3.700536174689426916e-14,-1.508757919073104858e-01,-2.728079445660114288e-02,-1.543592863121126535e-14,-4.250644147396087646e-02,2.868495710601527693e-14,-1.093918690457940102e-04,-9.909196943044662476e-02,1.524997271203695076e-14,-2.713380567729473114e-02,-2.810096368193626404e-02,-3.539380431175231934e-02,-4.288099240511655807e-03,-5.173232406377792358e-02,-6.570075452327728271e-02,-4.039046913385391235e-02,-6.173073500394821167e-02,1.292842030525207520e-01,-3.343266667798161507e-03,-4.047695547342300415e-02,-6.526458263397216797e-02,-5.677601322531700134e-03,-2.931176871061325073e-02,-9.931822866201400757e-02,-8.900851756334304810e-02,2.638559229671955109e-02,-3.325145691633224487e-03,-3.952426463365554810e-02,-1.694567352533340454e-01,-6.780380010604858398e-02,-4.873559251427650452e-02,1.139697581529617310e-01,-1.288432907313108444e-02,-6.189551576972007751e-02,-5.482861208236031181e-16,-1.511381047169992747e-14,-1.416883021593093872e-01,-9.845262765884399414e-02,-9.078095108270645142e-02,-1.721478067338466644e-03,1.517301638064710856e-14,1.068605929613113403e-01,-2.426920831203460693e-01,-1.143831238150596619e-01,6.758763877344128868e-15,-1.306278109550476074e-01,-2.235779725015163422e-02,-1.002657972276210785e-02,-1.035716310143470764e-01,-6.675668805837631226e-02,-1.144739091396331787e-01,-1.411151587963104248e-01,-8.085823617875576019e-03,-1.251015961170196533e-01,-2.774724271148443222e-03,-8.336334489285945892e-03,-6.791581213474273682e-02,-5.253650620579719543e-02,-3.289434313774108887e-02,1.408244452039825179e-14,-1.905348617583513260e-03,2.403980493545532227e-01,-4.898402839899063110e-02,-4.220666363835334778e-02,-8.431024104356765747e-02,-4.928165674209594727e-02,-9.398057311773300171e-02,-1.051407679915428162e-01,-1.781818829476833344e-02,-1.221455335617065430e-01,-7.579812407493591309e-02,-9.873731434345245361e-02,-1.058308631181716919e-01,-2.798584401607513428e-01,-6.669551879167556763e-02,-1.586581915616989136e-01,-8.091686759144067764e-04,-2.462180405855178833e-01,-4.980699345469474792e-02,-4.605101421475410461e-02,-1.432474553585052490e-01,-4.804575815796852112e-02,-5.972604826092720032e-02,8.054906129837036133e-02,-3.249769285321235657e-02,-1.356086196026978774e-14,-2.482420295528680459e-14,-1.026669815182685852e-01,-2.676873803138732910e-01,-4.381603747606277466e-02,5.250793099403381348e-01,-2.810761146247386932e-02,-1.003209725022315979e-01,1.533551118124837354e-14,-7.302525639533996582e-02,-1.196360364556312561e-01,2.126320749521255493e-01,-1.295317709445953369e-01,-4.241270199418067932e-02,1.675127084840941777e-15,-1.184504628181457520e-01,-7.488789409399032593e-02,-4.445010796189308167e-02,2.010573815997094421e-14,-1.551641710102558136e-02,-7.930097170174121857e-03,-2.378828525543212891e-01,-7.683325093239545822e-03,-7.132831215858459473e-02,5.050301551818847656e-01,-4.008161276578903198e-02,2.150605618953704834e-01,-1.484667649492621422e-03,-1.156123504042625427e-01,1.427454054355621338e-01,-1.166659668087959290e-01,-9.836629778146743774e-02,4.431307613849639893e-01,-3.267605099260134649e-14,1.421972513198852539e-01,2.232776985489851734e-14,6.286066976733499512e-15,-4.487625882029533386e-02,-5.082400515675544739e-02,-8.244200050830841064e-02,-4.042807593941688538e-02,1.920996159315109253e-01,5.436156988143920898e-01,-6.655701249837875366e-02,-2.278968458995223045e-03,1.614347249269485474e-01,4.090614616870880127e-01,-2.309922873973846436e-02,-3.020521439611911774e-02,-9.205715358257293701e-02,-5.451531708240509033e-02,-4.402838274836540222e-02,-1.073305681347846985e-01,-4.470053687691688538e-02,1.684897392988204956e-01,-7.116959244012832642e-02,2.476403266191482544e-01,-3.083924390375614166e-02,-2.045917510986328125e-01,-5.128416791558265686e-02,-6.612054258584976196e-02,-2.473045587539672852e-01,-3.162459284067153931e-02,-4.500761628150939941e-02,-2.959714084863662720e-02,-1.203766763210296631e-01,1.641859865837529131e-14,-8.637818694114685059e-02,-4.470733925700187683e-03,-6.172683089971542358e-02,-7.909075915813446045e-02,-2.705413382500410080e-03,-1.865748502314090729e-02,4.147872328758239746e-01,-4.268641769886016846e-02,4.255141615867614746e-01,-5.838345363736152649e-02,-1.065888181328773499e-01,-4.721023887395858765e-02,9.595499187707901001e-02,-8.740358054637908936e-02,-7.542268931865692139e-02,-8.100767433643341064e-02,-2.560808882117271423e-02,-3.963990882039070129e-02,-5.290231481194496155e-02,-8.790472894906997681e-02,-1.935237795114517212e-01,-5.776491761207580566e-02,-1.275468988239103485e-15,-3.363187657669186592e-03,-1.164714619517326355e-01,-6.827220320701599121e-02,-4.307685325523162578e-14,-7.182420045137405396e-02,-6.165478006005287170e-02,1.958322711288928986e-02,-5.154579505324363708e-02,2.261254489421844482e-01,-1.453296989202499390e-01,-3.894293308258056641e-02,-3.493522480130195618e-02,-6.908756494522094727e-02,-1.184880957007408142e-01,-5.465092882513999939e-02,-1.226064655929803848e-02,-5.022773146629333496e-02,4.882425069808959961e-01,-3.528482047840952873e-03,-4.803502187132835388e-02,-4.251870140433311462e-02,-4.710799083113670349e-02,1.823227256536483765e-01,-2.912156097590923309e-02,-4.706328362226486206e-02,3.438065052032470703e-01,4.393207132816314697e-01,-3.182151168584823608e-02,-1.216477453708648682e-01,-1.317586302757263184e-01,-9.411734342575073242e-02,-9.513770043849945068e-02,-9.938269853591918945e-03,1.114097237586975098e-01,1.693516000719243186e-14,-1.775415688753128052e-01,5.452018696814775467e-03,2.991275191307067871e-01,-1.022659614682197571e-02,3.531973659992218018e-01,-9.039627760648727417e-02,1.083638556762401423e-14,-2.113785827532410622e-03,-3.654054671642370522e-05,-1.483235955238342285e-01,2.916360497474670410e-01,3.480568230152130127e-01,-6.444374565035104752e-03,-9.178985841572284698e-03,-4.157739877700805664e-02,-4.354294389486312866e-02,-3.793997790089466415e-14,3.752441108226776123e-01,3.381234109401702881e-01,-1.824371144175529480e-02,4.419773519039154053e-01,-8.614846592536196113e-05,-8.487916737794876099e-02,-4.677513986825942993e-02,-1.074470132589340210e-01,-6.722907721996307373e-02,-5.530936643481254578e-02,-1.311113126575946808e-02,-1.417365521192550659e-01,-1.122802197933197021e-01,5.622017383575439453e-01,-7.095181941986083984e-02,-1.848492212593555450e-02,-8.082684129476547241e-03,2.490731626749038696e-01,-5.889530852437019348e-02,-6.173885613679885864e-02,-7.925375550985336304e-02,-7.557898759841918945e-02,-3.506210446357727051e-02,-5.107615143060684204e-03,-1.197530189529061317e-03,-1.146969124674797058e-01,-3.296137973666191101e-02,-1.116106286644935608e-01,-2.213259821725807597e-15,2.474782317876815796e-01,4.946246743202209473e-01,-3.158183023333549500e-02,-2.496203035116195679e-01,-1.099079996347427368e-01,-3.326554596424102783e-01,-1.175836287438869476e-02,1.418391466140747070e-01,-1.000527888536453247e-01,-1.409654915332794189e-01,-1.438398566097021103e-02,-1.504845172166824341e-01,9.692809544503688812e-03,-6.801429390907287598e-02,-6.711722165346145630e-02,-4.914487153291702271e-02,-3.251059725880622864e-02,5.847688463013825388e-15,-9.336785227060317993e-02,-4.984404891729354858e-02,-2.801038790494203568e-03,-5.331859737634658813e-02,-7.770317047834396362e-02,-2.157934977731201798e-05,-1.507204327707081792e-14,-6.792505830526351929e-02,-2.977411448955535889e-02,-1.707769334316253662e-01,-5.052718147635459900e-02,-4.455413669347763062e-02,-4.737075045704841614e-02,-1.120743155479431152e-02,-3.178007155656814575e-02,-1.258076727390289307e-01,-1.104498356580734253e-01,-6.760921329259872437e-02,-3.940980136394500732e-02,-1.089695990085601807e-01,3.548588967160551388e-14,-9.851734340190887451e-02,-6.461039185523986816e-02,4.335030615329742432e-01,-5.618979223072528839e-03,-1.522441357374191284e-01,-1.617095470428466797e-01,3.814264833927154541e-01,-1.933167502284049988e-02,-1.046329513192176819e-01,-2.612503990530967712e-02,-5.295766144990921021e-02,-3.669156653312265204e-14,-3.161670754305186126e-15,3.099431991577148438e-01,7.695477455854415894e-02,-1.026576035656034946e-03,-5.469843745231628418e-02,-1.674754470586776733e-01,-6.618273258209228516e-02,-1.516757756471633911e-01,-5.022538825869560242e-02,3.535463288426399231e-02,-3.432721975052920038e-14,3.449376225471496582e-01,-1.004217416048049927e-01,1.147516816854476929e-01,-1.588166132569313049e-02,-8.044157177209854126e-02,-7.014772295951843262e-02,-1.686826348304748535e-02,-2.015074342489242554e-02,1.622120440006256104e-01,-5.016223713755607605e-02,-2.329706912860274315e-03,-1.673159748315811157e-02,-2.096980155166273951e-14,-3.303014859557151794e-02,-2.841680496931076050e-02,-3.461539052358048041e-15,1.467971205711364746e-01,-4.554940387606620789e-03,-3.158069011988118291e-05,3.608589470386505127e-01,-9.676459012553095818e-05,-5.725897476077079773e-02,-1.235786243341863155e-03,-8.738664537668228149e-02,-9.822580963373184204e-02,-5.705727729946374893e-03,6.194438040256500244e-02,-8.067868649959564209e-02,-7.089650724083185196e-03,-6.444002687931060791e-02,-5.550205335021018982e-02,-1.629621401662006974e-04,4.482985734939575195e-01,-2.838939614593982697e-02,-5.000017955899238586e-02,-1.014804653823375702e-02,-1.460004877299070358e-02,-6.025182828307151794e-02,-1.466453447937965393e-02,4.267078042030334473e-01,-4.953455924987792969e-02,-6.284943781793117523e-03,-1.358648546556651127e-06,-2.203587628901004791e-02,-6.191682815551757812e-02,-1.916886772960424423e-03,2.206798046827316284e-01,3.930342197418212891e-01,-2.008478716015815735e-02,1.451212614774703979e-01,1.154890290659075364e-14,1.322412192821502686e-01,3.780153883599542131e-15,-9.519485174678266048e-04,-6.073230504989624023e-02,3.374820351600646973e-01,-5.576447024941444397e-02,-1.781636476516723633e-02,-1.139914616942405701e-01,2.501846551895141602e-01,-6.721570389345288277e-04,-8.013049140572547913e-03,5.549289584159851074e-01,-5.354619026184082031e-02,-1.226287218742072582e-03,-7.089620083570480347e-02,-3.954771533608436584e-02,-5.684951320290565491e-02,-1.562393619678914547e-03,-9.797163307666778564e-02,-4.888855386525392532e-03,-7.210260629653930664e-02,-2.474392391741275787e-02,-9.544284641742706299e-02,-5.188631825149059296e-03,-1.707195043563842773e-01,-7.115626067388802767e-05,-3.911265358328819275e-02,-7.806041091680526733e-02,-9.792935103178024292e-02,-4.491939395666122437e-02,-6.896500126458704472e-04,-4.749320819973945618e-02,-4.937089513987302780e-03,-8.985117077827453613e-02,-4.955657944083213806e-02,-3.996755549451336265e-05,-4.915700107812881470e-02,-4.645356163382530212e-02,-1.983284577727317810e-02,-2.075412339763715863e-04,-3.821796854026615620e-04,5.512054562568664551e-01,-1.490431278944015503e-02,-8.760555088520050049e-02,-4.763041809201240540e-02,-3.802175074815750122e-02,-1.015637516975402832e-01,9.256074577569961548e-02,-5.115882679820060730e-02,1.377596408128738403e-01,-5.428607575595378876e-03,-1.676041483879089355e-01,-1.221667509526014328e-02,-1.169013828039169312e-01,-4.675994161516427994e-03,1.378088146448135376e-01,-2.043681219220161438e-02,-3.500483557581901550e-02,4.019805592992559129e-14,-8.490488678216934204e-02,-2.145099826157093048e-02,-9.193574637174606323e-02,-4.810455441474914551e-02,-2.360193780053063822e-14,-2.395172044634819031e-02,4.049612879753112793e-01,4.881620407104492188e-01,-1.519671175628900528e-02,-5.432964861392974854e-02,-7.688906043767929077e-02,-1.467237161705270410e-04,-5.683270469307899475e-02,-5.608423613011837006e-03,-1.550085260532796383e-03,-5.912115052342414856e-02,-3.030282096005976200e-05,-1.223455555737018585e-02,-7.726574689149856567e-02,-1.023704707622528076e-01,-1.983811855316162109e-01,9.503496438264846802e-02,-1.478149276226758957e-02,-5.532739683985710144e-02,-3.950726240873336792e-02,-9.239552170038223267e-02,2.515424489974975586e-01,-8.899014443159103394e-02,-5.232290923595428467e-02,-1.052636094391345978e-02,-5.941332876682281494e-02,5.441923089455694140e-14,-6.256718734221067280e-07,-4.207747802138328552e-02,-9.090802450373303145e-06,-4.725825041532516479e-02,-1.397929489612579346e-01,-9.643658995628356934e-02,-5.506511777639389038e-03,-6.474427878856658936e-02,-8.162031322717666626e-02,-2.331768395379185677e-03,1.976559513934203482e-14,-8.586823008954524994e-03,-1.429043095413362607e-06,-2.630653232336044312e-02,-3.101391345262527466e-02,-1.073597744107246399e-01,-1.744742393493652344e-01,-4.193922132253646851e-02,-4.620946012437343597e-03,-1.510147005319595337e-02,-9.329094737768173218e-02,4.449037015438079834e-01,-5.949248000979423523e-02,-8.422362804412841797e-02,-8.245466649532318115e-02,-5.794127006083726883e-03,-3.515263553708791733e-03,-9.175902232527732849e-03,-1.293801702558994293e-02,-1.633311063051223755e-02,-8.551439642906188965e-02,-3.760075941681861877e-02,-3.303798660635948181e-02,-1.192285567522048950e-01,-7.705350406467914581e-03,-4.043212905526161194e-02,-8.444079011678695679e-02,-1.845748722553253174e-01,-9.514129161834716797e-02,-8.764743059873580933e-02,-4.542664811015129089e-02,-1.702343928627669811e-03,5.327743664383888245e-02,-2.183531224727630615e-02,-1.564517106089624576e-06,-1.159544661641120911e-01,-1.085516661405563354e-01,-3.854889946524053812e-04,-5.040235072374343872e-02,-2.085425949189811945e-04,-3.697644919157028198e-02,1.629809636316710553e-14,-2.972737699747085571e-02,3.832718133926391602e-01,-1.694406033493578434e-03,-7.791914045810699463e-02,-1.870703138411045074e-02,-1.968655269593000412e-03,-3.501555696129798889e-02,2.361489385366439819e-01,-7.342249155044555664e-02,4.202977484275838282e-14,-3.721886314451694489e-03,-7.627856731414794922e-02,2.021805569529533386e-02,-1.108615249395370483e-01,-1.065024640411138535e-03,-2.916675283454531198e-14,-5.047873780131340027e-02,-4.116308316588401794e-02,1.355929664338326179e-14,-2.245315723121166229e-02,1.310034841299057007e-01,-3.246832266449928284e-02,-6.748798489570617676e-02,-2.210327889770269394e-03,4.988985657691955566e-01,-4.754089564085006714e-02,-8.979447931051254272e-02,-9.740779548883438110e-02,-7.752109318971633911e-02,-1.642089523375034332e-02,-5.081516504287719727e-02,-2.041932893916964531e-03,5.514807701110839844e-01,-5.255698785185813904e-02,-3.748708632465673485e-15,-1.196468919515609741e-01,-7.797069847583770752e-02,-8.484207093715667725e-03,1.389919317742452018e-14,3.210234344005584717e-01,-5.133705213665962219e-02,-5.393098294734954834e-02,1.319480873644351959e-02,-5.990695208311080933e-02,-2.276211278513073921e-03,-9.396019577980041504e-02,-5.611743777990341187e-02,-1.042187772691249847e-02,-4.317633807659149170e-02,-2.434246540069580078e-01,-3.309060120955109596e-03,-9.205145179294049740e-04,-6.273135077208280563e-04,1.877477765083312988e-01,-1.414052248001098633e-01,-5.404528956526669092e-14,-9.050268272403627634e-05,-5.029399320483207703e-02,-4.252682998776435852e-02,-1.275456398725509644e-01,-1.956793963909149170e-01,-5.389512702822685242e-02,-8.425243198871612549e-02,-3.663740307092666626e-02,-5.053959903307259083e-04,5.130107402801513672e-01,-6.750250607728958130e-02,2.076663285777158308e-08,-9.271541982889175415e-02,3.572762352632707916e-06,1.161537393927574158e-01,-1.041238079778850079e-03,-5.360823124647140503e-02,-9.598719328641891479e-02,-1.596898213028907776e-02,-5.093760415911674500e-02,-5.310317501425743103e-02,-1.839670389890670776e-01,-2.700613913475535810e-05,-6.465406715869903564e-02,-1.037295255810022354e-02,-3.372132405638694763e-02,-1.693739928305149078e-02,-1.772494018077850342e-01,-7.016123272478580475e-03,-3.237236663699150085e-02,-6.913249939680099487e-02,1.074128663753693216e-14,-3.058446198701858521e-02,1.427818685770034790e-01,-5.145039036870002747e-02,-1.076450049877166748e-01,-4.173311963677406311e-02,-3.914071992039680481e-02,1.511198596273154171e-14,2.212113440036773682e-01,-1.584420166909694672e-02,-2.297298982739448547e-02,-2.345631420217278440e-14,-8.201980590820312500e-02,-7.001879159361124039e-03,-4.818829474970698357e-04,-6.384756416082382202e-02,-4.296099608870618258e-14,4.000633358955383301e-01,-3.240918368101119995e-02,-8.539027185179293156e-04,-6.233670865185558796e-05,-2.674011886119842529e-02,1.047538071870803833e-01,-7.910080254077911377e-02,3.272010982036590576e-01,-3.427502512931823730e-02,1.281260978430509567e-02,-7.907518185675144196e-03,-4.982612282037734985e-02,-6.207015394465997815e-05,-4.768436029553413391e-02,-4.354926943778991699e-02,2.047062106430530548e-02,3.200621008872985840e-01,2.070805038556500222e-08,-6.700741127133369446e-03,-2.629739465191960335e-03,-6.635365635156631470e-02,-3.448812291026115417e-02,3.721252906513372594e-16,-2.010673284530639648e-02,-1.045489609241485596e-01,-8.295649895444512367e-04,-8.154428750276565552e-02,-1.341945608146488667e-03,-5.087578319944441319e-04,-4.506502766162157059e-03,-2.461362443864345551e-02,-1.014532614499330521e-02,-7.143705338239669800e-02,1.502209882636891536e-14,-1.493801362812519073e-03,-2.612187340855598450e-02,-9.536077268421649933e-03,-4.393912106752395630e-02,-7.772867320454679430e-06,-1.060688123106956482e-01,-4.909440129995346069e-02,-4.888357128947973251e-03,-3.373047336935997009e-02,-2.425823211669921875e-01,-8.755925111472606659e-03,-8.857357501983642578e-02,-5.038662999868392944e-02,-2.288100868463516235e-02,-8.324285037815570831e-03,-3.274416178464889526e-02,-8.650346100330352783e-02,-2.029828540980815887e-02,-9.424620121717453003e-02,-5.070387572050094604e-02,-4.530870169401168823e-02,-4.027666524052619934e-02,-1.026585232466459274e-02,-1.596795469522476196e-01,1.297647953033447266e-01,-6.794802844524383545e-02,-2.168766707181930542e-01,-1.173032261431217194e-02,-1.391194746247492731e-05,-1.064544357359409332e-02,1.646590828895568848e-01,-9.077183157205581665e-02,-2.925903722643852234e-02,-1.432496961206197739e-02,1.210869774222373962e-01,-2.466014114373311916e-14,3.164199367165565491e-02,-1.102841198444366455e-01,-3.214889019727706909e-02,-5.631915479898452759e-02,4.312583059072494507e-02,-7.048676908016204834e-02,-2.919030934572219849e-02,-9.517215192317962646e-02,1.646759361028671265e-01,-2.981848549097776413e-03,-3.445435464382171631e-01,-6.652753055095672607e-02,-2.621380624503663603e-16,-5.348255485296249390e-02,-2.186562120914459229e-02,-2.086684405803680420e-01,-3.956957161426544189e-02,-3.229875292163342237e-04,-4.403046797960996628e-03,1.801172457635402679e-02,-7.917008362710475922e-03,3.835356980562210083e-02,-1.172161027789115906e-01,-2.742372266948223114e-02,-1.965571381151676178e-02,-8.497900394976130867e-15,-6.700782477855682373e-02,-8.244373649358749390e-02,-1.241435110569000244e-02,-1.458966732025146484e-02,-4.311796277761459351e-03,-3.411126136779785156e-02,-1.232032328844070435e-01,-6.521495431661605835e-02,-4.067193344235420227e-02,-6.717073731124401093e-03,-4.410820454359054565e-02,-1.776244305074214935e-02,-2.094307728111743927e-02,-2.226662486791610718e-01,4.907316565513610840e-01,-4.248521872796118259e-05,-5.219848453998565674e-02,-3.636487200856208801e-02,-4.269212367944419384e-04,-5.633449926972389221e-02,-6.177603560804639099e-15,-1.048431638628244400e-02,1.255393177270889282e-01,-4.614482074975967407e-02,-5.852191316080279648e-05,-3.313883244991302490e-01,-2.797027118504047394e-03,-3.073563333600759506e-03,-2.456378750503063202e-02,-5.828934535384178162e-02,-5.197830498218536377e-02,2.006971122625600401e-08,-5.145841091871261597e-02,-8.999190293252468109e-03,-1.243494376540184021e-01,-7.949870079755783081e-02,2.127919048070907593e-01,-3.628889098763465881e-03,-1.258845776319503784e-01,-9.181790053844451904e-02,-4.884621012024581432e-04,-2.197301218984648585e-04,1.548616588115692139e-02,-1.791003346443176270e-02,-2.338784560561180115e-02,-4.071630071848630905e-03,-1.256743520498275757e-01,-3.903626697137951851e-03,2.067471541522536427e-06,-4.443059116601943970e-02,-1.212434656918048859e-02,-6.268689781427383423e-02,-5.015425011515617371e-02,-4.000051401220616754e-09,-8.999661542475223541e-03,-1.140713468194007874e-01,-2.319168858230113983e-02,-1.626897305250167847e-01,-2.873997762799263000e-02,-2.946253418922424316e-01,-4.699625447392463684e-02,-4.124090075492858887e-02,-6.847508251667022705e-02,1.023016348481178284e-01,-1.764219626784324646e-02,-5.890914425253868103e-02,-3.515475399933770673e-14,6.144936382770538330e-02,-1.631661877036094666e-02,-1.194576732814311981e-02,-5.274502933025360107e-02,-1.324794888496398926e-01,-5.558451265096664429e-02,4.187720119953155518e-01,-7.478697225451469421e-03,-8.397744037210941315e-03,-8.207779377698898315e-02,-8.717738837003707886e-02,-4.825257137417793274e-02,4.149190783500671387e-01,-2.061529521597549319e-04,1.125505864620208740e-01,-5.112894624471664429e-02,-1.568215340375900269e-02,-2.176363195758312941e-04,-2.518801193218678236e-04,-2.595660090446472168e-02,-1.012109145522117615e-01,-1.211826950311660767e-01,-6.409481866285204887e-04,-2.642759820446372032e-03,3.875680267810821533e-01,-9.130143374204635620e-02,-7.625871896743774414e-02,-1.187424361705780029e-01,-5.691569764167070389e-03,2.381769120693206787e-01,-2.368773892521858215e-02,-7.986547425389289856e-03,-2.572814974033301588e-14,2.974782421262534005e-14,3.799637582346804265e-08,8.495266122510169993e-16,-4.022561945021152496e-03,1.518964618444442749e-01,-1.310903877019882202e-01,6.341859342903245766e-15,-2.329451090190559626e-04,3.305882588028907776e-02,-1.749151200056076050e-01,-4.398024454712867737e-02,1.228132322430610657e-01,-1.587928272783756256e-02,3.247497379779815674e-01,-1.579270139336585999e-02,-1.041495501995086670e-01,-5.653569940477609634e-03,-4.494438810920611815e-14,-2.271353441756218672e-04,-2.688563056290149689e-02,-9.796410799026489258e-02,-7.011500652879476547e-03,-2.360701374709606171e-02,5.876026153564453125e-01,4.721120595932006836e-01,-4.452295601367950439e-02,2.312182039022445679e-01,-1.100968942046165466e-01,-1.070030521077569574e-05,-3.657350030467076962e-14,-5.778494849801063538e-02,-7.817411422729492188e-02,-8.150516450405120850e-02,-3.794776042923331261e-03,-1.124246641993522644e-01,-3.047739388421177864e-03,2.107279933989048004e-02,-1.097667664289474487e-01,1.330487505108238211e-14,-9.202479268424212933e-04,-7.895172387361526489e-02,-1.506904214620590210e-01,-2.818531170487403870e-02,-1.430217089364305139e-04,-1.534591149538755417e-02,-1.178951412439346313e-01,-5.300111297401599586e-06,-5.102722905576229095e-03,-7.545353582827374339e-05,-2.855695039033889771e-02,-5.749149248003959656e-02,-4.792834224645048380e-04,1.555627435445785522e-01,-1.919610239565372467e-02,-1.007829023279846817e-14,-1.877662539482116699e-02,-7.052891701459884644e-02,-2.932118438184261322e-02,-6.407070159912109375e-02,-1.935205364134162664e-05,-9.331857413053512573e-02,-2.254493348300457001e-02,5.531891540981256905e-14,-1.477957703173160553e-02,3.824083209037780762e-01,-7.847091183066368103e-04,-4.053733497858047485e-02,-5.624954029917716980e-02,2.853820472955703735e-02,-1.372430124320089817e-03,-5.471464619040489197e-02,-6.474097818136215210e-02,-7.800157647579908371e-03,-1.220869831740856171e-02,1.739392280578613281e-01,-6.039930135011672974e-02,-2.291038259863853455e-02,-7.425504177808761597e-02,-5.204723402857780457e-02,-2.891820331569761038e-04,4.456015229225158691e-01,-2.829064840170758544e-07,-4.884639382362365723e-02,-6.388386338949203491e-02,-1.585315465927124023e-01,3.975648432970046997e-02,-3.346358984708786011e-02,2.983065725860323258e-14,-1.919484511017799377e-02,-1.117598987529846988e-15,-7.175966352224349976e-02,-1.349262078292667866e-03,-2.092963829636573792e-02,-1.176546048372983932e-02,-1.250298619270324707e-01,-2.918404585919645577e-15,-3.463404253125190735e-02,-1.980897411704063416e-02,-1.705683581531047821e-02,-7.133206352591514587e-03,-2.491035847924649715e-04,-7.240399718284606934e-03,-6.792517844587564468e-03,-3.206486813724040985e-03,1.086535677313804626e-01,-2.162408083677291870e-01,-1.242765411734580994e-01,-2.341935032745823264e-04,-3.568287566304206848e-02,-1.527372078271582723e-04,-1.881592161953449249e-02,-3.683346137404441833e-02,-1.591380499303340912e-02,-4.974548146128654480e-02,7.952046105744094845e-15,-1.190786599181592464e-03,-3.685170658213055006e-14,-6.687073409557342529e-02,-6.078628357499837875e-03,-6.344036757946014404e-02,3.210505843162536621e-01,-4.957310389727354050e-03,-9.763149917125701904e-02,-1.139127537608146667e-01,-2.577271370682865381e-04,-3.149054199457168579e-02,-1.408304902724921703e-03,-2.521558478474617004e-02,-2.575902268290519714e-03,-5.346124991774559021e-02,1.509171454472379992e-07,4.749217197286270675e-08,-2.905731089413166046e-04,-2.525025978684425354e-02,2.208106473274712434e-15,-2.090166788548231125e-03,-5.396874994039535522e-02,-2.252278290688991547e-02,-7.156738638877868652e-02,-1.823490252718329430e-03,-2.649077941896393895e-05,-3.383566066622734070e-02,-1.942528178915381432e-03,-1.925253868103027344e-01,-6.156057119369506836e-02,-4.688772559165954590e-02,-1.108942460268735886e-02,3.047459386289119720e-02,2.585196767768138670e-08,-3.768446504182065837e-06,-3.038770053535699844e-03,-5.349938198924064636e-02,-3.803733363747596741e-02,-5.621648207306861877e-02,6.214085260580759495e-06,-4.305228963494300842e-02,-1.420920621603727341e-02,-8.559969812631607056e-02,-1.171439886093139648e-02,1.548439413309097290e-01,-9.593511372804641724e-02,-7.656238973140716553e-03,-2.070262364317621007e-14,-6.152393668889999390e-02,-1.848858147859573364e-01,-2.406747080385684967e-03,-1.039566323161125183e-01,-6.806208193302154541e-02,-1.043934561312198639e-02,-1.953551545739173889e-03,-2.773692831397056580e-03,3.540017306804656982e-01,-1.799216307699680328e-02,-3.068879246711730957e-02,-8.911792538128793240e-04,-2.544785849750041962e-03,-1.199336819906939716e-14,-6.607119459658861160e-03,-3.469733521342277527e-02,-2.475232759024947882e-04,-8.985608816146850586e-03,-3.002617135643959045e-02,-4.591557383537292480e-02,-1.630765182198956609e-04,-3.242022916674613953e-02,-2.788319997489452362e-02,-2.427587751299142838e-04,5.500969013638723482e-09,-4.774257540702819824e-03,2.137578613734762017e-14,-1.661127805709838867e-02,-2.241172606656446908e-14,-5.252635572105646133e-03,-1.955491097760386765e-05,-8.300060778856277466e-02,-1.620629802346229553e-02,-7.319313473999500275e-03,-3.280939161777496338e-02,-1.058203801512718201e-01,-7.083825021982192993e-02,-2.738521434366703033e-04,-1.473874202929437160e-03,1.241055652499198914e-01,-1.189893111586570740e-01,1.544943004846572876e-01,-1.281313449144363403e-01,-4.122287631034851074e-01,4.338675737380981445e-01,-2.248082160949707031e-01,-3.682128489017486572e-01,1.857643425464630127e-01,-2.756618559360504150e-01,-1.300964653491973877e-01,-1.209747344255447388e-01,1.579453349113464355e-01,-2.813284993171691895e-01,1.905649155378341675e-01,1.760431677103042603e-01,-3.637677729129791260e-01,-1.515806764364242554e-01,3.461668789386749268e-01,5.262391567230224609e-01,-2.505133748054504395e-01,1.573198735713958740e-01,-6.661766022443771362e-02,-2.588948979973793030e-02,-2.560266256332397461e-01,-1.189950332045555115e-01,-3.844002783298492432e-01,-3.414276540279388428e-01,-3.073288798332214355e-01,-4.095152765512466431e-02,-2.410190701484680176e-01,-2.489917129278182983e-01,-1.869504749774932861e-01,-2.040860652923583984e-01,-1.768297255039215088e-01,-3.156700134277343750e-01,4.946053959429264069e-03,-1.842857152223587036e-01,-6.703475117683410645e-02,-3.308408334851264954e-02,-3.927428722381591797e-01,-1.382959634065628052e-01,2.359101623296737671e-01,-1.825585067272186279e-01,3.213080167770385742e-01,-6.715132296085357666e-02,-1.514864414930343628e-01,-2.482213079929351807e-01,-2.027639299631118774e-01,-2.304666936397552490e-01,-1.091463025659322739e-02,-2.553825080394744873e-01,-1.542734801769256592e-01,-2.166768163442611694e-01,-2.089153528213500977e-01,-1.977074444293975830e-01,-1.582921668887138367e-02,4.737611413002014160e-01,-1.673132181167602539e-01,-2.080286592245101929e-01,-2.313529551029205322e-01,-3.076810240745544434e-01,-2.201099395751953125e-01,2.681569568812847137e-02,-2.489415407180786133e-01,-1.138014197349548340e-01,2.347309887409210205e-01,2.171076983213424683e-01,-3.963451460003852844e-02,-1.678870916366577148e-01,-2.777370810508728027e-01,7.968907011672854424e-04,2.453553676605224609e-01,6.991870701313018799e-02,2.108360528945922852e-01,-2.182296961545944214e-01,-1.533576399087905884e-01,-2.120736092329025269e-01,-1.850007921457290649e-01,1.188807189464569092e-01,-2.441907376050949097e-01,-2.494804561138153076e-01,-8.831761777400970459e-02,-1.647208034992218018e-01,-3.370653092861175537e-01,-2.502707242965698242e-01,5.450172349810600281e-02,-1.969327926635742188e-01,-2.158947587013244629e-01,-2.610118091106414795e-01,1.742416173219680786e-01,-1.817024648189544678e-01,-2.183414995670318604e-01,-1.603245586156845093e-01,-2.696686685085296631e-01,-1.653402000665664673e-01,1.965301036834716797e-01,4.737406671047210693e-01,3.081222474575042725e-01,-1.229083985090255737e-01,-2.226058542728424072e-01,-2.442981451749801636e-01,-1.450717151165008545e-01,5.598048567771911621e-01,-3.228353559970855713e-01,-1.942938566207885742e-01,5.413655042648315430e-01,-7.249023020267486572e-02,1.725860800843095899e-14,-2.034068852663040161e-01,-1.392479538917541504e-01,-3.763563632965087891e-01,-1.653835028409957886e-01,-1.761499345302581787e-01,-1.498992145061492920e-01,3.179714250147597232e-15,-1.340608298778533936e-01,-1.552355140447616577e-01,-8.860109001398086548e-02,-1.760519891977310181e-01,-9.082162380218505859e-02,-2.361040562391281128e-01,-1.778900623321533203e-01,-1.571908742189407349e-01,-1.082334890961647034e-01,1.837673634290695190e-01,-2.175859808921813965e-01,5.026014447212219238e-01,-2.977823019027709961e-01,2.917372882366180420e-01,-7.237432897090911865e-02,-1.136306673288345337e-01,-9.690368175506591797e-02,-1.881234943866729736e-01,-1.813857108354568481e-01,-1.220700219273567200e-01,-3.572420477867126465e-01,-3.945483639836311340e-02,-1.392742395401000977e-01,3.050103969871997833e-02,-1.613595932722091675e-01,2.574827969074249268e-01,-1.928027123212814331e-01,-1.028957590460777283e-01,-1.084885150194168091e-01,-2.055781930685043335e-01,9.885084629058837891e-02,-4.293327778577804565e-02,-1.176348403096199036e-01,5.225225687026977539e-01,-1.299792230129241943e-01,4.048065841197967529e-01,-2.558091580867767334e-01,-1.387632787227630615e-01,1.129866226891752118e-14,-1.170949712395668030e-01,-5.935660377144813538e-02,-4.155423939228057861e-01,-1.542370170354843140e-01,-9.690376371145248413e-02,1.030722260475158691e-01,-1.498406082391738892e-01,-1.871279329061508179e-01,3.596118986606597900e-01,-7.102904468774795532e-02,-9.953569620847702026e-02,-1.320743576896203642e-14,-1.199618726968765259e-01,-9.463252872228622437e-02,1.711166463792324066e-02,-6.168399751186370850e-02,-1.506274342536926270e-01,-3.228577375411987305e-01,-1.329749822616577148e-01,-1.611879169940948486e-01,-1.161894649267196655e-01,-1.033874675631523132e-01,-1.746983826160430908e-01,-1.064838543534278870e-01,-3.340437710285186768e-01,-1.013639271259307861e-01,-1.848118487131171495e-14,1.948132216930389404e-01,-1.894124746322631836e-01,-2.006826102733612061e-01,-1.869294792413711548e-01,-2.083530463278293610e-02,-7.020331919193267822e-02,-4.941859909571993947e-14,-1.333600133657455444e-01,-2.624576389789581299e-01,-1.842813789844512939e-01,-1.586144119501113892e-01,-5.599752441048622131e-02,-1.278230845928192139e-01,4.889178276062011719e-02,-1.834273040294647217e-01,-1.220921352505683899e-01,-1.203345656394958496e-01,-1.428521275520324707e-01,2.721919417381286621e-01,-1.230707839131355286e-01,-9.855985641479492188e-02,-2.291574180126190186e-01,8.534460514783859253e-02,-9.026622027158737183e-02,-1.494342386722564697e-01,-9.946211427450180054e-02,1.384269073605537415e-02,-1.306079626083374023e-01,2.135226279497146606e-01,-7.376622408628463745e-02,-3.755433057627335924e-14,-9.261795878410339355e-02,-1.585206538438796997e-01,-7.526692003011703491e-02,-7.068458944559097290e-02,9.305232018232345581e-02,-3.380250632762908936e-01,-1.569678634405136108e-01,-1.546362787485122681e-01,1.093912404030561447e-02,-1.232700496912002563e-01,-1.582122743129730225e-01,-1.968659013509750366e-01,-1.679527461528778076e-01,-7.034082710742950439e-02,-2.245834469795227051e-01,-1.948422044515609741e-01,-1.095736473798751831e-01,-1.333824992179870605e-01,9.832765161991119385e-02,-5.626031383872032166e-02,-1.088336184620857239e-01,1.010069623589515686e-01,-1.026943102478981018e-01,-2.339400537312030792e-02,4.308719635009765625e-01,4.469277858734130859e-01,-4.744235426187515259e-02,-1.218878254294395447e-01,-1.709532737731933594e-01,-5.202306061983108521e-02,-1.109306141734123230e-01,-1.281807124614715576e-01,-7.696405053138732910e-02,-1.695698499679565430e-02,3.116931021213531494e-01,-1.050411537289619446e-01,-7.398226857185363770e-02,-3.212095797061920166e-01,-1.009690091013908386e-01,-1.142471134662628174e-01,-4.579632729291915894e-02,-4.991550371050834656e-02,5.802803039550781250e-01,3.714388608932495117e-01,-8.063765615224838257e-02,-3.103747218847274780e-02,1.540862917900085449e-01,-4.804569855332374573e-02,-9.366825222969055176e-02,-3.158893436193466187e-02,9.741570055484771729e-02,-1.594724208116531372e-01,-4.325988888740539551e-02,-1.464643180370330811e-01,-1.265674382448196411e-01,3.177447915077209473e-01,4.650207236409187317e-02,-2.162884175777435303e-01,-1.007248535752296448e-01,-9.270228445529937744e-03,1.259788777679204941e-02,-1.156799271702766418e-01,-2.701863832771778107e-02,-1.312907934188842773e-01,-6.117646768689155579e-02,-1.431001424789428711e-01,-5.224346742033958435e-02,1.373388767242431641e-01,-7.332818955183029175e-02,-3.333520377054810524e-03,-2.114089392125606537e-02,-7.742246985435485840e-02,-2.550696134567260742e-01,-9.379965066909790039e-02,-4.776883870363235474e-02,-5.426760762929916382e-02,3.190933465957641602e-01,-3.050979971885681152e-01,-1.489456295967102051e-01,-5.264305695891380310e-02,-5.446701869368553162e-02,-1.889789700508117676e-01,-3.919371590018272400e-02,-2.586776109883125868e-14,-8.381153456866741180e-03,-1.250396668910980225e-01,-1.302193850278854370e-01,-1.798466444015502930e-01,-1.121785268187522888e-01,4.689561426639556885e-01,-1.409240514039993286e-01,-1.237652823328971863e-01,-2.521432191133499146e-02,-9.308008104562759399e-02,-1.894204062409698963e-03,-1.251652687788009644e-01,-2.974730432033538818e-01,-1.081535816192626953e-01,-2.108419388532638550e-01,-8.367225527763366699e-02,-6.600429117679595947e-02,-1.068845540285110474e-01,1.965292394161224365e-01,-2.762695588171482086e-02,3.159348964691162109e-01,-1.011554822325706482e-01,-6.445824354887008667e-02,2.160274386405944824e-01,-7.409895956516265869e-02,-6.979386508464813232e-02,-1.448405236005783081e-01,-1.741722784936428070e-02,-3.284495696425437927e-02,-1.629012408906754805e-14,-7.015974074602127075e-02,-1.142250653356313705e-02,-1.985948383808135986e-01,-7.655517756938934326e-02,-6.166381761431694031e-02,3.125988543033599854e-01,3.134953677654266357e-01,4.443509578704833984e-01,-6.299079954624176025e-02,-1.044218242168426514e-02,2.205151683541510532e-14,1.131260767579078674e-01,-9.462320804595947266e-02,3.016047775745391846e-01,-1.464241147041320801e-01,-1.593824625015258789e-01,9.500763687602699348e-15,-6.661404669284820557e-02,3.785778582096099854e-01,-3.091266192495822906e-02,-1.406711190938949585e-01,-4.657585546374320984e-02,-2.042802125215530396e-01,2.438181489706039429e-01,-9.246312826871871948e-02,-6.030605733394622803e-02,-1.624961346387863159e-01,-6.932469457387924194e-02,3.688634037971496582e-01,-9.326650202274322510e-02,-8.300638943910598755e-02,-8.495269715785980225e-02,-6.082197651267051697e-02,-1.826650649309158325e-01,-3.405864117667078972e-03,3.076700270175933838e-01,-7.553364336490631104e-02,3.575936704874038696e-02,-3.515642881393432617e-02,-1.726870611310005188e-02,-9.683032520115375519e-03,-6.901396065950393677e-02,-1.253559142351150513e-01,-3.414320759475231171e-03,-8.811621367931365967e-02,1.289716511964797974e-01,-8.730600029230117798e-02,1.099784821271896362e-01,-1.650282368063926697e-02,-1.261233538389205933e-01,-1.587494462728500366e-01,-1.184451766312122345e-02,-1.347186267375946045e-01,-4.324564710259437561e-02,-3.963637631386518478e-03,2.707938253879547119e-01,-1.173307150602340698e-01,-2.317449599504470825e-01,-9.273041039705276489e-02,-1.049327179789543152e-01,-5.549978837370872498e-02,-5.087449029088020325e-02,-2.267305701971054077e-01,-7.897219061851501465e-02,-4.752978682518005371e-02,2.787345210870061096e-14,-1.343890875577926636e-01,-3.125888694481375463e-15,-9.336130321025848389e-02,-7.543543819338083267e-03,-7.443147152662277222e-02,-1.473870277404785156e-01,1.803982555866241455e-01,-6.334914267063140869e-02,-6.004894389892434514e-15,-1.483142524957656860e-01,-6.948815286159515381e-02,-3.307460248470306396e-02,-6.951984018087387085e-02,4.847799241542816162e-01,-6.424932181835174561e-02,-1.775987744331359863e-01,-8.244245499372482300e-02,-4.575933143496513367e-02,-8.595896884799003601e-03,-2.560503594577312469e-02,-2.601216081529855728e-03,-1.570904254913330078e-01,-1.361444443464279175e-01,-1.656690984964370728e-02,-8.613780140876770020e-02,-1.848752349615097046e-01,-1.853595525026321411e-01,-6.288180500268936157e-02,-5.603129789233207703e-02,3.917858898639678955e-01,-7.902359962463378906e-02,-5.252164229750633240e-02,-2.431435883045196533e-02,-1.578056067228317261e-02,-1.231281533837318420e-01,-1.272390335798263550e-01,-5.993704125285148621e-02,4.623168706893920898e-01,-1.683820597827434540e-02,-1.056439131498336792e-01,-3.417358174920082092e-02,-1.007173284888267517e-01,2.476541846990585327e-01,-2.903636544942855835e-03,-4.417297895997762680e-03,-1.247624866664409637e-02,-6.349541991949081421e-02,-3.768244013190269470e-02,-2.173912152647972107e-02,-1.553973369300365448e-02,-3.204766893759369850e-03,-1.108027324080467224e-01,-1.241601631045341492e-01,-5.423051118850708008e-02,-6.606831401586532593e-02,-7.244357466697692871e-02,-9.058636426925659180e-02,-8.291727493416750638e-15,-5.786560103297233582e-02,-4.451929591596126556e-03,-1.857214607298374176e-02,-1.867530681192874908e-02,-1.554627716541290283e-01,-3.635332360863685608e-02,-3.512592986226081848e-02,-1.299165375530719757e-02,-5.721488967537879944e-02,-1.306200027465820312e-01,-2.648722380399703979e-02,-2.596765942871570587e-02,-7.779787480831146240e-02,-2.596972882747650146e-02,-2.541418559849262238e-02,8.085872977972030640e-02,-1.596961021423339844e-01,-5.932368710637092590e-02,-2.100680023431777954e-02,2.517243852869378157e-14,-1.473449468612670898e-01,-8.598662167787551880e-02,-1.034957394003868103e-01,-4.049524199217557907e-03,-1.112203076481819153e-01,4.081186950206756592e-01,1.816825871334398074e-14,4.061447596152064493e-15,-1.347712874412536621e-01,-7.813394069671630859e-02,2.766344249248504639e-01,-7.066198159009218216e-03,-5.264708027243614197e-02,-4.166454821825027466e-02,-1.345288157463073730e-01,-7.334182504564523697e-03,-7.907041162252426147e-02,-4.809555038809776306e-02,-5.516943335533142090e-02,-3.471456933766603470e-03,-1.611902564764022827e-02,-4.646411631256341934e-03,-5.925317481160163879e-02,-1.879934519529342651e-01,-1.262396723031997681e-01,-7.336992770433425903e-02,-4.791755974292755127e-02,-3.076112829148769379e-03,-3.635009634308516979e-04,-8.288543671369552612e-02,8.971163630485534668e-02,-4.010528698563575745e-02,4.992800578474998474e-02,-5.211746692657470703e-02,-4.418297484517097473e-02,3.804281949996948242e-01,-1.373505294322967529e-01,-5.853898357599973679e-03,-2.467066198587417603e-01,-1.971995681524276733e-01,-2.098145196214318275e-03,-3.216247260570526123e-02,-3.155260905623435974e-02,-6.268428362639875961e-15,-1.530657336115837097e-02,-9.505213797092437744e-02,-5.166370049118995667e-02,-4.417944233864545822e-03,2.659084093865025922e-14,-6.570081412792205811e-02,-6.045633181929588318e-02,1.146662011742591858e-01,-2.970823273062705994e-02,-3.861689008772373199e-03,-5.976048484444618225e-02,-3.649598360061645508e-02,-4.247542098164558411e-02,-5.489485338330268860e-04,-5.690732039511203766e-03,-3.363852575421333313e-02,-5.803984403610229492e-02,-7.575275003910064697e-02,-7.830036804080009460e-03,-1.717822044156491756e-03,-3.278065472841262817e-02,-2.261399477720260620e-02,-3.213408961892127991e-02,-6.574142724275588989e-02,-1.051089391112327576e-01,-2.505774050951004028e-02,-7.658191770315170288e-02,-3.103045746684074402e-02,1.119166845515214698e-14,7.337737154813808033e-15,-5.075955390930175781e-02,-1.558291027322411537e-03,-2.983387373387813568e-02,-4.566317051649093628e-02,-1.255582422018051147e-01,-1.105662714689970016e-02,-5.456162989139556885e-02,-8.675126731395721436e-02,-1.146441996097564697e-01,-9.192796796560287476e-02,-2.267502993345260620e-02,-1.068897359073162079e-02,-1.295154690742492676e-01,-3.199371695518493652e-02,-2.730831620283424854e-04,-2.092485874891281128e-02,-6.312362849712371826e-02,-4.651158675551414490e-02,-5.071971565485000610e-03,3.587471842765808105e-01,1.504080809010786834e-14,-2.257055342197418213e-01,4.911796152591705322e-01,-3.795954212546348572e-02,-8.890433609485626221e-02,-6.841467227786779404e-03,-1.634301841259002686e-01,-1.434401236474514008e-02,-1.733037061057984829e-03,-1.064667776226997375e-01,1.092045530676841736e-01,3.143563568592071533e-01,-6.211034022271633148e-03,-2.631080336868762970e-02,1.783141234494578509e-14,-1.205307617783546448e-01,-1.057281568646430969e-01,2.305636107921600342e-01,-1.137246862053871155e-01,-4.948313161730766296e-02,-1.459887996315956116e-02,-5.791663657873868942e-03,-1.952563226222991943e-01,-1.844533486291766167e-03,-2.541758585721254349e-03,-7.287810742855072021e-02,-6.737431138753890991e-02,-1.710596829652786255e-01,-6.016134098172187805e-02,-3.334383293986320496e-02,-4.233919829130172729e-02,-5.167922005057334900e-02,-4.606619104743003845e-02,-3.255531564354896545e-02,-9.388538450002670288e-02,-3.458169475197792053e-02,-1.584890484809875488e-01,5.572624802589416504e-01,-1.995093747973442078e-02,-1.877165436744689941e-01,-1.954212598502635956e-02,-6.546651571989059448e-02,-7.766544513287954032e-06,-5.149204283952713013e-02,-6.177986040711402893e-02,3.913398683071136475e-01,-2.744482457637786865e-02,-1.230563223361968994e-02,4.281642846763134003e-03,-4.801388457417488098e-02,-5.512364953756332397e-02,-1.262412071228027344e-01,-7.451418321579694748e-03,-5.710053443908691406e-02,-6.259597837924957275e-02,-2.613717224448919296e-04,-1.746184192597866058e-02,-5.052932351827621460e-02,1.715062260627746582e-01,-2.945227781310677528e-03,-3.188687190413475037e-02,-1.916495896875858307e-02,-8.476608991622924805e-02,-8.686257153749465942e-02,-6.721138488501310349e-03,-1.232450827956199646e-01,-5.001594126224517822e-02,-6.007020175457000732e-02,-2.268775133416056633e-03,-7.226689904928207397e-02,-5.007988959550857544e-02,-5.684323236346244812e-02,-2.308270707726478577e-02,2.620365023612976074e-01,-2.575716003775596619e-03,-9.991656988859176636e-04,-2.077754586935043335e-02,-6.906170397996902466e-02,-2.325778332306072116e-04,-7.776035461574792862e-03,-1.310020983219146729e-01,-1.675146259367465973e-02,-1.170357018709182739e-01,-8.562510460615158081e-02,-2.821400575339794159e-02,3.509140014648437500e-01,-1.473135687410831451e-02,3.356615602970123291e-01,-3.830192238092422485e-02,-5.728746764361858368e-03,-4.003570343085946504e-14,-4.235702380537986755e-02,-1.102896481752395630e-01,-1.640973379835486412e-03,-2.468935679644346237e-03,-1.194814871996641159e-02,-5.027098208665847778e-02,-3.023511171340942383e-02,-7.572987582534551620e-03,-2.785200951620936394e-03,1.275961846113204956e-01,-7.063820958137512207e-02,-3.613963490352034569e-03,-1.351133733987808228e-02,-3.532321006059646606e-02,-7.530980557203292847e-02,-6.630477309226989746e-02,-1.311019808053970337e-02,-8.764943107962608337e-03,-2.851788513362407684e-02,-1.611045590834692121e-04,1.383974701166152954e-01,-5.849123932421207428e-03,-1.511927098035812378e-01,-5.206543207168579102e-02,-1.455017179250717163e-02,4.288752783899313359e-14,-1.149128749966621399e-01,-9.623971581459045410e-02,2.506610751152038574e-01,-1.033486947417259216e-01,-5.869913846254348755e-02,-5.726326629519462585e-02,-9.233390539884567261e-02,-2.211586758494377136e-02,-4.705033078789710999e-02,-8.146376907825469971e-02,-1.843333244323730469e-02,1.608188442711686733e-14,-2.123763561248779297e-01,-4.594340547919273376e-02,-2.564191352576017380e-03,5.847972388457745030e-14,-9.239993989467620850e-02,-5.655821412801742554e-02,-1.141651955549605191e-04,-7.213077694177627563e-02,-5.149202793836593628e-02,-3.973879292607307434e-02,-3.418026631044415731e-14,-3.202177211642265320e-02,-1.311424374580383301e-02,-7.141235750168561935e-03,-8.691436960361897945e-04,-4.843120463192462921e-03,5.017709732055664062e-02,3.714303848214098314e-14,-1.775398664176464081e-02,1.185438409447669983e-02,1.956742703914642334e-01,-1.963280839845538139e-03,-4.876001551747322083e-02,-7.498686760663986206e-02,-3.277711803093552589e-04,-3.490668954327702522e-03,-1.934348605573177338e-02,-5.173517391085624695e-02,-2.150617353618144989e-02,-1.236471533775329590e-01,-1.529970206320285797e-02,-2.793025923892855644e-03,-3.262324491515755653e-03,1.001451966329853366e-14,-9.424613416194915771e-02,-8.140952885150909424e-02,-1.234303810633718967e-03,-1.521090790629386902e-02,-1.444765463406820494e-15,-1.946182176470756531e-02,-3.435892611742019653e-02,-6.262885406613349915e-03,-2.833204902708530426e-02,-3.565740538761019707e-03,-1.011280892271315679e-05,-1.498076319694519043e-01,-1.968735828995704651e-02,-1.301397802308201790e-03,-4.021106287837028503e-03,-5.292024835944175720e-02,-7.124652713537216187e-02,-9.978964924812316895e-02,1.671117544174194336e-01,-4.597377963364124298e-03,-8.333345502614974976e-02,-1.917587406933307648e-02,-4.430097714066505432e-02,-3.981296345591545105e-02,-3.544994816184043884e-02,-1.640911400318145752e-02,-1.222739554941654205e-02,-4.077697917819023132e-02,-1.239802315831184387e-01,2.403748780488967896e-01,-3.105688467621803284e-02,1.011050713094728548e-14,-4.399220645427703857e-02,-4.594480246305465698e-02,2.117162048816680908e-01,-1.017836779356002808e-01,-4.300875123590230942e-03,-1.649281359277665615e-03,1.012708917260169983e-01,-1.501348149031400681e-02,-3.878804668784141541e-02,-2.518700063228607178e-02,-3.038904070854187012e-02,-2.655070275068283081e-03,-1.580272056162357330e-02,-1.555341333150863647e-01,-7.845269143581390381e-02,-1.967875054106116295e-03,-2.521487185731530190e-03,9.804339706897735596e-02,-5.180579423904418945e-02,-1.288284659385681152e-01,-6.112333759665489197e-02,-2.834559231996536255e-02,1.057043075561523438e-01,-1.451509539037942886e-02,-1.070890203118324280e-01,2.995122224092483521e-02,-1.980834305286407471e-01,-4.984417047127712858e-15,-9.957307577133178711e-02,-7.727611809968948364e-03,-1.301441458053886890e-03,-8.108007721602916718e-03,7.448013221249792648e-15,-4.634642228484153748e-02,-6.111264228820800781e-03,3.249770998954772949e-01,-4.532332345843315125e-02,-9.370289742946624756e-03,-4.829177632927894592e-03,-5.231348797678947449e-02,-2.925715176388621330e-03,-6.319984793663024902e-02,-2.231034886790439487e-05,-8.438320457935333252e-02,-2.208601310849189758e-02,-8.392281085252761841e-02,-1.966166382771916687e-05,-1.934682019054889679e-02,-9.922554343938827515e-02,-2.169161253612675311e-14,-1.744655775837600231e-03,-3.878827765583992004e-02,-1.921621634601647366e-14,-1.574150100350379944e-02,-2.173405736684799194e-01,-1.398598849773406982e-01,-3.643499687314033508e-02,-2.119267731904983521e-02,-4.293564241379499435e-03,-3.566042333841323853e-02,-4.272568185115233064e-05,-5.975558608770370483e-02,-2.693548984825611115e-02,-1.763204671442508698e-02,-4.042987525463104248e-02,-3.488679230213165283e-02,-1.785713247954845428e-02,-3.675763681530952454e-02,-4.479937721043825150e-03,-5.272314697504043579e-02,-3.616489838717887317e-14,-7.715819776058197021e-02,-4.435404669493436813e-03,-2.131476067006587982e-03,-8.099298924207687378e-02,-8.286486566066741943e-02,-2.156320214271545410e-01,-2.331037285330239683e-05,-1.761112548410892487e-02,-5.195422098040580750e-02,-3.618831187486648560e-02,-2.107622107708987530e-14,6.783620906214253565e-15,-9.851048886775970459e-02,-5.689291607811376716e-15,2.348310168542866450e-08,-8.097257465124130249e-02,-6.136089563369750977e-02,-4.066380485892295837e-02,-1.529239583760499954e-03,-1.344564110040664673e-01,9.617391654110143961e-15,-5.109777301549911499e-02,-1.268553286790847778e-01,-8.489755541086196899e-02,2.517429292201995850e-01,-1.134646311402320862e-02,1.478469818830490112e-01,-7.070337235927581787e-02,-6.320828688330948353e-04,-5.213543027639389038e-02,-7.162569556385278702e-03,-1.529761590063571930e-02,-6.867924705147743225e-03,-8.179558813571929932e-02,-4.981150478124618530e-02,-2.216431684792041779e-02,-1.353853568434715271e-02,-8.132977411150932312e-03,-2.679288014769554138e-02,-4.554904624819755554e-02,-2.504525483759765386e-14,-2.479314564524277842e-15,-1.370030548423528671e-02,-3.917898982763290405e-03,-8.668396621942520142e-03,-8.890576398993751961e-15,-3.604475059546530247e-04,3.342046439647674561e-01,4.896633771199476737e-14,-9.775569196790456772e-04,-4.107094556093215942e-02,-6.970618665218353271e-02,-5.757724121212959290e-02,-2.027588052442297339e-04,-3.936295583844184875e-02,-7.238887250423431396e-02,-1.776537299156188965e-02,-8.282924070954322815e-03,1.937283277511596680e-01,-2.683818712830543518e-02,-3.425021097064018250e-02,-4.819016076484418376e-15,1.165381744503974915e-01,1.781032461269094203e-14,-1.336799412965774536e-01,-1.842343434691429138e-02,-3.778681159019470215e-02,-2.546279210946522653e-05,-4.186071921139955521e-03,1.317498932488451319e-14,-7.748788222670555115e-03,-6.616092473268508911e-02,-1.701938360929489136e-02,3.233763083698715235e-14,-2.607530541718006134e-02,-4.061442613601684570e-02,-9.403719753026962280e-02,1.173725277185440063e-01,2.210420906099790084e-14,-8.566241594962775707e-04,-2.348147245356813073e-04,-5.017197132110595703e-02,8.267589658498764038e-02,2.034291811287403107e-02,-2.039060555398464203e-02,-8.267966657876968384e-02,-1.236033812165260315e-02,-5.978752742521464825e-04,-4.151951149106025696e-02,-7.518113404512405396e-02,-4.246768727898597717e-02,-8.048076182603836060e-02,-6.925930082798004150e-02,-4.635479301214218140e-03,-2.293213456869125366e-02,1.383186727762222290e-01,-5.317021533846855164e-02,-1.573312655091285706e-02,5.254752186221837984e-14,8.486854285001754761e-02,-6.951778661459684372e-03,-4.447463899850845337e-03,-2.983340434730052948e-02,-9.735112637281417847e-02,-5.556218326091766357e-03,-1.750757545232772827e-01,-2.329144813120365143e-02,-6.347480416297912598e-02,-9.795410931110382080e-02,-1.184969447055612274e-14,-6.852527707815170288e-02,-1.046220064163208008e-01,-5.082645267248153687e-02,-4.290848970413208008e-03,-1.729351580142974854e-01,-4.541096096160809892e-14,-1.637338065151906774e-14,-1.031569764018058777e-02,-7.844329625368118286e-02,-3.613623324781656265e-03,-2.331366762518882751e-02,-7.259258705217749852e-15,-5.905684456229209900e-02,-1.864338992163538933e-03,-2.135564107447862625e-03,-5.698386579751968384e-02,-1.025796681642532349e-02,-4.729314520955085754e-02,1.714143157005310059e-01,-1.037853676825761795e-02,-3.035684302449226379e-02,-5.217834841459989548e-03,-3.603329136967658997e-02,-9.107153746299445629e-04,-6.184269295772537589e-05,-5.182364955544471741e-02,-7.591548562049865723e-02,3.441441357135772705e-01,-5.946555640548467636e-03,-6.530624814331531525e-03,-2.412402500340249389e-05,2.038353616755014808e-14,-9.984736144542694092e-02,-7.149183750152587891e-02,-9.329159183835145086e-06,-1.544666127301752567e-03,-9.269187226891517639e-03,-1.097580567002296448e-01,-2.057257294654846191e-02,-5.738865584135055542e-02,-3.270336091518402100e-01,4.343518546136987402e-14,-1.913831196725368500e-02,-1.323977671563625336e-02,-3.105539236143359250e-14,-3.297852306993406812e-14,-7.085942197591066360e-03,-2.869786112569272518e-05,-2.489311853423714638e-03,-1.548314280807971954e-02,-1.045462638139724731e-01,1.398271062602379419e-14,-5.316750332713127136e-02,-4.273549467325210571e-02,-4.362437539384700358e-05,-4.663943871855735779e-02,-4.792108759284019470e-02,-1.402040477842092514e-03,-6.163985002785921097e-03,-8.289964869618415833e-03,-1.743770018219947815e-02,-5.122371294419281185e-05,-1.765955239534378052e-02,-4.143528826716647018e-07,-7.189706712961196899e-02,-7.237732410430908203e-02,-2.419443055987358093e-02,-7.661247998476028442e-02,-5.468063801527023315e-02,2.084169536828994751e-01,-1.671745628118515015e-02,1.041626278311014175e-02,-4.879246000200510025e-03,-4.466219805181026459e-03,-3.994701895862817764e-03,2.753533720970153809e-01,-1.371015659942104170e-14,-1.128531766880769283e-05,-3.140344098210334778e-02,1.184139996767044067e-01,-2.654048800468444824e-02,3.823658227920532227e-01,-8.920018374919891357e-02,-1.382404714822769165e-01,-8.459917269647121429e-03,-1.940585300326347351e-02,-2.770598512142896652e-04,-4.508307203650474548e-02,-1.580477925017476082e-03,-3.020276199094951153e-05,-8.296541124582290649e-02,-1.352496817708015442e-02,-9.347485611215233803e-04,-3.165463358163833618e-02,-3.624710370786488056e-05,-3.995512612164020538e-03,-1.069701388478279114e-01,-1.294992165639996529e-03,3.493687340838137756e-15,-4.012215882539749146e-03,-5.098852887749671936e-02,-3.914739626215135715e-14,-1.370867062360048294e-02,-3.439760208129882812e-02,-5.407825810834765434e-04,-4.003856156487017870e-05,-4.165797680616378784e-02,-1.038383925333619118e-04,-1.052418872714042664e-01,-2.141503937309607863e-04,-6.190615519881248474e-02,-4.765735473483800888e-03,-4.673504736274480820e-03,-1.932910829782485962e-01,-1.067156195640563965e-01,1.116443723440170288e-01,-1.449326518923044205e-03,-4.122464358806610107e-02,2.708464860916137695e-01,-3.304504603147506714e-02,3.525898158550262451e-01,-2.707644738256931305e-02,-3.015030175447463989e-02,-1.314348727464675903e-01,-7.870498113334178925e-03,-4.859039559960365295e-03,1.446031630039215088e-01,-7.852414455555845052e-06,-1.837035291828215122e-03,2.620164752006530762e-01,-2.079127915203571320e-02,-1.064505577087402344e-01,5.249750964888069693e-14,-5.267173051834106445e-02,-1.241918944288045168e-04,-2.822769805788993835e-02,-3.765847068279981613e-03,-3.037066897377371788e-03,-1.229377835988998413e-02,-1.303599588572978973e-02,-8.569922298192977905e-02,-4.017820954322814941e-02,2.408729953776861388e-14,-3.137293447252886835e-08,-4.308170825242996216e-02,2.439961135387420654e-01,-1.213066875934600830e-01,-9.321033209562301636e-02,-1.190756261348724365e-01,2.242847614297716063e-07,-2.159626632928848267e-01,2.137236595153808594e-01,-1.781290620565414429e-01,3.880350088556611121e-14,-2.583279088139533997e-02,-2.649142639711499214e-03,-8.709108084440231323e-02,-1.679862476885318756e-02,9.792895980353932828e-06,-2.291171811521053314e-03,-8.092766255140304565e-02,-1.531490962952375412e-02,-3.379223543510927880e-15,-5.306888744235038757e-02,-3.882154449820518494e-02,2.645720541477203369e-01,1.278505431948420701e-14,-8.147150083459564485e-07,1.888568848371505737e-01,-6.733810878358781338e-04,-2.062436379492282867e-02,-1.652716286480426788e-02,-2.908540191128849983e-04,-1.504057552665472031e-03,-4.690025467425584793e-03,-8.033646270632743835e-03,-2.377277633058838546e-05,1.158131882548332214e-01,-5.386598035693168640e-02,-1.956349937245249748e-03,-4.001696367393441089e-14,-7.085629040375351906e-04,-1.228332296013832092e-01,1.651742309331893921e-02,-4.399716109037399292e-02,-8.066529408097267151e-03,-2.709149557631462812e-04,1.102232486009597778e-01,-2.160126417875289917e-01,-1.822236517909914255e-04,-3.118478879332542419e-02,-5.195412784814834595e-02,1.490965587436221540e-06,3.544622063636779785e-01,2.274094335064091865e-08,-3.951272447011433542e-05,-3.419488295912742615e-02,-5.151248537003993988e-03,-4.894092213362455368e-03,-5.971980839967727661e-02,-4.311142954975366592e-03,-1.586864382261410356e-04,5.017933845520019531e-01,1.374018043279647827e-01,1.023627370595932007e-01,-3.545073923305608332e-06,-5.822329968214035034e-02,-1.558246556669473648e-02,-3.365223761647939682e-03,-8.494165539741516113e-02,-6.959980819374322891e-03,7.115874268492916599e-06,-3.000546060502529144e-02,6.350403418764472008e-04,-8.712537586688995361e-02,-4.627752059604972601e-05,-3.873693087217550124e-14,-1.410583422511990648e-06,-1.687112078070640564e-02,-4.917906224727630615e-02,-9.471881389617919922e-02,-1.519208587706089020e-02,-7.201927946880459785e-04,-1.478436402976512909e-03,-1.992362365126609802e-02,-6.978350691497325897e-03,8.446211367845535278e-02,2.625857889652252197e-01,-5.111892241984605789e-04,-3.100806354847281121e-14,-1.479669511318206787e-01,-3.739117847810502493e-14,3.657511472702026367e-01,-1.297416910529136658e-02,-5.514374151971423998e-06,-1.712712645530700684e-02,-7.895895093679428101e-02,-4.011183045804500580e-05,-8.884911984205245972e-02,-5.860138684511184692e-02,4.707903861999511719e-01,-2.487622350454330444e-01,-4.659199342131614685e-02,-2.000697189942002296e-03,-1.683558366494253278e-04,-9.596975147724151611e-02,8.083996250185521149e-10,-2.046012319624423981e-03,-1.286717248149216175e-03,-4.742124676704406738e-02,-4.649950191378593445e-02,-2.317479113116860390e-03,-1.455232876423906418e-07,-1.156306010670959949e-03,-1.126311868429183960e-01,2.829254299285821617e-05,-8.585928939282894135e-03,5.393472466059569259e-14,2.336763963103294373e-02,-7.700674701482057571e-03,3.767232000827789307e-01,-2.040494000539183617e-03,-2.341999858617782593e-02,-2.706857025623321533e-02,1.531269866973161697e-02,-3.657367546111345291e-03,-5.054443143308162689e-03,-3.787496313452720642e-02,-1.175992265343666077e-01,-5.569670349359512329e-03,-1.977753825485706329e-03,-4.092638050678942818e-07,4.041848182678222656e-01,-3.279625996947288513e-02,-4.943328909575939178e-03,-2.688998542726039886e-02,-8.119247504509985447e-04,-3.339225053787231445e-02,-1.007768064737319946e-01,-1.605662517249584198e-03,4.640833828339907541e-10,-4.699885845184326172e-02,-1.612146966487384980e-14,-8.059871941804885864e-02,-4.465550184249877930e-03,-1.842686003783455817e-09,-1.893740743398666382e-01,-5.164799839258193970e-02,-2.717042900621891022e-02,-1.128409407101571560e-03,-1.081521157175302505e-02,-3.283109143376350403e-02,-1.362712830305099487e-01,-3.402489423751831055e-02,-5.651171132922172546e-02,-7.898879051208496094e-02,-5.564774945378303528e-02,-5.867939762538298965e-05,-6.924196146428585052e-03,-3.006374835968017578e-02,-4.022710025310516357e-03,-7.660974515601992607e-04,-5.789152812212705612e-03,-5.430609732866287231e-02,-4.830997809767723083e-02,-8.709636167623102665e-04,-2.597735496237874031e-03,-6.684689968824386597e-02,-1.145812784670852125e-04,-3.657504566945135593e-05,-2.294346503913402557e-02,1.469112578442698103e-15,-3.318001329898834229e-02,-2.335830504307523370e-04,-4.846712574362754822e-03,-6.211122125387191772e-02,-2.164364978671073914e-02,-5.661720024363603443e-06,-5.790209770202636719e-02,-5.936008878052234650e-03,-7.918007222107448229e-11,-7.761665074212942272e-06,-1.623709946870803833e-01,-6.604407727718353271e-02,-3.865297511219978333e-02,-6.927351350896060467e-04,-1.590219655175223457e-14,-4.181218147277832031e-02,4.363831877708435059e-02,-4.638297483325004578e-02,-4.496651938605197851e-14,9.981449693441390991e-02,-3.747406229376792908e-02,-1.945217512547969818e-02,-7.500282675027847290e-02,-1.158402115106582642e-02,-5.409020741353742778e-05,-2.255283668637275696e-02,-4.230999911669641733e-04,-3.822855887847254053e-06,-4.345246404409408569e-02,-4.627845063805580139e-02,1.793381869792938232e-01,-1.116158664226531982e-01,2.404593676328659058e-01,-3.968184813857078552e-02,5.356886600971222379e-10,2.200238045414488336e-14,-8.321692049503326416e-02,-8.305945433676242828e-03,-6.265854835510253906e-02,-5.719687324017286301e-03,2.543394267559051514e-01,7.842366176191717386e-05,-2.080244757235050201e-02,1.635973833887058998e-14,-3.910964354872703552e-02,-1.603059819899499416e-03,-1.157009137386921793e-06,5.124993094796082005e-06,-1.060252310708165169e-03,-2.403590269386768341e-02,-1.060794591903686523e-01,-6.275733560323715210e-02,-2.175520732998847961e-02,-1.340514165349304676e-03,-2.146266291861570474e-14,9.390444422486404763e-16,-1.051486209034919739e-01,-6.855627149343490601e-02,-4.140616510994732380e-04,1.956679124281990312e-10,-1.218771468847990036e-02,1.665631681680679321e-01,-1.305653993040323257e-02,-4.612171649932861328e-02,1.640688776969909668e-01,-2.667022054083645344e-04,-3.321679309010505676e-02,-5.176497623324394226e-03,-7.252467423677444458e-02,-2.406671643257141113e-02,-8.084331639111042023e-03,3.522832989692687988e-01,-2.362384833395481110e-02,-5.598032847046852112e-02,-8.897783607244491577e-02,-4.888345673680305481e-02,-5.936373770236968994e-02,-7.509005069732666016e-02,-1.165959089994430542e-01,-4.213955253362655640e-02,4.234167933464050293e-01,-2.038849890232086182e-02,-5.560349673032760620e-02,-3.051399289688561112e-05,3.564126193523406982e-01,3.932075341326821127e-14,-3.636884316802024841e-02,-3.326292708516120911e-02,-3.404323011636734009e-02,-1.760548353195190430e-02,-6.295536458492279053e-02,-2.718194796308935623e-14,-4.279196262359619141e-02,-3.474220633506774902e-02,-6.348328292369842529e-02,-5.229423940181732178e-02,-1.517635583877563477e-02,-5.365714430809020996e-03,-2.664536051452159882e-02,-1.016656979918479919e-01,-8.753949648498959846e-11,-6.310730241239070892e-04,-5.827997811138629913e-03,6.989180296659469604e-02,-3.970094770193099976e-02,-6.254799602518554269e-15,-5.253418162465095520e-02,-1.424511335790157318e-02,-3.941644914448261261e-03,4.087617397308349609e-01,-1.709599420428276062e-02,-4.513097926974296570e-02,-1.070352178066968918e-02,1.882630288600921631e-01,-7.236696779727935791e-02,-1.479921593272592872e-05,4.851850271224975586e-01,4.779849946498870850e-02,9.215071052312850952e-02,-1.747741131111979485e-03,-2.486393600702285767e-01,-7.339091560496467659e-15,-5.639100819826126099e-02,-1.747252186760306358e-03,-9.359289705753326416e-02,1.640103161334991455e-01,-1.205079331994056702e-01,-8.054766058921813965e-02,-8.002236485481262207e-03,-1.194105371832847595e-01,-8.838298171758651733e-02,-1.029992848634719849e-01,-7.114387303590774536e-02,2.690904140472412109e-01,-1.074162777513265610e-02,-1.771699339151382446e-01,-9.823537538977689110e-07,-5.441954359412193298e-03,9.865424782037734985e-02,-3.901698440313339233e-02,-1.237991824746131897e-01,-5.092455446720123291e-02,-5.730960145592689514e-02,-4.241339047439396381e-04,-4.440481308847665787e-03,-7.668075850233435631e-04,-7.065337896347045898e-02,-1.718884259462356567e-01,-5.911522021051496267e-05,3.917192633630384169e-14,-3.874426707625389099e-02,-1.378189423121511936e-03,-5.278271260067413095e-07,-9.193652123212814331e-02,-8.647787570953369141e-02,-7.102677226066589355e-02,-5.154527723789215088e-02,-2.419864904368296266e-04,-3.044124604082917851e-15,-8.703013882040977478e-03,-1.283885361712906389e-14,3.998798429965972900e-01,-4.294264689087867737e-02,-2.411374734947457910e-04,-5.312436074018478394e-02,-5.637073889374732971e-03,-3.119398839771747589e-03,-1.721801818348467350e-03,1.319099590182304382e-02,-1.183038130402565002e-01,-5.842133983969688416e-02,-8.129022628644566595e-15,-4.230562131851911545e-03,-9.264771826565265656e-03,-3.527772285448829703e-14,-5.000873468816280365e-03,-1.059658899903297424e-01,-7.241401076316833496e-02,-5.997082218527793884e-02,-5.542159546166658401e-03,-5.068849772214889526e-02,-5.303519591689109802e-02,4.561305289030315180e-08,-4.280143976211547852e-02,-2.372370545344892889e-06,-5.296427384018898010e-02,8.401933256118113147e-15,-5.333940312266349792e-02,7.016281999838724914e-10,-3.738027811050415039e-02,-1.358922062334386172e-15,-1.490016351453959942e-03,-2.213330194354057312e-02,4.062376916408538818e-01,-1.251416355371475220e-01,-5.171818286180496216e-02,1.551400135202558872e-14,-3.071939200162887573e-02,-6.894047146488446742e-07,-7.064315766473067137e-15,-5.154203996062278748e-02,-8.367253094911575317e-02,-2.587833441793918610e-03,-1.582313110832372915e-14,-1.572664268314838409e-02,-4.419768229126930237e-02,7.443591709265125200e-15,-5.385455551731865853e-06,-2.196806890424340963e-04,-4.113284405320882797e-03,-2.059651933450368233e-07,2.592240997052221163e-15,-8.421435215844041977e-10,-5.129224061965942383e-02,-8.180800058644327466e-15,-1.562740355730056763e-01,-3.701233491301536560e-02,-1.165966168059640040e-07,-6.448148936033248901e-02,-5.135365761816501617e-03,-2.295460581080988050e-04,5.064730644226074219e-01,-1.625232547521591187e-01,3.289116919040679932e-01,-1.764436662197113037e-01,-5.236266588326543570e-06,-4.896909371018409729e-02,9.759566187858581543e-02,1.217171922326087952e-02,-1.381118874996900558e-02,-1.288097118958830833e-04,3.006194807518049184e-14,-1.325693483522627503e-05,-1.243449468165636063e-02,-2.116630870574454093e-09,3.059990208811348700e-14,-3.496938943862915039e-02,-4.280795529484748840e-02,-5.673854425549507141e-02,-4.941157996654510498e-02,-9.315049275755882263e-03,-4.899470601230859756e-03,-4.780604795087128878e-04,-5.561589822173118591e-02,2.096651336976149832e-14,-1.276752352714538574e-01,-7.501285057514905930e-03,-6.308109732344746590e-04,-2.939974788141244688e-14,-1.425701484549790621e-04,-6.071502139093354344e-05,-2.025985531508922577e-02,-3.537568263709545135e-04,-1.020976230502128601e-01,-1.227219868451356888e-02,-3.289702115580439568e-03,-9.242189116775989532e-04,-6.335497647523880005e-02,-2.289712138008326292e-04,1.119267642498016357e-01,-2.675221860408782959e-02,2.450823086684074392e-14,-7.667381316423416138e-02,-1.789625675883144140e-04,-4.964086413383483887e-02,-2.404170809313654900e-03,-1.593488501384854317e-03,1.584639402118712126e-14,-2.957741344289388508e-05,-1.258057091035880148e-05,9.952427149073628243e-08,4.919330589473247528e-03,-6.268480420112609863e-02,2.841947972774505615e-01,3.977972865104675293e-01,-4.050843708682805300e-04,8.436401799372106325e-07,-5.761175230145454407e-02,-6.878642830997705460e-03,-1.264140300918370485e-04,-4.586190916597843170e-03,-1.859241024249058682e-06,-1.531175244599580765e-02,-4.134344309568405151e-02,-9.943844377994537354e-02,-3.806090354919433594e-02,2.577138738415855890e-14,2.569563090801239014e-01,-1.008672261377796531e-04,-2.155764773488044739e-02,1.196620554651684626e-14,-2.097625657916069031e-02,1.011972816655770657e-08,-1.159708714112639427e-03,-1.239750161767005920e-01,-2.838072532540536486e-07,-1.070943698287010193e-01,-4.813165590167045593e-02,-4.720131307840347290e-02,-1.835015472906320610e-11,-1.525486558675765991e-01,-9.891227241562092209e-16,-2.421084559500741307e-07,-1.646933145821094513e-02,-1.025659497827291489e-03,-2.289097290486097336e-03,-4.320155130699276924e-05,-3.150248900055885315e-03,-1.954138006965422392e-08,-3.656303882598876953e-02,-3.959079273045063019e-03,-4.062762483954429626e-02,-1.773133772076107562e-05,4.939588010311126709e-01,-3.900084411725401878e-04,-4.525604308582842350e-04,-1.034492626786231995e-03,-7.508990529458969831e-05,-3.509644557198043913e-07,2.015435602515935898e-03,-5.818560748593881726e-05,-5.231710895895957947e-02,-3.562719793990254402e-04,-6.120669096708297729e-02,2.758797357227393832e-11,-9.924433380365371704e-02,-7.338593131862580776e-04,-2.695010602474212646e-02,-6.927523761987686157e-02,3.849449157714843750e-01,-2.005603528232313693e-05,-2.782650426524924114e-06,-2.118243137374520302e-03,-4.212221596390008926e-03,-4.505894705653190613e-02,-1.049819868057966232e-03,4.787809260164976877e-09,-8.367964066565036774e-03,-1.812611334025859833e-02,-4.965518601238727570e-04,-1.722739398246631026e-04,1.252897828817367554e-01,-2.740069665014743805e-02,-3.847896307706832886e-02,-6.017313353368081152e-06,1.427358786720844819e-10,-9.295080672018229961e-04,-3.122980124317109585e-04,4.210735559463500977e-01,1.432326399708472309e-07,-3.637675894424319267e-03,-2.863182127475738525e-02,-3.520755097270011902e-02,-8.976945537142455578e-06,4.841032624244689941e-02,-5.773666501045227051e-02,-1.165217999368906021e-02,-1.168115413747727871e-04,-1.670380355790257454e-03,2.269141532451612875e-06,-5.287441595669406524e-10,-4.533422179520130157e-03,-1.100642532110214233e-01,-6.232216954231262207e-02,-4.150765016674995422e-02,-4.107978567481040955e-02,-1.596142537891864777e-03,-4.407926928251981735e-03,4.733020209481478280e-15,-4.813986379303969443e-06,-3.976284991949796677e-03,-3.063924238085746765e-02,-3.767768293619155884e-02,4.769741120624025610e-14,-8.405279368162155151e-02,-5.024177953600883484e-03,-3.902906179428100586e-02,-3.438932981225661933e-05,7.490504216889348754e-09,-2.130447101080790162e-04,-1.126736104488372803e-01,-1.080337837338447571e-01,-1.661853282712399960e-03,-1.265921700799310656e-09,9.317203177603219921e-15,-1.393310958519577980e-04,-4.731464013457298279e-02,-2.212547929957509041e-03,-5.057922378182411194e-02,-3.498355299234390259e-02,-3.847844153642654419e-02,1.026612825918158181e-14,4.955968856811523438e-01,-5.558847988140769303e-06,-3.542278334498405457e-02,-7.747278548777103424e-03,-2.731978893280029297e-03,-5.693716462701559067e-03,9.166956473419252127e-15,-9.448606520891189575e-03,-1.397310273130308866e-14,4.667767643695697188e-05,-7.756102085113525391e-02,-1.368402445223182440e-05,-2.125205844640731812e-02,-1.374237010943807000e-14,2.417377631402928273e-09,8.869624882936477661e-02,-1.241061108885332942e-04,-1.124295443296432495e-01,-7.601533550769090652e-03,-6.333256512880325317e-02,-2.486099838279187679e-04,-1.435779500752687454e-03,-2.667395584285259247e-02,-3.614565124735236168e-03,1.688830231216797984e-08,-3.854897990822792053e-02,3.347830102029547561e-08,-3.529810532927513123e-02,-9.716502577066421509e-02,-4.105556854483438656e-06,-5.501833185553550720e-02,-3.535423893481492996e-04,-5.893220532016130164e-06,6.436018913451822809e-15,-1.220394507981836796e-03,-1.695939921773970127e-03,3.200834393501281738e-01,-5.214458331465721130e-03,-2.013359684497117996e-03,1.957966834306716919e-01,-4.413056012708693743e-04,-9.291976311942562461e-05,-2.162841334939002991e-02,-4.182863049209117889e-03,-1.048599951900541782e-03,-8.321708440780639648e-02,1.046541478287978458e-14,-2.581137232482433319e-02,-5.383677780628204346e-02,-5.691024288535118103e-02,1.671369136602152139e-05,-1.587572114658541977e-05,-9.919610619544982910e-02,-3.027127822861075401e-03,-4.217099398374557495e-02,-5.543974786996841431e-02,-7.025154680013656616e-02,2.142710592289986948e-10,-1.571674132719635963e-03,-8.729646354913711548e-02,-1.419876702129840851e-02,-2.454333566129207611e-02,-1.353860646486282349e-01,-2.785004861652851105e-02,-3.177606966346502304e-03,4.641118067638672073e-08,-3.089214442297816277e-03,-3.658544644713401794e-02,-3.483847901225090027e-02,-6.496678292751312256e-02,-2.361384406685829163e-02,-3.617788897827267647e-04,-7.766553014516830444e-02,-1.435207128524780273e-01,-3.296256531029939651e-03,-9.975827197195030749e-06,-7.997244596481323242e-02,-1.119518466293811798e-02,-1.085185781121253967e-01,-2.136370725929737091e-02,-2.132748998701572418e-02,-5.496732145547866821e-02,-1.153121888637542725e-01,-2.159345708787441254e-02,-1.119216540246270597e-04,-1.016538292169570923e-01,1.915826032927725464e-06,-9.516054391860961914e-02,-1.249965629540383816e-03,-5.401623249053955078e-02,-8.439709432423114777e-03,-2.656683602492507235e-14,-3.199425293132662773e-03,-5.548517033457756042e-02,-5.033331262893625535e-07,-4.600279033184051514e-03,-5.557643249630928040e-02,-1.491445954889059067e-02,1.235431618118454367e-10,-8.004263788461685181e-02,4.201368689537048340e-01,-2.821213565766811371e-02,-1.420914032051676101e-14,-7.583155483007431030e-02,-4.091360419988632202e-02,-2.755247987806797028e-03,-1.329355221241712570e-02,3.426644683062959884e-14,-2.891804464161396027e-02,-1.143211702583357692e-04,-3.560193628072738647e-02,-4.025129892397671938e-04,2.782266438007354736e-01,-6.651582568883895874e-02,-1.551404874771833420e-02,-4.001022316515445709e-03,-3.311434411443769932e-04,-8.758459443924948573e-05,9.783347049152624209e-11,1.261414736509323120e-01,-9.569884884541579595e-10,-3.404497355222702026e-02,-3.422852605581283569e-02,-1.883654296398162842e-02,-8.801405876874923706e-02,-4.455944895744323730e-02,-2.940085483714938164e-03,-2.164945751428604126e-01,-4.179121460765600204e-04,-1.295388938160613179e-04,-1.267595333047211170e-03,-1.477384706959128380e-03,-9.010923349705990404e-06,-2.077274130485307069e-09,-4.573008418083190918e-02,-6.829531776020303369e-05,9.548558294773101807e-02,-1.001244992949068546e-03,-2.568995766341686249e-02,-5.579273682087659836e-03,-9.149024845100939274e-04,-2.768331341940211132e-07,-8.717537857592105865e-03,-1.321823149919509888e-01,-4.114299081265926361e-03,-1.758305006660521030e-05,-8.701983839273452759e-03,-1.781064565875567496e-05,1.550941319816701025e-10,-1.965100411325693130e-03,-6.507371836050879210e-06,-1.074363681254908442e-04,-1.660569687373936176e-03,4.262768030166625977e-01,-2.431493997573852539e-02,3.385859370652610778e-10,-1.511379778385162354e-01,1.195713128255291094e-14,-1.980807445943355560e-02,-6.490805000066757202e-02,-6.217948161065578461e-03,-1.735165342688560486e-02,-7.202165573835372925e-02,-3.644818498287349939e-04,-1.310296356678009033e-01,-1.940189686138182878e-04,-1.609649742022156715e-03,-4.520810209214687347e-03,-1.225772080942988396e-03,-3.675176762044429779e-03,5.079315190670286029e-09,-5.410722922533750534e-03,-1.589232310652732849e-02,-2.557680418249219656e-04,-1.674794033169746399e-02,4.832934052956261439e-11,-5.905045662075281143e-03,2.331432142455014400e-06,1.329866206441427182e-14,1.066312268376350403e-01,-2.634140546433627605e-04,-6.306253373622894287e-02,-9.771150350570678711e-02,-5.528650217456743121e-05,2.697559595108032227e-01,-6.656127732318495305e-11,-3.035464696586132050e-02,-1.752912402153015137e-01,-1.778463579746661360e-14,-2.150335116311907768e-03,-1.354901771992444992e-02,1.319473597050091485e-08,-6.493318505818024278e-05,-3.613041481003165245e-03,-4.162881523370742798e-03,-3.541792393662035465e-04,-3.527611028403043747e-03,-5.346672609448432922e-03,-4.994150003767572343e-06,-5.589098855853080750e-02,-1.994091831147670746e-02,-1.233189851045608521e-01,-4.559554159641265869e-02,5.112949013710021973e-01,-1.878124102950096130e-02,-1.359669314800453915e-14,-1.586737483739852905e-02,-6.848561461083590984e-04,-3.059165775775909424e-01,-1.958374923560768366e-05,-9.190397337079048157e-03,2.650575048335213069e-08,-1.048675660197950776e-10,-1.446502935141324997e-02,-4.485872108489274979e-03,-1.157865598797798157e-01,-1.260086447000503540e-01,-1.805093617981978760e-14,-1.832187699619680643e-04,4.120354950428009033e-01,-1.009303622937721828e-14,-2.158649638295173645e-02,-1.472405074309790507e-06,5.143243670463562012e-01,-3.801726270467042923e-03,3.041145758614013928e-14,1.944019347429275513e-01,1.917213350534439087e-01,5.272500575785425692e-15,-1.871573738753795624e-02,-2.769467886537313461e-03,-1.730346679687500000e-01,-3.378186175240216471e-09,-5.301860719919204712e-02,